-3.562627856589082286e-03,2.088093881147226952e-02,5.420047066029575200e-01,9.998648166656494141e-01,-1.577751897275447845e-02,-3.610682906582951546e-03,2.892928197979927063e-03,0.000000000000000000e+00,0.000000000000000000e+00,0.000000000000000000e+00,-1.100000000000000089e+00,2.000000000000000111e-01,-5.000000000000000000e-01,0.000000000000000000e+00,1.100000000000000089e+00,2.000000000000000111e-01,5.000000000000000000e-01,-2.790006622672080994e-02,1.327368766069412231e-01,3.445899486541748047e-01,3.390407860279083252e-01,-3.114106655120849609e-01,-5.252237990498542786e-02,1.319114002399146557e-03,-5.364710465073585510e-02,-1.234277784824371338e-01,1.344578117132186890e-01,-1.391693055629730225e-01,1.331852078437805176e-01
-3.415269369572269346e-03,1.763516485253631069e-02,5.419768886712162947e-01,9.998572468757629395e-01,-1.538446079939603806e-02,-5.309961270540952682e-03,4.534068983048200607e-03,0.000000000000000000e+00,0.000000000000000000e+00,0.000000000000000000e+00,-1.100000000000000089e+00,2.000000000000000111e-01,-5.000000000000000000e-01,0.000000000000000000e+00,1.100000000000000089e+00,2.000000000000000111e-01,5.000000000000000000e-01,-2.546215988695621490e-02,1.382228881120681763e-01,3.384502530097961426e-01,3.405819237232208252e-01,-3.122756183147430420e-01,-5.826961621642112732e-02,6.266884505748748779e-03,-4.895922914147377014e-02,-1.296430081129074097e-01,1.374972611665725708e-01,-1.453669965267181396e-01,1.263540089130401611e-01
-3.144417884436229160e-03,1.446533618271444999e-02,5.420335625172263416e-01,9.998452067375183105e-01,-1.475714799016714096e-02,-7.167660165578126907e-03,6.358847953379154205e-03,0.000000000000000000e+00,0.000000000000000000e+00,0.000000000000000000e+00,-1.100000000000000089e+00,2.000000000000000111e-01,-5.000000000000000000e-01,0.000000000000000000e+00,1.100000000000000089e+00,2.000000000000000111e-01,5.000000000000000000e-01,-2.052893117070198059e-02,1.422031223773956299e-01,3.327740132808685303e-01,3.367841541767120361e-01,-3.094189167022705078e-01,-6.376535445451736450e-02,1.273141801357269287e-02,-4.405513033270835876e-02,-1.357834935188293457e-01,1.379822790622711182e-01,-1.495176404714584351e-01,1.190738528966903687e-01
-2.767801169644702654e-03,1.135842482380644211e-02,5.422636209646559680e-01,9.998362660408020020e-01,-1.377521082758903503e-02,-8.901930414140224457e-03,7.643543183803558350e-03,0.000000000000000000e+00,0.000000000000000000e+00,0.000000000000000000e+00,-1.100000000000000089e+00,2.000000000000000111e-01,-5.000000000000000000e-01,0.000000000000000000e+00,1.100000000000000089e+00,2.000000000000000111e-01,5.000000000000000000e-01,-1.188329420983791351e-02,1.442723572254180908e-01,3.288722336292266846e-01,3.256344795227050781e-01,-3.026766479015350342e-01,-6.948945671319961548e-02,2.063548192381858826e-02,-3.906187042593955994e-02,-1.399065852165222168e-01,1.331090182065963745e-01,-1.496777087450027466e-01,1.122804507613182068e-01
-2.414637345696018546e-03,8.312035631129725474e-03,5.425196289752769463e-01,9.998300671577453613e-01,-1.268066652119159698e-02,-1.046867948025465012e-02,8.331370539963245392e-03,0.000000000000000000e+00,0.000000000000000000e+00,0.000000000000000000e+00,-1.100000000000000089e+00,2.000000000000000111e-01,-5.000000000000000000e-01,0.000000000000000000e+00,1.100000000000000089e+00,2.000000000000000111e-01,5.000000000000000000e-01,-2.358081983402371407e-03,1.458560526371002197e-01,3.262248933315277100e-01,3.118203282356262207e-01,-2.941301167011260986e-01,-7.527521252632141113e-02,2.784260176122188568e-02,-3.420775011181831360e-02,-1.419042795896530151e-01,1.272570937871932983e-01,-1.488976329565048218e-01,1.052711978554725647e-01
-2.151006975257063487e-03,5.281598608055377946e-03,5.427138562658518905e-01,9.998221993446350098e-01,-1.173107512295246124e-02,-1.187801826745271683e-02,8.764315396547317505e-03,0.000000000000000000e+00,0.000000000000000000e+00,0.000000000000000000e+00,-1.100000000000000089e+00,2.000000000000000111e-01,-5.000000000000000000e-01,0.000000000000000000e+00,1.100000000000000089e+00,2.000000000000000111e-01,5.000000000000000000e-01,5.138100590556859970e-03,1.483368873596191406e-01,3.237058818340301514e-01,3.010728359222412109e-01,-2.863113880157470703e-01,-8.089338988065719604e-02,3.365994244813919067e-02,-2.939295955002307892e-02,-1.436241865158081055e-01,1.234260722994804382e-01,-1.494434475898742676e-01,9.823501855134963989e-02
-1.984064839454014774e-03,2.411012191718180965e-03,5.428059875950066449e-01,9.998090863227844238e-01,-1.112367771565914154e-02,-1.320827286690473557e-02,9.143050760030746460e-03,0.000000000000000000e+00,0.000000000000000000e+00,0.000000000000000000e+00,-1.100000000000000089e+00,2.000000000000000111e-01,-5.000000000000000000e-01,0.000000000000000000e+00,1.100000000000000089e+00,2.000000000000000111e-01,5.000000000000000000e-01,9.893207810819149017e-03,1.519471406936645508e-01,3.211361467838287354e-01,2.952768206596374512e-01,-2.809750139713287354e-01,-8.608122915029525757e-02,3.835958242416381836e-02,-2.451297640800476074e-02,-1.457846611738204956e-01,1.212491467595100403e-01,-1.512459218502044678e-01,9.139718860387802124e-02
-1.852484822150959453e-03,-4.124511964339880386e-04,5.428100149672139274e-01,9.997898340225219727e-01,-1.080572698265314102e-02,-1.456813700497150421e-02,9.562140330672264099e-03,0.000000000000000000e+00,0.000000000000000000e+00,0.000000000000000000e+00,-1.100000000000000089e+00,2.000000000000000111e-01,-5.000000000000000000e-01,0.000000000000000000e+00,1.100000000000000089e+00,2.000000000000000111e-01,5.000000000000000000e-01,1.301237940788269043e-02,1.567226797342300415e-01,3.186835050582885742e-01,2.930054664611816406e-01,-2.777830660343170166e-01,-9.102271497249603271e-02,4.273122176527976990e-02,-1.939412206411361694e-02,-1.483611464500427246e-01,1.199859604239463806e-01,-1.536369472742080688e-01,8.480744063854217529e-02
-1.767437237193173047e-03,-3.054559088277987878e-03,5.427222431646754330e-01,9.997608065605163574e-01,-1.071455888450145721e-02,-1.617293618619441986e-02,1.009969040751457214e-02,0.000000000000000000e+00,0.000000000000000000e+00,0.000000000000000000e+00,-1.100000000000000089e+00,2.000000000000000111e-01,-5.000000000000000000e-01,0.000000000000000000e+00,1.100000000000000089e+00,2.000000000000000111e-01,5.000000000000000000e-01,1.571088470518589020e-02,1.622809916734695435e-01,3.161509931087493896e-01,2.933599054813385010e-01,-2.764240205287933350e-01,-9.558644890785217285e-02,4.761741310358047485e-02,-1.421837229281663895e-02,-1.513201743364334106e-01,1.193208470940589905e-01,-1.562732607126235962e-01,7.853361219167709351e-02
-1.616870248872514029e-03,-5.604176006239905070e-03,5.425721508911763857e-01,9.997192621231079102e-01,-1.087957061827182770e-02,-1.812925003468990326e-02,1.069388911128044128e-02,0.000000000000000000e+00,0.000000000000000000e+00,0.000000000000000000e+00,-1.100000000000000089e+00,2.000000000000000111e-01,-5.000000000000000000e-01,0.000000000000000000e+00,1.100000000000000089e+00,2.000000000000000111e-01,5.000000000000000000e-01,1.861227117478847504e-02,1.682210117578506470e-01,3.130717575550079346e-01,2.957668304443359375e-01,-2.766728103160858154e-01,-1.000563725829124451e-01,5.298266559839248657e-02,-8.951796218752861023e-03,-1.549286544322967529e-01,1.192651465535163879e-01,-1.589406430721282959e-01,7.235708832740783691e-02
-1.460745188485797989e-03,-7.938469611860886690e-03,5.423730658423719930e-01,9.996643662452697754e-01,-1.121003180742263794e-02,-2.027872204780578613e-02,1.158912759274244308e-02,0.000000000000000000e+00,0.000000000000000000e+00,0.000000000000000000e+00,-1.100000000000000089e+00,2.000000000000000111e-01,-5.000000000000000000e-01,0.000000000000000000e+00,1.100000000000000089e+00,2.000000000000000111e-01,5.000000000000000000e-01,2.133842930197715759e-02,1.741604804992675781e-01,3.092725574970245361e-01,2.997715771198272705e-01,-2.782003879547119141e-01,-1.046295836567878723e-01,5.851223692297935486e-02,-3.803522093221545219e-03,-1.591901332139968872e-01,1.196513697504997253e-01,-1.618119478225708008e-01,6.621916592121124268e-02
-1.288029274872664123e-03,-1.015546470446596766e-02,5.421595735960837992e-01,9.995953440666198730e-01,-1.153163891285657883e-02,-2.244865335524082184e-02,1.312243659049272537e-02,0.000000000000000000e+00,0.000000000000000000e+00,0.000000000000000000e+00,-1.100000000000000089e+00,2.000000000000000111e-01,-5.000000000000000000e-01,0.000000000000000000e+00,1.100000000000000089e+00,2.000000000000000111e-01,5.000000000000000000e-01,2.378995157778263092e-02,1.796311736106872559e-01,3.040689826011657715e-01,3.042697310447692871e-01,-2.801026999950408936e-01,-1.090982705354690552e-01,6.405954062938690186e-02,9.196937317028641701e-04,-1.649314165115356445e-01,1.206977739930152893e-01,-1.651646941900253296e-01,5.938072130084037781e-02
-1.071151908066104953e-03,-1.225387678067717256e-02,5.420188646846347824e-01,9.995204806327819824e-01,-1.139431633055210114e-02,-2.420694008469581604e-02,1.558809354901313782e-02,0.000000000000000000e+00,0.000000000000000000e+00,0.000000000000000000e+00,-1.100000000000000089e+00,2.000000000000000111e-01,-5.000000000000000000e-01,0.000000000000000000e+00,1.100000000000000089e+00,2.000000000000000111e-01,5.000000000000000000e-01,2.611809968948364258e-02,1.828975677490234375e-01,2.973845005035400391e-01,3.054281771183013916e-01,-2.794255316257476807e-01,-1.129694804549217224e-01,6.894087046384811401e-02,4.203819204121828079e-03,-1.718741208314895630e-01,1.222235560417175293e-01,-1.685467660427093506e-01,5.277867242693901062e-02
-8.302514087655722295e-04,-1.427630269721225607e-02,5.419728612990090122e-01,9.994326233863830566e-01,-1.084117684513330460e-02,-2.561652474105358124e-02,1.899132132530212402e-02,0.000000000000000000e+00,0.000000000000000000e+00,0.000000000000000000e+00,-1.100000000000000089e+00,2.000000000000000111e-01,-5.000000000000000000e-01,0.000000000000000000e+00,1.100000000000000089e+00,2.000000000000000111e-01,5.000000000000000000e-01,2.866669930517673492e-02,1.842114031314849854e-01,2.894360423088073730e-01,3.029498159885406494e-01,-2.759019434452056885e-01,-1.161840036511421204e-01,7.383801043033599854e-02,6.309263408184051514e-03,-1.796794235706329346e-01,1.234145238995552063e-01,-1.717756986618041992e-01,4.687673971056938171e-02
-5.834778745757472152e-04,-1.625742728897191722e-02,5.419472023709254183e-01,9.993160963058471680e-01,-1.011157687753438950e-02,-2.696395665407180786e-02,2.319832518696784973e-02,0.000000000000000000e+00,0.000000000000000000e+00,0.000000000000000000e+00,-1.100000000000000089e+00,2.000000000000000111e-01,-5.000000000000000000e-01,0.000000000000000000e+00,1.100000000000000089e+00,2.000000000000000111e-01,5.000000000000000000e-01,3.128742054104804993e-02,1.844275295734405518e-01,2.804839313030242920e-01,2.983943223953247070e-01,-2.710633873939514160e-01,-1.194178313016891479e-01,7.922118902206420898e-02,7.899411953985691071e-03,-1.882991492748260498e-01,1.237881034612655640e-01,-1.749785691499710083e-01,4.140287265181541443e-02
-3.536460803621189726e-04,-1.819434550235687550e-02,5.419178897443444054e-01,9.991584420204162598e-01,-9.234691038727760315e-03,-2.847490273416042328e-02,2.804236114025115967e-02,0.000000000000000000e+00,0.000000000000000000e+00,0.000000000000000000e+00,-1.100000000000000089e+00,2.000000000000000111e-01,-5.000000000000000000e-01,0.000000000000000000e+00,1.100000000000000089e+00,2.000000000000000111e-01,5.000000000000000000e-01,3.396719694137573242e-02,1.838903725147247314e-01,2.708528339862823486e-01,2.931365072727203369e-01,-2.657435238361358643e-01,-1.226740777492523193e-01,8.532263338565826416e-02,8.997666649520397186e-03,-1.979434639215469360e-01,1.238021478056907654e-01,-1.785466521978378296e-01,3.643759712576866150e-02
-1.800951179147244148e-04,-2.003018627467687690e-02,5.418950956480370618e-01,9.989694356918334961e-01,-8.285862393677234650e-03,-3.010545857250690460e-02,3.294023498892784119e-02,0.000000000000000000e+00,0.000000000000000000e+00,0.000000000000000000e+00,-1.100000000000000089e+00,2.000000000000000111e-01,-5.000000000000000000e-01,0.000000000000000000e+00,1.100000000000000089e+00,2.000000000000000111e-01,5.000000000000000000e-01,3.681784495711326599e-02,1.830296963453292847e-01,2.614148259162902832e-01,2.877191305160522461e-01,-2.603787481784820557e-01,-1.257273107767105103e-01,9.138816595077514648e-02,9.906874969601631165e-03,-2.074925601482391357e-01,1.239016056060791016e-01,-1.820574551820755005e-01,3.208842501044273376e-02
-9.134521957479812279e-05,-2.182133541179049480e-02,5.418818509909841818e-01,9.987609982490539551e-01,-7.430885452777147293e-03,-3.175706043839454651e-02,3.758685290813446045e-02,0.000000000000000000e+00,0.000000000000000000e+00,0.000000000000000000e+00,-1.100000000000000089e+00,2.000000000000000111e-01,-5.000000000000000000e-01,0.000000000000000000e+00,1.100000000000000089e+00,2.000000000000000111e-01,5.000000000000000000e-01,3.891504183411598206e-02,1.828204095363616943e-01,2.528655529022216797e-01,2.842207252979278564e-01,-2.557105123996734619e-01,-1.284944117069244385e-01,9.702105075120925903e-02,1.098845619708299637e-02,-2.167304456233978271e-01,1.239524558186531067e-01,-1.850584149360656738e-01,2.823789790272712708e-02
-1.600219144004060793e-04,-2.361011924621921748e-02,5.418186170953993575e-01,9.985497593879699707e-01,-7.058055605739355087e-03,-3.319811820983886719e-02,4.178904742002487183e-02,0.000000000000000000e+00,0.000000000000000000e+00,0.000000000000000000e+00,-1.100000000000000089e+00,2.000000000000000111e-01,-5.000000000000000000e-01,0.000000000000000000e+00,1.100000000000000089e+00,2.000000000000000111e-01,5.000000000000000000e-01,3.851768374443054199e-02,1.846758276224136353e-01,2.452066689729690552e-01,2.854388356208801270e-01,-2.531127631664276123e-01,-1.307191997766494751e-01,1.014714986085891724e-01,1.302926056087017059e-02,-2.255786210298538208e-01,1.237455233931541443e-01,-1.869960278272628784e-01,2.460281550884246826e-02
-4.742393769794778506e-04,-2.524728497283326364e-02,5.416579789194193584e-01,9.983581304550170898e-01,-7.449244614690542221e-03,-3.424710035324096680e-02,4.530499130487442017e-02,0.000000000000000000e+00,0.000000000000000000e+00,0.000000000000000000e+00,-1.100000000000000089e+00,2.000000000000000111e-01,-5.000000000000000000e-01,0.000000000000000000e+00,1.100000000000000089e+00,2.000000000000000111e-01,5.000000000000000000e-01,3.408478200435638428e-02,1.890741884708404541e-01,2.380686402320861816e-01,2.935490012168884277e-01,-2.538482248783111572e-01,-1.322101354598999023e-01,1.045165956020355225e-01,1.664254628121852875e-02,-2.331987917423248291e-01,1.230948194861412048e-01,-1.876045018434524536e-01,2.131105400621891022e-02
-1.079868528526864305e-03,-2.675181210215081193e-02,5.413884356166377421e-01,9.981952309608459473e-01,-8.690566755831241608e-03,-3.493991866707801819e-02,4.806207120418548584e-02,0.000000000000000000e+00,0.000000000000000000e+00,0.000000000000000000e+00,-1.100000000000000089e+00,2.000000000000000111e-01,-5.000000000000000000e-01,0.000000000000000000e+00,1.100000000000000089e+00,2.000000000000000111e-01,5.000000000000000000e-01,2.625156193971633911e-02,1.959533393383026123e-01,2.311479151248931885e-01,3.074307441711425781e-01,-2.577697634696960449e-01,-1.338413655757904053e-01,1.062314957380294800e-01,2.224627323448657990e-02,-2.395025938749313354e-01,1.216642856597900391e-01,-1.867124140262603760e-01,1.763065718114376068e-02
-1.954283661072640874e-03,-2.807854060934988211e-02,5.411010805336814444e-01,9.980968832969665527e-01,-1.031265780329704285e-02,-3.491405025124549866e-02,4.977292940020561218e-02,0.000000000000000000e+00,0.000000000000000000e+00,0.000000000000000000e+00,-1.100000000000000089e+00,2.000000000000000111e-01,-5.000000000000000000e-01,0.000000000000000000e+00,1.100000000000000089e+00,2.000000000000000111e-01,5.000000000000000000e-01,1.589114777743816376e-02,2.037295997142791748e-01,2.257168740034103394e-01,3.234415054321289062e-01,-2.625723779201507568e-01,-1.346106380224227905e-01,1.058053970336914062e-01,2.861679531633853912e-02,-2.436102479696273804e-01,1.198442056775093079e-01,-1.846495568752288818e-01,1.384583674371242523e-02
-2.898394941361715025e-03,-2.930559684433080639e-02,5.409287754340906806e-01,9.980983138084411621e-01,-1.158940885215997696e-02,-3.373544663190841675e-02,5.027333647012710571e-02,0.000000000000000000e+00,0.000000000000000000e+00,0.000000000000000000e+00,-1.100000000000000089e+00,2.000000000000000111e-01,-5.000000000000000000e-01,0.000000000000000000e+00,1.100000000000000089e+00,2.000000000000000111e-01,5.000000000000000000e-01,4.684695973992347717e-03,2.099794149398803711e-01,2.232967466115951538e-01,3.357032537460327148e-01,-2.650939524173736572e-01,-1.343185901641845703e-01,1.017728745937347412e-01,3.381963074207305908e-02,-2.449733763933181763e-01,1.186869665980339050e-01,-1.820117980241775513e-01,1.054875366389751434e-02
-4.097971237662032147e-03,-3.021383415098593747e-02,5.408952693580979521e-01,9.981806874275207520e-01,-1.205952558666467667e-02,-3.141419962048530579e-02,5.003033205866813660e-02,0.000000000000000000e+00,0.000000000000000000e+00,0.000000000000000000e+00,-1.100000000000000089e+00,2.000000000000000111e-01,-5.000000000000000000e-01,0.000000000000000000e+00,1.100000000000000089e+00,2.000000000000000111e-01,5.000000000000000000e-01,-5.600392818450927734e-03,2.133455425500869751e-01,2.240437716245651245e-01,3.406231403350830078e-01,-2.640601396560668945e-01,-1.334837973117828369e-01,9.404908120632171631e-02,3.651713952422142029e-02,-2.442187666893005371e-01,1.185486689209938049e-01,-1.791316717863082886e-01,8.102811872959136963e-03
-5.351091862651472485e-03,-3.090680945114317180e-02,5.410090322431290177e-01,9.983071684837341309e-01,-1.173401530832052231e-02,-2.843203023076057434e-02,4.936361685395240784e-02,0.000000000000000000e+00,0.000000000000000000e+00,0.000000000000000000e+00,-1.100000000000000089e+00,2.000000000000000111e-01,-5.000000000000000000e-01,0.000000000000000000e+00,1.100000000000000089e+00,2.000000000000000111e-01,5.000000000000000000e-01,-1.367025263607501984e-02,2.136619240045547485e-01,2.265857160091400146e-01,3.378399312496185303e-01,-2.598472535610198975e-01,-1.326503902673721313e-01,8.428166806697845459e-02,3.687816113233566284e-02,-2.423660010099411011e-01,1.191270202398300171e-01,-1.764075458049774170e-01,6.587757263332605362e-03
-6.615115845354856833e-03,-3.143830321451667603e-02,5.412627566921891509e-01,9.984474182128906250e-01,-1.082258950918912888e-02,-2.521231584250926971e-02,4.847634211182594299e-02,0.000000000000000000e+00,0.000000000000000000e+00,0.000000000000000000e+00,-1.100000000000000089e+00,2.000000000000000111e-01,-5.000000000000000000e-01,0.000000000000000000e+00,1.100000000000000089e+00,2.000000000000000111e-01,5.000000000000000000e-01,-1.930455304682254791e-02,2.114972174167633057e-01,2.297129034996032715e-01,3.290706872940063477e-01,-2.531782984733581543e-01,-1.320394873619079590e-01,7.370742410421371460e-02,3.544012829661369324e-02,-2.403421103954315186e-01,1.202013194561004639e-01,-1.736939847469329834e-01,5.608012899756431580e-03
-7.867588380003592841e-03,-3.178572634634834609e-02,5.416344789949932848e-01,9.985967874526977539e-01,-9.371097199618816376e-03,-2.182803489267826080e-02,4.732990264892578125e-02,0.000000000000000000e+00,0.000000000000000000e+00,0.000000000000000000e+00,-1.100000000000000089e+00,2.000000000000000111e-01,-5.000000000000000000e-01,0.000000000000000000e+00,1.100000000000000089e+00,2.000000000000000111e-01,5.000000000000000000e-01,-2.243972010910511017e-02,2.070737034082412720e-01,2.338989526033401489e-01,3.150837719440460205e-01,-2.442138940095901489e-01,-1.311402022838592529e-01,6.249986216425895691e-02,3.227552026510238647e-02,-2.380301356315612793e-01,1.220621764659881592e-01,-1.714276969432830811e-01,5.418695509433746338e-03
-9.096051081309489486e-03,-3.191992970230528304e-02,5.420248019446929355e-01,9.987353682518005371e-01,-7.663798984140157700e-03,-1.835872046649456024e-02,4.617317020893096924e-02,0.000000000000000000e+00,0.000000000000000000e+00,0.000000000000000000e+00,-1.100000000000000089e+00,2.000000000000000111e-01,-5.000000000000000000e-01,0.000000000000000000e+00,1.100000000000000089e+00,2.000000000000000111e-01,5.000000000000000000e-01,-2.421314083039760590e-02,2.013218402862548828e-01,2.384761422872543335e-01,2.982677519321441650e-01,-2.338204234838485718e-01,-1.301427930593490601e-01,5.119062587618827820e-02,2.797014079988002777e-02,-2.356365621089935303e-01,1.241244524717330933e-01,-1.697783172130584717e-01,6.464587990194559097e-03
-1.033007088157282538e-02,-3.187224737994109186e-02,5.423415111735312433e-01,9.988439083099365234e-01,-6.296514533460140228e-03,-1.503034494817256927e-02,4.522412642836570740e-02,0.000000000000000000e+00,0.000000000000000000e+00,0.000000000000000000e+00,-1.100000000000000089e+00,2.000000000000000111e-01,-5.000000000000000000e-01,0.000000000000000000e+00,1.100000000000000089e+00,2.000000000000000111e-01,5.000000000000000000e-01,-2.650750987231731415e-02,1.960794031620025635e-01,2.423980981111526489e-01,2.829938828945159912e-01,-2.247145473957061768e-01,-1.294417083263397217e-01,4.054569825530052185e-02,2.387594990432262421e-02,-2.339155524969100952e-01,1.254333406686782837e-01,-1.680506318807601929e-01,8.227601647377014160e-03
-1.152869288268677794e-02,-3.160838443654203495e-02,5.425486094474490928e-01,9.989239573478698730e-01,-5.481820087879896164e-03,-1.212457194924354553e-02,4.442851617932319641e-02,0.000000000000000000e+00,0.000000000000000000e+00,0.000000000000000000e+00,-1.100000000000000089e+00,2.000000000000000111e-01,-5.000000000000000000e-01,0.000000000000000000e+00,1.100000000000000089e+00,2.000000000000000111e-01,5.000000000000000000e-01,-2.972922101616859436e-02,1.922281086444854736e-01,2.457951009273529053e-01,2.718535661697387695e-01,-2.180839627981185913e-01,-1.290339976549148560e-01,3.129738196730613708e-02,2.059296891093254089e-02,-2.330497205257415771e-01,1.259206533432006836e-01,-1.658803969621658325e-01,1.031298749148845673e-02
-1.265774669984092229e-02,-3.116915694005185228e-02,5.426815542495913025e-01,9.989868402481079102e-01,-5.123663693666458130e-03,-9.551416151225566864e-03,4.367814958095550537e-02,0.000000000000000000e+00,0.000000000000000000e+00,0.000000000000000000e+00,-1.100000000000000089e+00,2.000000000000000111e-01,-5.000000000000000000e-01,0.000000000000000000e+00,1.100000000000000089e+00,2.000000000000000111e-01,5.000000000000000000e-01,-3.396071121096611023e-02,1.896758973598480225e-01,2.485031485557556152e-01,2.650249600410461426e-01,-2.138676047325134277e-01,-1.287843137979507446e-01,2.327236533164978027e-02,1.812693662941455841e-02,-2.325128614902496338e-01,1.258934289216995239e-01,-1.634908020496368408e-01,1.259717624634504318e-02
-1.362283041710128130e-02,-3.056880601074998122e-02,5.427634303113727521e-01,9.990346431732177734e-01,-5.022211465984582901e-03,-7.337995804846286774e-03,4.301965236663818359e-02,0.000000000000000000e+00,0.000000000000000000e+00,0.000000000000000000e+00,-1.100000000000000089e+00,2.000000000000000111e-01,-5.000000000000000000e-01,0.000000000000000000e+00,1.100000000000000089e+00,2.000000000000000111e-01,5.000000000000000000e-01,-3.848850727081298828e-02,1.877522468566894531e-01,2.503844797611236572e-01,2.614425718784332275e-01,-2.116428762674331665e-01,-1.283324211835861206e-01,1.649063080549240112e-02,1.612287014722824097e-02,-2.321609854698181152e-01,1.256788671016693115e-01,-1.613743752241134644e-01,1.480672042816877365e-02
-1.437604114081654158e-02,-2.982047510239286409e-02,5.428316050037892415e-01,9.990671873092651367e-01,-4.973313305526971817e-03,-5.460033193230628967e-03,4.254740476608276367e-02,0.000000000000000000e+00,0.000000000000000000e+00,0.000000000000000000e+00,-1.100000000000000089e+00,2.000000000000000111e-01,-5.000000000000000000e-01,0.000000000000000000e+00,1.100000000000000089e+00,2.000000000000000111e-01,5.000000000000000000e-01,-4.270084574818611145e-02,1.856358647346496582e-01,2.508523464202880859e-01,2.592099905014038086e-01,-2.103200852870941162e-01,-1.273561120033264160e-01,1.086351927369832993e-02,1.405861973762512207e-02,-2.319881469011306763e-01,1.255670338869094849e-01,-1.596505641937255859e-01,1.721748150885105133e-02
-1.487659394251878743e-02,-2.900060124831706915e-02,5.428719202451633974e-01,9.990878701210021973e-01,-4.952599760144948959e-03,-3.917169757187366486e-03,4.223291948437690735e-02,0.000000000000000000e+00,0.000000000000000000e+00,0.000000000000000000e+00,-1.100000000000000089e+00,2.000000000000000111e-01,-5.000000000000000000e-01,0.000000000000000000e+00,1.100000000000000089e+00,2.000000000000000111e-01,5.000000000000000000e-01,-4.610016569495201111e-02,1.832927614450454712e-01,2.504770755767822266e-01,2.573546469211578369e-01,-2.096693068742752075e-01,-1.263405382633209229e-01,6.375039927661418915e-03,1.197892706841230392e-02,-2.317360192537307739e-01,1.254838705062866211e-01,-1.583468317985534668e-01,1.979789882898330688e-02
-1.513323252752536187e-02,-2.812491766868554371e-02,5.429253140663860000e-01,9.991000294685363770e-01,-4.960844293236732483e-03,-2.657948527485132217e-03,4.204085096716880798e-02,0.000000000000000000e+00,0.000000000000000000e+00,0.000000000000000000e+00,-1.100000000000000089e+00,2.000000000000000111e-01,-5.000000000000000000e-01,0.000000000000000000e+00,1.100000000000000089e+00,2.000000000000000111e-01,5.000000000000000000e-01,-4.874275252223014832e-02,1.808890849351882935e-01,2.497550845146179199e-01,2.563664913177490234e-01,-2.097756862640380859e-01,-1.252754628658294678e-01,2.880027284845709801e-03,9.825441986322402954e-03,-2.315622568130493164e-01,1.254934519529342651e-01,-1.573649346828460693e-01,2.256231941282749176e-02
-1.517219839161356061e-02,-2.717314477986420770e-02,5.429826937405147769e-01,9.991027712821960449e-01,-5.021741613745689392e-03,-1.652985112741589546e-03,4.201987385749816895e-02,0.000000000000000000e+00,0.000000000000000000e+00,0.000000000000000000e+00,-1.100000000000000089e+00,2.000000000000000111e-01,-5.000000000000000000e-01,0.000000000000000000e+00,1.100000000000000089e+00,2.000000000000000111e-01,5.000000000000000000e-01,-5.065129697322845459e-02,1.785331666469573975e-01,2.491658180952072144e-01,2.563183009624481201e-01,-2.103805392980575562e-01,-1.241928935050964355e-01,2.422931429464370012e-04,7.523202802985906601e-03,-2.315075695514678955e-01,1.259687095880508423e-01,-1.568388491868972778e-01,2.543885633349418640e-02
-1.500031626990271962e-02,-2.614649183149778816e-02,5.430019171769270292e-01,9.990997314453125000e-01,-5.217818077653646469e-03,-1.042507356032729149e-03,4.208710417151451111e-02,0.000000000000000000e+00,0.000000000000000000e+00,0.000000000000000000e+00,-1.100000000000000089e+00,2.000000000000000111e-01,-5.000000000000000000e-01,0.000000000000000000e+00,1.100000000000000089e+00,2.000000000000000111e-01,5.000000000000000000e-01,-5.165527015924453735e-02,1.766603887081146240e-01,2.488220632076263428e-01,2.575438022613525391e-01,-2.120421677827835083e-01,-1.232510209083557129e-01,-9.621230419725179672e-04,5.339488852769136429e-03,-2.315486371517181396e-01,1.264637708663940430e-01,-1.567274332046508789e-01,2.813856117427349091e-02
-1.454322768906789881e-02,-2.498018352394791933e-02,5.429985956328384766e-01,9.990940093994140625e-01,-5.512497853487730026e-03,-9.267724235542118549e-04,4.218880832195281982e-02,0.000000000000000000e+00,0.000000000000000000e+00,0.000000000000000000e+00,-1.100000000000000089e+00,2.000000000000000111e-01,-5.000000000000000000e-01,0.000000000000000000e+00,1.100000000000000089e+00,2.000000000000000111e-01,5.000000000000000000e-01,-5.158090963959693909e-02,1.751041412353515625e-01,2.485410124063491821e-01,2.600833773612976074e-01,-2.147342264652252197e-01,-1.220806688070297241e-01,-4.612109332811087370e-04,3.257350064814090729e-03,-2.317683994770050049e-01,1.269870549440383911e-01,-1.573140621185302734e-01,3.076809085905551910e-02
-1.374584172645376863e-02,-2.369934681925282838e-02,5.429946928185345190e-01,9.990815520286560059e-01,-5.827758461236953735e-03,-1.360766938887536526e-03,4.242961108684539795e-02,0.000000000000000000e+00,0.000000000000000000e+00,0.000000000000000000e+00,-1.100000000000000089e+00,2.000000000000000111e-01,-5.000000000000000000e-01,0.000000000000000000e+00,1.100000000000000089e+00,2.000000000000000111e-01,5.000000000000000000e-01,-4.999835789203643799e-02,1.736042648553848267e-01,2.480957210063934326e-01,2.629326283931732178e-01,-2.180652022361755371e-01,-1.208366155624389648e-01,2.313418313860893250e-03,1.262790523469448090e-03,-2.321782112121582031e-01,1.270905137062072754e-01,-1.584386080503463745e-01,3.298902511596679688e-02
-1.258227499025506985e-02,-2.230587344056917179e-02,5.429765073646499740e-01,9.990630149841308594e-01,-6.089099217206239700e-03,-2.343498868867754936e-03,4.278544709086418152e-02,0.000000000000000000e+00,0.000000000000000000e+00,0.000000000000000000e+00,-1.100000000000000089e+00,2.000000000000000111e-01,-5.000000000000000000e-01,0.000000000000000000e+00,1.100000000000000089e+00,2.000000000000000111e-01,5.000000000000000000e-01,-4.659134149551391602e-02,1.716909259557723999e-01,2.473842501640319824e-01,2.653510272502899170e-01,-2.217651903629302979e-01,-1.196303665637969971e-01,7.496015634387731552e-03,-8.158136624842882156e-04,-2.328217327594757080e-01,1.264174133539199829e-01,-1.597873419523239136e-01,3.504367917776107788e-02
-1.113249624935872505e-02,-2.084376346724427578e-02,5.429392645515577209e-01,9.990427494049072266e-01,-6.243356037884950638e-03,-3.790297778323292732e-03,4.312976449728012085e-02,0.000000000000000000e+00,0.000000000000000000e+00,0.000000000000000000e+00,-1.100000000000000089e+00,2.000000000000000111e-01,-5.000000000000000000e-01,0.000000000000000000e+00,1.100000000000000089e+00,2.000000000000000111e-01,5.000000000000000000e-01,-4.127781838178634644e-02,1.693936288356781006e-01,2.467523217201232910e-01,2.672084569931030273e-01,-2.254739701747894287e-01,-1.179835051298141479e-01,1.457009278237819672e-02,-3.057710826396942139e-03,-2.333715409040451050e-01,1.252882927656173706e-01,-1.615903973579406738e-01,3.739700838923454285e-02
-9.545286675583514527e-03,-1.934516581311596095e-02,5.428736225365087265e-01,9.990217685699462891e-01,-6.394842639565467834e-03,-5.417841486632823944e-03,4.341890290379524231e-02,0.000000000000000000e+00,0.000000000000000000e+00,0.000000000000000000e+00,-1.100000000000000089e+00,2.000000000000000111e-01,-5.000000000000000000e-01,0.000000000000000000e+00,1.100000000000000089e+00,2.000000000000000111e-01,5.000000000000000000e-01,-3.515226021409034729e-02,1.671944558620452881e-01,2.464147508144378662e-01,2.690236568450927734e-01,-2.294898331165313721e-01,-1.164128482341766357e-01,2.221981994807720184e-02,-5.341795738786458969e-03,-2.336631864309310913e-01,1.244117170572280884e-01,-1.638512909412384033e-01,3.990805149078369141e-02
-8.026445767209592838e-03,-1.792297664780470590e-02,5.428105547181283352e-01,9.990005493164062500e-01,-6.637553218752145767e-03,-6.860377267003059387e-03,4.366677254438400269e-02,0.000000000000000000e+00,0.000000000000000000e+00,0.000000000000000000e+00,-1.100000000000000089e+00,2.000000000000000111e-01,-5.000000000000000000e-01,0.000000000000000000e+00,1.100000000000000089e+00,2.000000000000000111e-01,5.000000000000000000e-01,-2.990145049989223480e-02,1.653421521186828613e-01,2.458725571632385254e-01,2.717334926128387451e-01,-2.339629232883453369e-01,-1.147677898406982422e-01,2.903771959245204926e-02,-7.548552937805652618e-03,-2.341386675834655762e-01,1.243257969617843628e-01,-1.662219166755676270e-01,4.221846908330917358e-02
-6.589528927309061881e-03,-1.658538435597555968e-02,5.427482757664690016e-01,9.989820122718811035e-01,-6.989811081439256668e-03,-8.082527667284011841e-03,4.382591694593429565e-02,0.000000000000000000e+00,0.000000000000000000e+00,0.000000000000000000e+00,-1.100000000000000089e+00,2.000000000000000111e-01,-5.000000000000000000e-01,0.000000000000000000e+00,1.100000000000000089e+00,2.000000000000000111e-01,5.000000000000000000e-01,-2.560316585004329681e-02,1.639756709337234497e-01,2.452118247747421265e-01,2.755816280841827393e-01,-2.388730943202972412e-01,-1.133935600519180298e-01,3.485399112105369568e-02,-9.459050372242927551e-03,-2.345985323190689087e-01,1.249584779143333435e-01,-1.686730831861495972e-01,4.409270733594894409e-02
-5.232075812921840180e-03,-1.535340289390090852e-02,5.426686832662483972e-01,9.989648461341857910e-01,-7.386751007288694382e-03,-9.013967588543891907e-03,4.396987706422805786e-02,0.000000000000000000e+00,0.000000000000000000e+00,0.000000000000000000e+00,-1.100000000000000089e+00,2.000000000000000111e-01,-5.000000000000000000e-01,0.000000000000000000e+00,1.100000000000000089e+00,2.000000000000000111e-01,5.000000000000000000e-01,-2.237614989280700684e-02,1.629883199930191040e-01,2.445186376571655273e-01,2.801926136016845703e-01,-2.437634915113449097e-01,-1.123196557164192200e-01,3.963534161448478699e-02,-1.114026084542274475e-02,-2.349877804517745972e-01,1.259564906358718872e-01,-1.710190176963806152e-01,4.538269713521003723e-02
-3.975351117974655450e-03,-1.423207555918700254e-02,5.425742268562316895e-01,9.989501833915710449e-01,-7.804634515196084976e-03,-9.632723405957221985e-03,4.410102963447570801e-02,0.000000000000000000e+00,0.000000000000000000e+00,0.000000000000000000e+00,-1.100000000000000089e+00,2.000000000000000111e-01,-5.000000000000000000e-01,0.000000000000000000e+00,1.100000000000000089e+00,2.000000000000000111e-01,5.000000000000000000e-01,-2.005276270210742950e-02,1.622080206871032715e-01,2.437206655740737915e-01,2.847967743873596191e-01,-2.485655099153518677e-01,-1.115136444568634033e-01,4.353651031851768494e-02,-1.262605469673871994e-02,-2.355068325996398926e-01,1.268668323755264282e-01,-1.731570810079574585e-01,4.626728966832160950e-02
-2.833868433160453490e-03,-1.320062583406465297e-02,5.424910221768147744e-01,9.989394545555114746e-01,-8.214105851948261261e-03,-9.967215359210968018e-03,4.419538378715515137e-02,0.000000000000000000e+00,0.000000000000000000e+00,0.000000000000000000e+00,-1.100000000000000089e+00,2.000000000000000111e-01,-5.000000000000000000e-01,0.000000000000000000e+00,1.100000000000000089e+00,2.000000000000000111e-01,5.000000000000000000e-01,-1.802931912243366241e-02,1.615709215402603149e-01,2.433713823556900024e-01,2.886781394481658936e-01,-2.532151639461517334e-01,-1.108516305685043335e-01,4.679974913597106934e-02,-1.373133249580860138e-02,-2.356695532798767090e-01,1.272616386413574219e-01,-1.746311038732528687e-01,4.723346233367919922e-02
-1.868836615026476817e-03,-1.232863357979710126e-02,5.424477590650621517e-01,9.989310503005981445e-01,-8.548547513782978058e-03,-9.956629015505313873e-03,4.432342201471328735e-02,0.000000000000000000e+00,0.000000000000000000e+00,0.000000000000000000e+00,-1.100000000000000089e+00,2.000000000000000111e-01,-5.000000000000000000e-01,0.000000000000000000e+00,1.100000000000000089e+00,2.000000000000000111e-01,5.000000000000000000e-01,-1.669205725193023682e-02,1.609410494565963745e-01,2.432785034179687500e-01,2.912645339965820312e-01,-2.566931545734405518e-01,-1.104101166129112244e-01,4.923996701836585999e-02,-1.444574538618326187e-02,-2.356036752462387085e-01,1.269267201423645020e-01,-1.754012256860733032e-01,4.817119985818862915e-02
-1.039461977127233931e-03,-1.159055923629138257e-02,5.424427767489293783e-01,9.989212751388549805e-01,-8.781565353274345398e-03,-9.527573361992835999e-03,4.459106922149658203e-02,0.000000000000000000e+00,0.000000000000000000e+00,0.000000000000000000e+00,-1.100000000000000089e+00,2.000000000000000111e-01,-5.000000000000000000e-01,0.000000000000000000e+00,1.100000000000000089e+00,2.000000000000000111e-01,5.000000000000000000e-01,-1.653816178441047668e-02,1.600607931613922119e-01,2.427660673856735229e-01,2.929385304450988770e-01,-2.591412663459777832e-01,-1.096959710121154785e-01,5.074625089764595032e-02,-1.509221363812685013e-02,-2.353878021240234375e-01,1.259189397096633911e-01,-1.755337864160537720e-01,4.909959062933921814e-02
-3.331250036055941554e-04,-1.097018951646550923e-02,5.424518694758716508e-01,9.989120960235595703e-01,-8.976632729172706604e-03,-8.796394802629947662e-03,4.490701854228973389e-02,0.000000000000000000e+00,0.000000000000000000e+00,0.000000000000000000e+00,-1.100000000000000089e+00,2.000000000000000111e-01,-5.000000000000000000e-01,0.000000000000000000e+00,1.100000000000000089e+00,2.000000000000000111e-01,5.000000000000000000e-01,-1.742603629827499390e-02,1.591245383024215698e-01,2.418229579925537109e-01,2.941880524158477783e-01,-2.607250213623046875e-01,-1.089002043008804321e-01,5.113139003515243530e-02,-1.576250419020652771e-02,-2.354349941015243530e-01,1.247191950678825378e-01,-1.752681732177734375e-01,4.979149624705314636e-02
2.647286857010307227e-04,-1.040451952962985656e-02,5.424575161008220459e-01,9.989044666290283203e-01,-9.189408272504806519e-03,-7.972108200192451477e-03,4.518634080886840820e-02,0.000000000000000000e+00,0.000000000000000000e+00,0.000000000000000000e+00,-1.100000000000000089e+00,2.000000000000000111e-01,-5.000000000000000000e-01,0.000000000000000000e+00,1.100000000000000089e+00,2.000000000000000111e-01,5.000000000000000000e-01,-1.889346912503242493e-02,1.584240496158599854e-01,2.410415410995483398e-01,2.956181168556213379e-01,-2.621249258518218994e-01,-1.081449389457702637e-01,5.087660998106002808e-02,-1.632771827280521393e-02,-2.353319078683853149e-01,1.237761974334716797e-01,-1.751040071249008179e-01,5.044437572360038757e-02
7.324405311520983250e-04,-9.888579285694192034e-03,5.424448527139846821e-01,9.989066123962402344e-01,-9.471602737903594971e-03,-7.103024981915950775e-03,4.522722214460372925e-02,0.000000000000000000e+00,0.000000000000000000e+00,0.000000000000000000e+00,-1.100000000000000089e+00,2.000000000000000111e-01,-5.000000000000000000e-01,0.000000000000000000e+00,1.100000000000000089e+00,2.000000000000000111e-01,5.000000000000000000e-01,-2.072828821837902069e-02,1.581193655729293823e-01,2.406900078058242798e-01,2.974240481853485107e-01,-2.635905146598815918e-01,-1.076014488935470581e-01,5.004326626658439636e-02,-1.654027774930000305e-02,-2.347464114427566528e-01,1.232757493853569031e-01,-1.750787496566772461e-01,5.112126469612121582e-02
1.081011363508290303e-03,-9.413667247381362485e-03,5.423998457915855109e-01,9.989122152328491211e-01,-9.788157418370246887e-03,-6.156552117317914963e-03,4.517273604869842529e-02,0.000000000000000000e+00,0.000000000000000000e+00,0.000000000000000000e+00,-1.100000000000000089e+00,2.000000000000000111e-01,-5.000000000000000000e-01,0.000000000000000000e+00,1.100000000000000089e+00,2.000000000000000111e-01,5.000000000000000000e-01,-2.328488416969776154e-02,1.581606119871139526e-01,2.407440692186355591e-01,2.997957766056060791e-01,-2.652814984321594238e-01,-1.070163771510124207e-01,4.884178563952445984e-02,-1.654267311096191406e-02,-2.339199334383010864e-01,1.228745132684707642e-01,-1.751372069120407104e-01,5.166410654783248901e-02
1.342973987957888369e-03,-8.995709310361005295e-03,5.423406392682080801e-01,9.989212751388549805e-01,-1.009824499487876892e-02,-5.182918161153793335e-03,4.502689838409423828e-02,0.000000000000000000e+00,0.000000000000000000e+00,0.000000000000000000e+00,-1.100000000000000089e+00,2.000000000000000111e-01,-5.000000000000000000e-01,0.000000000000000000e+00,1.100000000000000089e+00,2.000000000000000111e-01,5.000000000000000000e-01,-2.629702538251876831e-02,1.582864373922348022e-01,2.408189326524734497e-01,3.025017380714416504e-01,-2.673362195491790771e-01,-1.061379760503768921e-01,4.743546992540359497e-02,-1.662447489798069000e-02,-2.333741635084152222e-01,1.223958507180213928e-01,-1.751389354467391968e-01,5.213800445199012756e-02
1.527366961729994957e-03,-8.626199207818981834e-03,5.423019432795770367e-01,9.989368915557861328e-01,-1.037176139652729034e-02,-4.141847603023052216e-03,4.472607374191284180e-02,0.000000000000000000e+00,0.000000000000000000e+00,0.000000000000000000e+00,-1.100000000000000089e+00,2.000000000000000111e-01,-5.000000000000000000e-01,0.000000000000000000e+00,1.100000000000000089e+00,2.000000000000000111e-01,5.000000000000000000e-01,-2.946432679891586304e-02,1.584371179342269897e-01,2.411402761936187744e-01,3.050441145896911621e-01,-2.692086100578308105e-01,-1.050411462783813477e-01,4.550082609057426453e-02,-1.678101718425750732e-02,-2.327703088521957397e-01,1.219567805528640747e-01,-1.748688071966171265e-01,5.249786376953125000e-02
1.640747090703995872e-03,-8.279599974618641334e-03,5.422663612385290044e-01,9.989571571350097656e-01,-1.062462944537401199e-02,-3.089637961238622665e-03,4.429637640714645386e-02,0.000000000000000000e+00,0.000000000000000000e+00,0.000000000000000000e+00,-1.100000000000000089e+00,2.000000000000000111e-01,-5.000000000000000000e-01,0.000000000000000000e+00,1.100000000000000089e+00,2.000000000000000111e-01,5.000000000000000000e-01,-3.244106844067573547e-02,1.586155891418457031e-01,2.415910065174102783e-01,3.069359362125396729e-01,-2.706212401390075684e-01,-1.040385589003562927e-01,4.318447038531303406e-02,-1.689255982637405396e-02,-2.318412214517593384e-01,1.215657740831375122e-01,-1.742970645427703857e-01,5.290020629763603210e-02
1.710714249197873389e-03,-7.920412608314154196e-03,5.422358860715169593e-01,9.989837408065795898e-01,-1.086950954049825668e-02,-2.028878778219223022e-03,4.369417577981948853e-02,0.000000000000000000e+00,0.000000000000000000e+00,0.000000000000000000e+00,-1.100000000000000089e+00,2.000000000000000111e-01,-5.000000000000000000e-01,0.000000000000000000e+00,1.100000000000000089e+00,2.000000000000000111e-01,5.000000000000000000e-01,-3.486220911145210266e-02,1.588450521230697632e-01,2.422705590724945068e-01,3.083601295948028564e-01,-2.715209722518920898e-01,-1.030559986829757690e-01,4.064624756574630737e-02,-1.697438396513462067e-02,-2.306383550167083740e-01,1.212553828954696655e-01,-1.734196245670318604e-01,5.345177277922630310e-02
1.768410345812850351e-03,-7.559856402551322352e-03,5.422256308041437656e-01,9.990135431289672852e-01,-1.107617653906345367e-02,-9.456659900024533272e-04,4.299369826912879944e-02,0.000000000000000000e+00,0.000000000000000000e+00,0.000000000000000000e+00,-1.100000000000000089e+00,2.000000000000000111e-01,-5.000000000000000000e-01,0.000000000000000000e+00,1.100000000000000089e+00,2.000000000000000111e-01,5.000000000000000000e-01,-3.690015152096748352e-02,1.590001583099365234e-01,2.432858943939208984e-01,3.094036281108856201e-01,-2.719629406929016113e-01,-1.021232008934020996e-01,3.787894174456596375e-02,-1.705857738852500916e-02,-2.288845479488372803e-01,1.210321560502052307e-01,-1.723189204931259155e-01,5.407166853547096252e-02
1.783434656346357880e-03,-7.208870395693476284e-03,5.422514558094317927e-01,9.990453124046325684e-01,-1.128546614199876785e-02,8.131586946547031403e-05,4.220292717218399048e-02,0.000000000000000000e+00,0.000000000000000000e+00,0.000000000000000000e+00,-1.100000000000000089e+00,2.000000000000000111e-01,-5.000000000000000000e-01,0.000000000000000000e+00,1.100000000000000089e+00,2.000000000000000111e-01,5.000000000000000000e-01,-3.856609389185905457e-02,1.592775732278823853e-01,2.447190284729003906e-01,3.101410865783691406e-01,-2.725651264190673828e-01,-1.014648675918579102e-01,3.518251702189445496e-02,-1.705700531601905823e-02,-2.270950824022293091e-01,1.209149062633514404e-01,-1.712808758020401001e-01,5.441528931260108948e-02
1.778142242933472951e-03,-6.875905062993894687e-03,5.422729212881037819e-01,9.990788102149963379e-01,-1.143770106136798859e-02,1.087925978936254978e-03,4.134656488895416260e-02,0.000000000000000000e+00,0.000000000000000000e+00,0.000000000000000000e+00,-1.100000000000000089e+00,2.000000000000000111e-01,-5.000000000000000000e-01,0.000000000000000000e+00,1.100000000000000089e+00,2.000000000000000111e-01,5.000000000000000000e-01,-3.997939079999923706e-02,1.594360917806625366e-01,2.465111315250396729e-01,3.102374970912933350e-01,-2.731444239616394043e-01,-1.010415703058242798e-01,3.272606804966926575e-02,-1.709667034447193146e-02,-2.251094877719879150e-01,1.206499040126800537e-01,-1.701995283365249634e-01,5.476294457912445068e-02
1.792606367271586381e-03,-6.538083269543042489e-03,5.422948849983889597e-01,9.991089105606079102e-01,-1.153624802827835083e-02,2.073687035590410233e-03,4.054599627852439880e-02,0.000000000000000000e+00,0.000000000000000000e+00,0.000000000000000000e+00,-1.100000000000000089e+00,2.000000000000000111e-01,-5.000000000000000000e-01,0.000000000000000000e+00,1.100000000000000089e+00,2.000000000000000111e-01,5.000000000000000000e-01,-4.129885509610176086e-02,1.593947410583496094e-01,2.483537495136260986e-01,3.096781075000762939e-01,-2.732555866241455078e-01,-1.005421131849288940e-01,3.048068657517433167e-02,-1.723762601613998413e-02,-2.233557850122451782e-01,1.202264949679374695e-01,-1.690222173929214478e-01,5.524695292115211487e-02
1.814009404807078807e-03,-6.189273133558794576e-03,5.423318786956745630e-01,9.991382956504821777e-01,-1.153097022324800491e-02,3.003471996635198593e-03,3.975772112607955933e-02,0.000000000000000000e+00,0.000000000000000000e+00,0.000000000000000000e+00,-1.100000000000000089e+00,2.000000000000000111e-01,-5.000000000000000000e-01,0.000000000000000000e+00,1.100000000000000089e+00,2.000000000000000111e-01,5.000000000000000000e-01,-4.226670786738395691e-02,1.589803397655487061e-01,2.503145337104797363e-01,3.081260025501251221e-01,-2.728064060211181641e-01,-9.985560923814773560e-02,2.851372584700584412e-02,-1.755951903760433197e-02,-2.214216142892837524e-01,1.195539757609367371e-01,-1.676266491413116455e-01,5.603351071476936340e-02
1.797880129435927435e-03,-5.846143356957143357e-03,5.423892168505023426e-01,9.991635084152221680e-01,-1.146503072232007980e-02,3.909269347786903381e-03,3.905998170375823975e-02,0.000000000000000000e+00,0.000000000000000000e+00,0.000000000000000000e+00,-1.100000000000000089e+00,2.000000000000000111e-01,-5.000000000000000000e-01,0.000000000000000000e+00,1.100000000000000089e+00,2.000000000000000111e-01,5.000000000000000000e-01,-4.327388107776641846e-02,1.581503003835678101e-01,2.517434060573577881e-01,3.061400651931762695e-01,-2.721088826656341553e-01,-9.881028532981872559e-02,2.651554718613624573e-02,-1.802349090576171875e-02,-2.195009589195251465e-01,1.187202632427215576e-01,-1.660367101430892944e-01,5.667825415730476379e-02
1.739738673442678364e-03,-5.521372896313403791e-03,5.424503332617306439e-01,9.991812109947204590e-01,-1.139922812581062317e-02,4.854282829910516739e-03,3.851411864161491394e-02,0.000000000000000000e+00,0.000000000000000000e+00,0.000000000000000000e+00,-1.100000000000000089e+00,2.000000000000000111e-01,-5.000000000000000000e-01,0.000000000000000000e+00,1.100000000000000089e+00,2.000000000000000111e-01,5.000000000000000000e-01,-4.451486095786094666e-02,1.572156250476837158e-01,2.528437674045562744e-01,3.042216300964355469e-01,-2.714866995811462402e-01,-9.776235371828079224e-02,2.430732175707817078e-02,-1.854039542376995087e-02,-2.176918387413024902e-01,1.179946288466453552e-01,-1.645309478044509888e-01,5.716569349169731140e-02
1.657141375989239305e-03,-5.206567067935159721e-03,5.425096228237104024e-01,9.991977214813232422e-01,-1.137109752744436264e-02,5.740792956203222275e-03,3.796897456049919128e-02,0.000000000000000000e+00,0.000000000000000000e+00,0.000000000000000000e+00,-1.100000000000000089e+00,2.000000000000000111e-01,-5.000000000000000000e-01,0.000000000000000000e+00,1.100000000000000089e+00,2.000000000000000111e-01,5.000000000000000000e-01,-4.564706981182098389e-02,1.564245671033859253e-01,2.539423108100891113e-01,3.026880323886871338e-01,-2.710056900978088379e-01,-9.687776118516921997e-02,2.205129712820053101e-02,-1.897294446825981140e-02,-2.158263027667999268e-01,1.173858866095542908e-01,-1.630782485008239746e-01,5.781047791242599487e-02
1.552209127312196950e-03,-4.912909160449282359e-03,5.425644283011705760e-01,9.992176890373229980e-01,-1.136699225753545761e-02,6.484993267804384232e-03,3.732013702392578125e-02,0.000000000000000000e+00,0.000000000000000000e+00,0.000000000000000000e+00,-1.100000000000000089e+00,2.000000000000000111e-01,-5.000000000000000000e-01,0.000000000000000000e+00,1.100000000000000089e+00,2.000000000000000111e-01,5.000000000000000000e-01,-4.653096571564674377e-02,1.558758467435836792e-01,2.552307844161987305e-01,3.016763031482696533e-01,-2.705815732479095459e-01,-9.611083567142486572e-02,1.991299167275428772e-02,-1.934661716222763062e-02,-2.139935344457626343e-01,1.170550659298896790e-01,-1.619037389755249023e-01,5.844799801707267761e-02
1.420174506098982126e-03,-4.619114369017570526e-03,5.426083557217410425e-01,9.992399811744689941e-01,-1.141033787280321121e-02,7.115132175385951996e-03,3.658739477396011353e-02,0.000000000000000000e+00,0.000000000000000000e+00,0.000000000000000000e+00,-1.100000000000000089e+00,2.000000000000000111e-01,-5.000000000000000000e-01,0.000000000000000000e+00,1.100000000000000089e+00,2.000000000000000111e-01,5.000000000000000000e-01,-4.746219888329505920e-02,1.555418670177459717e-01,2.565353810787200928e-01,3.014095723628997803e-01,-2.704633474349975586e-01,-9.541267901659011841e-02,1.801238954067230225e-02,-1.960547640919685364e-02,-2.123014628887176514e-01,1.169287636876106262e-01,-1.610700786113739014e-01,5.900809913873672485e-02
1.276667745183621833e-03,-4.348718623085078873e-03,5.426388308887529766e-01,9.992586374282836914e-01,-1.147412881255149841e-02,7.637925446033477783e-03,3.594629466533660889e-02,0.000000000000000000e+00,0.000000000000000000e+00,0.000000000000000000e+00,-1.100000000000000089e+00,2.000000000000000111e-01,-5.000000000000000000e-01,0.000000000000000000e+00,1.100000000000000089e+00,2.000000000000000111e-01,5.000000000000000000e-01,-4.853535816073417664e-02,1.554090380668640137e-01,2.577608525753021240e-01,3.016935288906097412e-01,-2.705207467079162598e-01,-9.478065371513366699e-02,1.655030809342861176e-02,-1.989800110459327698e-02,-2.110170871019363403e-01,1.168125271797180176e-01,-1.606349200010299683e-01,5.957439914345741272e-02
1.141731314066529290e-03,-4.081740758994434511e-03,5.426541930301622685e-01,9.992733001708984375e-01,-1.156452856957912445e-02,8.037596940994262695e-03,3.542079031467437744e-02,0.000000000000000000e+00,0.000000000000000000e+00,0.000000000000000000e+00,-1.100000000000000089e+00,2.000000000000000111e-01,-5.000000000000000000e-01,0.000000000000000000e+00,1.100000000000000089e+00,2.000000000000000111e-01,5.000000000000000000e-01,-4.961267486214637756e-02,1.554007679224014282e-01,2.588686048984527588e-01,3.023071885108947754e-01,-2.708305120468139648e-01,-9.415525197982788086e-02,1.531393360346555710e-02,-2.018915303051471710e-02,-2.101859152317047119e-01,1.167598441243171692e-01,-1.603170037269592285e-01,5.995894223451614380e-02
1.052497578011660998e-03,-3.822327516943620652e-03,5.426476329805874910e-01,9.992862939834594727e-01,-1.164482999593019485e-02,8.359557017683982849e-03,3.494895622134208679e-02,0.000000000000000000e+00,0.000000000000000000e+00,0.000000000000000000e+00,-1.100000000000000089e+00,2.000000000000000111e-01,-5.000000000000000000e-01,0.000000000000000000e+00,1.100000000000000089e+00,2.000000000000000111e-01,5.000000000000000000e-01,-5.059627816081047058e-02,1.553319990634918213e-01,2.597943544387817383e-01,3.029035925865173340e-01,-2.712186276912689209e-01,-9.353795647621154785e-02,1.418232824653387070e-02,-2.054652199149131775e-02,-2.095861732959747314e-01,1.167859882116317749e-01,-1.600973606109619141e-01,6.033509597182273865e-02
1.017031742351287267e-03,-3.549788985830599781e-03,5.426520755458058565e-01,9.992970824241638184e-01,-1.169550325721502304e-02,8.554550819098949432e-03,3.457361459732055664e-02,0.000000000000000000e+00,0.000000000000000000e+00,0.000000000000000000e+00,-1.100000000000000089e+00,2.000000000000000111e-01,-5.000000000000000000e-01,0.000000000000000000e+00,1.100000000000000089e+00,2.000000000000000111e-01,5.000000000000000000e-01,-5.098694935441017151e-02,1.550415307283401489e-01,2.605413496494293213e-01,3.031783699989318848e-01,-2.716972827911376953e-01,-9.290346503257751465e-02,1.325257681310176849e-02,-2.095347456634044647e-02,-2.090171128511428833e-01,1.169443279504776001e-01,-1.598626077175140381e-01,6.069475412368774414e-02
1.011456559792001152e-03,-3.263381386300398448e-03,5.426549818968833261e-01,9.993056654930114746e-01,-1.164778135716915131e-02,8.670728653669357300e-03,3.431268036365509033e-02,0.000000000000000000e+00,0.000000000000000000e+00,0.000000000000000000e+00,-1.100000000000000089e+00,2.000000000000000111e-01,-5.000000000000000000e-01,0.000000000000000000e+00,1.100000000000000089e+00,2.000000000000000111e-01,5.000000000000000000e-01,-5.094534531235694885e-02,1.543541550636291504e-01,2.611773908138275146e-01,3.027817308902740479e-01,-2.717545032501220703e-01,-9.215174615383148193e-02,1.258154399693012238e-02,-2.159437537193298340e-02,-2.085022628307342529e-01,1.171343475580215454e-01,-1.597227901220321655e-01,6.118483096361160278e-02
1.006906141701619959e-03,-2.965929328306399389e-03,5.426495843877394698e-01,9.993176460266113281e-01,-1.152956299483776093e-02,8.667243644595146179e-03,3.400310501456260681e-02,0.000000000000000000e+00,0.000000000000000000e+00,0.000000000000000000e+00,-1.100000000000000089e+00,2.000000000000000111e-01,-5.000000000000000000e-01,0.000000000000000000e+00,1.100000000000000089e+00,2.000000000000000111e-01,5.000000000000000000e-01,-5.030957981944084167e-02,1.534539014101028442e-01,2.617655694484710693e-01,3.017753064632415771e-01,-2.715679109096527100e-01,-9.149520099163055420e-02,1.235014107078313828e-02,-2.235660329461097717e-02,-2.078300416469573975e-01,1.173893436789512634e-01,-1.597378849983215332e-01,6.181993708014488220e-02
9.904294665532440908e-04,-2.678117857407543226e-03,5.426656523572676027e-01,9.993268251419067383e-01,-1.140890270471572876e-02,8.654327131807804108e-03,3.377568349242210388e-02,0.000000000000000000e+00,0.000000000000000000e+00,0.000000000000000000e+00,-1.100000000000000089e+00,2.000000000000000111e-01,-5.000000000000000000e-01,0.000000000000000000e+00,1.100000000000000089e+00,2.000000000000000111e-01,5.000000000000000000e-01,-4.937861487269401550e-02,1.524664908647537231e-01,2.621183097362518311e-01,3.004012405872344971e-01,-2.712486982345581055e-01,-9.091418981552124023e-02,1.225777622312307358e-02,-2.307340502738952637e-02,-2.072910666465759277e-01,1.175361126661300659e-01,-1.596599966287612915e-01,6.237696111202239990e-02
9.788368235670284485e-04,-2.419205928480633750e-03,5.427075038127826545e-01,9.993332624435424805e-01,-1.129378750920295715e-02,8.666374720633029938e-03,3.362113237380981445e-02,0.000000000000000000e+00,0.000000000000000000e+00,0.000000000000000000e+00,-1.100000000000000089e+00,2.000000000000000111e-01,-5.000000000000000000e-01,0.000000000000000000e+00,1.100000000000000089e+00,2.000000000000000111e-01,5.000000000000000000e-01,-4.853160306811332703e-02,1.516302525997161865e-01,2.626332640647888184e-01,2.992485761642456055e-01,-2.709799110889434814e-01,-9.052084386348724365e-02,1.221521385014057159e-02,-2.376278303563594818e-02,-2.066982090473175049e-01,1.175602823495864868e-01,-1.594954431056976318e-01,6.276252865791320801e-02
9.702696563717744813e-04,-2.180719225111210288e-03,5.427577421671212488e-01,9.993354678153991699e-01,-1.120234373956918716e-02,8.699785917997360229e-03,3.357671573758125305e-02,0.000000000000000000e+00,0.000000000000000000e+00,0.000000000000000000e+00,-1.100000000000000089e+00,2.000000000000000111e-01,-5.000000000000000000e-01,0.000000000000000000e+00,1.100000000000000089e+00,2.000000000000000111e-01,5.000000000000000000e-01,-4.796161875128746033e-02,1.509415656328201294e-01,2.629858255386352539e-01,2.985270917415618896e-01,-2.709412574768066406e-01,-9.006316959857940674e-02,1.218162849545478821e-02,-2.453195303678512573e-02,-2.064657658338546753e-01,1.176148653030395508e-01,-1.593525856733322144e-01,6.305578351020812988e-02
9.605915235023889049e-04,-1.926207044623401855e-03,5.427944037099979857e-01,9.993377923965454102e-01,-1.112955994904041290e-02,8.748798631131649017e-03,3.352045640349388123e-02,0.000000000000000000e+00,0.000000000000000000e+00,0.000000000000000000e+00,-1.100000000000000089e+00,2.000000000000000111e-01,-5.000000000000000000e-01,0.000000000000000000e+00,1.100000000000000089e+00,2.000000000000000111e-01,5.000000000000000000e-01,-4.775693640112876892e-02,1.503196805715560913e-01,2.632586956024169922e-01,2.982216477394104004e-01,-2.710968852043151855e-01,-8.947017788887023926e-02,1.216545235365629196e-02,-2.522964403033256531e-02,-2.063398957252502441e-01,1.178400814533233643e-01,-1.593574434518814087e-01,6.338713318109512329e-02
9.419326522743865556e-04,-1.637203677850210910e-03,5.428026660509182033e-01,9.993389844894409180e-01,-1.107576396316289902e-02,8.803470991551876068e-03,3.348831832408905029e-02,0.000000000000000000e+00,0.000000000000000000e+00,0.000000000000000000e+00,-1.100000000000000089e+00,2.000000000000000111e-01,-5.000000000000000000e-01,0.000000000000000000e+00,1.100000000000000089e+00,2.000000000000000111e-01,5.000000000000000000e-01,-4.775005206465721130e-02,1.496958732604980469e-01,2.634525895118713379e-01,2.982068061828613281e-01,-2.714751064777374268e-01,-8.880160003900527954e-02,1.220420189201831818e-02,-2.577582933008670807e-02,-2.062887251377105713e-01,1.180787011981010437e-01,-1.593643426895141602e-01,6.393839418888092041e-02
9.041388975185896907e-04,-1.341992607914943830e-03,5.428089354653852228e-01,9.993366599082946777e-01,-1.104960590600967407e-02,8.905454538762569427e-03,3.353873640298843384e-02,0.000000000000000000e+00,0.000000000000000000e+00,0.000000000000000000e+00,-1.100000000000000089e+00,2.000000000000000111e-01,-5.000000000000000000e-01,0.000000000000000000e+00,1.100000000000000089e+00,2.000000000000000111e-01,5.000000000000000000e-01,-4.800919070839881897e-02,1.490398645401000977e-01,2.633633315563201904e-01,2.979451119899749756e-01,-2.716654837131500244e-01,-8.831319212913513184e-02,1.215558964759111404e-02,-2.608450874686241150e-02,-2.061450630426406860e-01,1.181293800473213196e-01,-1.592231541872024536e-01,6.454235315322875977e-02
8.100005318357778473e-04,-1.084104794717859459e-03,5.428230520277613769e-01,9.993353486061096191e-01,-1.105092372745275497e-02,9.124233387410640717e-03,3.351857885718345642e-02,0.000000000000000000e+00,0.000000000000000000e+00,0.000000000000000000e+00,-1.100000000000000089e+00,2.000000000000000111e-01,-5.000000000000000000e-01,0.000000000000000000e+00,1.100000000000000089e+00,2.000000000000000111e-01,5.000000000000000000e-01,-4.884453490376472473e-02,1.484325975179672241e-01,2.631104290485382080e-01,2.978477776050567627e-01,-2.717325687408447266e-01,-8.781468868255615234e-02,1.156704220920801163e-02,-2.625119686126708984e-02,-2.056955695152282715e-01,1.179164052009582520e-01,-1.587596833705902100e-01,6.504391878843307495e-02
6.571015698004471642e-04,-8.818368698032854865e-04,5.428652771569864033e-01,9.993336200714111328e-01,-1.111789885908365250e-02,9.424111805856227875e-03,3.346483409404754639e-02,0.000000000000000000e+00,0.000000000000000000e+00,0.000000000000000000e+00,-1.100000000000000089e+00,2.000000000000000111e-01,-5.000000000000000000e-01,0.000000000000000000e+00,1.100000000000000089e+00,2.000000000000000111e-01,5.000000000000000000e-01,-5.052908137440681458e-02,1.480309963226318359e-01,2.627493441104888916e-01,2.986101508140563965e-01,-2.718537747859954834e-01,-8.710769563913345337e-02,1.039502583444118500e-02,-2.635009400546550751e-02,-2.052450776100158691e-01,1.176493167877197266e-01,-1.579623222351074219e-01,6.542259454727172852e-02
4.529558696194359258e-04,-7.610281918114380085e-04,5.428986171557746987e-01,9.993314743041992188e-01,-1.126148272305727005e-02,9.784664958715438843e-03,3.337734192609786987e-02,0.000000000000000000e+00,0.000000000000000000e+00,0.000000000000000000e+00,-1.100000000000000089e+00,2.000000000000000111e-01,-5.000000000000000000e-01,0.000000000000000000e+00,1.100000000000000089e+00,2.000000000000000111e-01,5.000000000000000000e-01,-5.274015665054321289e-02,1.480464935302734375e-01,2.625219821929931641e-01,3.001745939254760742e-01,-2.722309529781341553e-01,-8.652973920106887817e-02,8.831796236336231232e-03,-2.634700015187263489e-02,-2.048572301864624023e-01,1.173870339989662170e-01,-1.569725871086120605e-01,6.563029438257217407e-02
2.044331726857409365e-04,-6.861447263861808823e-04,5.429100349635789247e-01,9.993299841880798340e-01,-1.149762235581874847e-02,1.028228271752595901e-02,3.319173678755760193e-02,0.000000000000000000e+00,0.000000000000000000e+00,0.000000000000000000e+00,-1.100000000000000089e+00,2.000000000000000111e-01,-5.000000000000000000e-01,0.000000000000000000e+00,1.100000000000000089e+00,2.000000000000000111e-01,5.000000000000000000e-01,-5.550934746861457825e-02,1.486440598964691162e-01,2.626135051250457764e-01,3.026867508888244629e-01,-2.727934122085571289e-01,-8.616601675748825073e-02,6.973585579544305801e-03,-2.611951343715190887e-02,-2.045040577650070190e-01,1.171854063868522644e-01,-1.559606343507766724e-01,6.562686711549758911e-02
-6.321159517892279052e-05,-6.244710077420805548e-04,5.429111975040098459e-01,9.993301033973693848e-01,-1.174161769449710846e-02,1.088989432901144028e-02,3.290869295597076416e-02,0.000000000000000000e+00,0.000000000000000000e+00,0.000000000000000000e+00,-1.100000000000000089e+00,2.000000000000000111e-01,-5.000000000000000000e-01,0.000000000000000000e+00,1.100000000000000089e+00,2.000000000000000111e-01,5.000000000000000000e-01,-5.837405100464820862e-02,1.494698524475097656e-01,2.630158066749572754e-01,3.053003549575805664e-01,-2.732804417610168457e-01,-8.588067442178726196e-02,4.858441185206174850e-03,-2.577395550906658173e-02,-2.041990309953689575e-01,1.169174388051033020e-01,-1.549809277057647705e-01,6.563126295804977417e-02
-3.339086804139742974e-04,-5.511409885895607839e-04,5.429020632577664651e-01,9.993311166763305664e-01,-1.194671820849180222e-02,1.153842452913522720e-02,3.257910907268524170e-02,0.000000000000000000e+00,0.000000000000000000e+00,0.000000000000000000e+00,-1.100000000000000089e+00,2.000000000000000111e-01,-5.000000000000000000e-01,0.000000000000000000e+00,1.100000000000000089e+00,2.000000000000000111e-01,5.000000000000000000e-01,-6.135055422782897949e-02,1.502410322427749634e-01,2.635861337184906006e-01,3.076000809669494629e-01,-2.735345065593719482e-01,-8.543053269386291504e-02,2.687630243599414825e-03,-2.544607967138290405e-02,-2.037664502859115601e-01,1.165298372507095337e-01,-1.541051417589187622e-01,6.553073972463607788e-02
-6.060661584100065146e-04,-4.705606209351728209e-04,5.429038901070151191e-01,9.993308186531066895e-01,-1.209370046854019165e-02,1.229587849229574203e-02,3.225621581077575684e-02,0.000000000000000000e+00,0.000000000000000000e+00,0.000000000000000000e+00,-1.100000000000000089e+00,2.000000000000000111e-01,-5.000000000000000000e-01,0.000000000000000000e+00,1.100000000000000089e+00,2.000000000000000111e-01,5.000000000000000000e-01,-6.452755630016326904e-02,1.508011668920516968e-01,2.639799416065216064e-01,3.094905018806457520e-01,-2.734502255916595459e-01,-8.474039286375045776e-02,3.140863846056163311e-04,-2.517639473080635071e-02,-2.031738460063934326e-01,1.161454916000366211e-01,-1.531569063663482666e-01,6.540489941835403442e-02
-8.781424629286806822e-04,-3.868139200171248865e-04,5.429199580765432520e-01,9.993291497230529785e-01,-1.219176594167947769e-02,1.307994313538074493e-02,3.196209669113159180e-02,0.000000000000000000e+00,0.000000000000000000e+00,0.000000000000000000e+00,-1.100000000000000089e+00,2.000000000000000111e-01,-5.000000000000000000e-01,0.000000000000000000e+00,1.100000000000000089e+00,2.000000000000000111e-01,5.000000000000000000e-01,-6.764134764671325684e-02,1.511432379484176636e-01,2.644663453102111816e-01,3.108345866203308105e-01,-2.730988264083862305e-01,-8.404671400785446167e-02,-2.039464190602302551e-03,-2.491847053170204163e-02,-2.021483927965164185e-01,1.157268136739730835e-01,-1.520773619413375854e-01,6.532324850559234619e-02
-1.163542570667976247e-03,-3.028130147452824986e-04,5.429397627831709094e-01,9.993265271186828613e-01,-1.227300148457288742e-02,1.376099232584238052e-02,3.172474727034568787e-02,0.000000000000000000e+00,0.000000000000000000e+00,0.000000000000000000e+00,-1.100000000000000089e+00,2.000000000000000111e-01,-5.000000000000000000e-01,0.000000000000000000e+00,1.100000000000000089e+00,2.000000000000000111e-01,5.000000000000000000e-01,-7.034273445606231689e-02,1.512974202632904053e-01,2.648238837718963623e-01,3.119748830795288086e-01,-2.727512121200561523e-01,-8.346985280513763428e-02,-4.047752358019351959e-03,-2.481218427419662476e-02,-2.012933194637298584e-01,1.153955608606338501e-01,-1.509368568658828735e-01,6.524483859539031982e-02
-1.440796786151953479e-03,-1.899280156008311348e-04,5.429580727949587793e-01,9.993230700492858887e-01,-1.234919391572475433e-02,1.433863956481218338e-02,3.154847025871276855e-02,0.000000000000000000e+00,0.000000000000000000e+00,0.000000000000000000e+00,-1.100000000000000089e+00,2.000000000000000111e-01,-5.000000000000000000e-01,0.000000000000000000e+00,1.100000000000000089e+00,2.000000000000000111e-01,5.000000000000000000e-01,-7.256736606359481812e-02,1.512844860553741455e-01,2.649673819541931152e-01,3.130653798580169678e-01,-2.726293206214904785e-01,-8.299877494573593140e-02,-5.747126881033182144e-03,-2.489021420478820801e-02,-2.007452547550201416e-01,1.151510253548622131e-01,-1.497222930192947388e-01,6.536392867565155029e-02
-1.687809218507909216e-03,-2.474574673646882364e-06,5.429868041513242760e-01,9.993203282356262207e-01,-1.240446791052818298e-02,1.483949087560176849e-02,3.138203546404838562e-02,0.000000000000000000e+00,0.000000000000000000e+00,0.000000000000000000e+00,-1.100000000000000089e+00,2.000000000000000111e-01,-5.000000000000000000e-01,0.000000000000000000e+00,1.100000000000000089e+00,2.000000000000000111e-01,5.000000000000000000e-01,-7.432174682617187500e-02,1.509988307952880859e-01,2.651484310626983643e-01,3.138295710086822510e-01,-2.726278603076934814e-01,-8.233086764812469482e-02,-7.400345057249069214e-03,-2.514182589948177338e-02,-2.002611607313156128e-01,1.149401813745498657e-01,-1.484787464141845703e-01,6.562641263008117676e-02
-1.881152764271422709e-03,2.401146329977582529e-04,5.430206839010269793e-01,9.993196129798889160e-01,-1.241955254226922989e-02,1.514496933668851852e-02,3.125237300992012024e-02,0.000000000000000000e+00,0.000000000000000000e+00,0.000000000000000000e+00,-1.100000000000000089e+00,2.000000000000000111e-01,-5.000000000000000000e-01,0.000000000000000000e+00,1.100000000000000089e+00,2.000000000000000111e-01,5.000000000000000000e-01,-7.524287700653076172e-02,1.504482626914978027e-01,2.653946876525878906e-01,3.138768970966339111e-01,-2.727832794189453125e-01,-8.158108592033386230e-02,-8.567656390368938446e-03,-2.561114728450775146e-02,-1.998336613178253174e-01,1.147793829441070557e-01,-1.477379351854324341e-01,6.618890166282653809e-02
-2.014584607277724020e-03,5.397466975769893557e-04,5.430511590680389133e-01,9.993242025375366211e-01,-1.238844264298677444e-02,1.520276535302400589e-02,3.108884766697883606e-02,0.000000000000000000e+00,0.000000000000000000e+00,0.000000000000000000e+00,-1.100000000000000089e+00,2.000000000000000111e-01,-5.000000000000000000e-01,0.000000000000000000e+00,1.100000000000000089e+00,2.000000000000000111e-01,5.000000000000000000e-01,-7.524515688419342041e-02,1.497489809989929199e-01,2.659571170806884766e-01,3.134521842002868652e-01,-2.729440927505493164e-01,-8.087279647588729858e-02,-9.152987040579319000e-03,-2.630995586514472961e-02,-1.992154270410537720e-01,1.147528737783432007e-01,-1.474068611860275269e-01,6.691519170999526978e-02
-2.075476068230181197e-03,9.202881216164443545e-04,5.430723754309042528e-01,9.993315339088439941e-01,-1.230781525373458862e-02,1.501450687646865845e-02,3.097591549158096313e-02,0.000000000000000000e+00,0.000000000000000000e+00,0.000000000000000000e+00,-1.100000000000000089e+00,2.000000000000000111e-01,-5.000000000000000000e-01,0.000000000000000000e+00,1.100000000000000089e+00,2.000000000000000111e-01,5.000000000000000000e-01,-7.444634288549423218e-02,1.488713324069976807e-01,2.667055130004882812e-01,3.127311766147613525e-01,-2.730123698711395264e-01,-8.033382147550582886e-02,-8.958366699516773224e-03,-2.733147330582141876e-02,-1.985311508178710938e-01,1.148133724927902222e-01,-1.472992599010467529e-01,6.794550269842147827e-02
-2.045121891056587461e-03,1.382013889393566902e-03,5.430800149823078460e-01,9.993402361869812012e-01,-1.221978757530450821e-02,1.464663632214069366e-02,3.090713545680046082e-02,0.000000000000000000e+00,0.000000000000000000e+00,0.000000000000000000e+00,-1.100000000000000089e+00,2.000000000000000111e-01,-5.000000000000000000e-01,0.000000000000000000e+00,1.100000000000000089e+00,2.000000000000000111e-01,5.000000000000000000e-01,-7.324774563312530518e-02,1.478313654661178589e-01,2.672774791717529297e-01,3.120793998241424561e-01,-2.733308374881744385e-01,-7.972815632820129395e-02,-8.161894977092742920e-03,-2.849636785686016083e-02,-1.977820247411727905e-01,1.150085479021072388e-01,-1.473243236541748047e-01,6.914720684289932251e-02
-1.924205522377495439e-03,1.887740223072328135e-03,5.430685971745036200e-01,9.993520379066467285e-01,-1.212734170258045197e-02,1.403469685465097427e-02,3.084429167211055756e-02,0.000000000000000000e+00,0.000000000000000000e+00,0.000000000000000000e+00,-1.100000000000000089e+00,2.000000000000000111e-01,-5.000000000000000000e-01,0.000000000000000000e+00,1.100000000000000089e+00,2.000000000000000111e-01,5.000000000000000000e-01,-7.119763642549514771e-02,1.466064304113388062e-01,2.675440907478332520e-01,3.114245831966400146e-01,-2.738473117351531982e-01,-7.880371809005737305e-02,-6.497040856629610062e-03,-2.970327250659465790e-02,-1.970738470554351807e-01,1.153462156653404236e-01,-1.475802063941955566e-01,7.037173956632614136e-02
-1.727787764299651505e-03,2.445494295656445820e-03,5.430295275121626020e-01,9.993678331375122070e-01,-1.200744230300188065e-02,1.319864671677350998e-02,3.074885159730911255e-02,0.000000000000000000e+00,0.000000000000000000e+00,0.000000000000000000e+00,-1.100000000000000089e+00,2.000000000000000111e-01,-5.000000000000000000e-01,0.000000000000000000e+00,1.100000000000000089e+00,2.000000000000000111e-01,5.000000000000000000e-01,-6.824395060539245605e-02,1.450670510530471802e-01,2.675743103027343750e-01,3.105957806110382080e-01,-2.744642198085784912e-01,-7.762297987937927246e-02,-4.194500390440225601e-03,-3.100556693971157074e-02,-1.963805705308914185e-01,1.157316491007804871e-01,-1.479799747467041016e-01,7.153718173503875732e-02
-1.473014304147459309e-03,3.060471371881607477e-03,5.429900011375095037e-01,9.993846416473388672e-01,-1.186580024659633636e-02,1.220860797911882401e-02,3.066780790686607361e-02,0.000000000000000000e+00,0.000000000000000000e+00,0.000000000000000000e+00,-1.100000000000000089e+00,2.000000000000000111e-01,-5.000000000000000000e-01,0.000000000000000000e+00,1.100000000000000089e+00,2.000000000000000111e-01,5.000000000000000000e-01,-6.462820619344711304e-02,1.432503461837768555e-01,2.675792276859283447e-01,3.096376359462738037e-01,-2.754302918910980225e-01,-7.623800635337829590e-02,-1.492989249527454376e-03,-3.246556222438812256e-02,-1.959180384874343872e-01,1.162295341491699219e-01,-1.485583633184432983e-01,7.279496639966964722e-02
-1.175574410011206387e-03,3.674870421586680282e-03,5.429824861440092354e-01,9.993975758552551270e-01,-1.167333126068115234e-02,1.120275259017944336e-02,3.070430643856525421e-02,0.000000000000000000e+00,0.000000000000000000e+00,0.000000000000000000e+00,-1.100000000000000089e+00,2.000000000000000111e-01,-5.000000000000000000e-01,0.000000000000000000e+00,1.100000000000000089e+00,2.000000000000000111e-01,5.000000000000000000e-01,-6.071118265390396118e-02,1.411138027906417847e-01,2.675120830535888672e-01,3.081671893596649170e-01,-2.762387990951538086e-01,-7.500981539487838745e-02,1.248574117198586464e-03,-3.412427008152008057e-02,-1.955758631229400635e-01,1.166564300656318665e-01,-1.492582708597183228e-01,7.438055425882339478e-02
-8.261672718887865972e-04,4.308574324458452204e-03,5.430015850225181628e-01,9.994071125984191895e-01,-1.145460829138755798e-02,1.009699329733848572e-02,3.085987083613872528e-02,0.000000000000000000e+00,0.000000000000000000e+00,0.000000000000000000e+00,-1.100000000000000089e+00,2.000000000000000111e-01,-5.000000000000000000e-01,0.000000000000000000e+00,1.100000000000000089e+00,2.000000000000000111e-01,5.000000000000000000e-01,-5.650901421904563904e-02,1.388204693794250488e-01,2.675839662551879883e-01,3.061701655387878418e-01,-2.768426239490509033e-01,-7.404185831546783447e-02,4.266319330781698227e-03,-3.602319210767745972e-02,-1.953122019767761230e-01,1.168960332870483398e-01,-1.500736027956008911e-01,7.654730975627899170e-02
-4.421408215127274111e-04,4.942974648732371794e-03,5.430020417348302431e-01,9.994146227836608887e-01,-1.126366760581731796e-02,8.812584914267063141e-03,3.107821196317672729e-02,0.000000000000000000e+00,0.000000000000000000e+00,0.000000000000000000e+00,-1.100000000000000089e+00,2.000000000000000111e-01,-5.000000000000000000e-01,0.000000000000000000e+00,1.100000000000000089e+00,2.000000000000000111e-01,5.000000000000000000e-01,-5.209993943572044373e-02,1.367100477218627930e-01,2.679150998592376709e-01,3.044927418231964111e-01,-2.777512073516845703e-01,-7.330909371376037598e-02,8.052201941609382629e-03,-3.802442178130149841e-02,-1.949776411056518555e-01,1.170114874839782715e-01,-1.511554121971130371e-01,7.870278507471084595e-02
-5.460071918816832774e-05,5.574156902801019955e-03,5.429608545881329240e-01,9.994252324104309082e-01,-1.114071253687143326e-02,7.258591242134571075e-03,3.118219226598739624e-02,0.000000000000000000e+00,0.000000000000000000e+00,0.000000000000000000e+00,-1.100000000000000089e+00,2.000000000000000111e-01,-5.000000000000000000e-01,0.000000000000000000e+00,1.100000000000000089e+00,2.000000000000000111e-01,5.000000000000000000e-01,-4.725698381662368774e-02,1.349827349185943604e-01,2.687176167964935303e-01,3.035732507705688477e-01,-2.790703475475311279e-01,-7.262071967124938965e-02,1.266524940729141235e-02,-3.993830829858779907e-02,-1.947193890810012817e-01,1.173320114612579346e-01,-1.525093168020248413e-01,8.074516803026199341e-02
3.569333629179663827e-04,6.246744279897856016e-03,5.428720448030667223e-01,9.994383454322814941e-01,-1.107280515134334564e-02,5.429619457572698593e-03,3.115865401923656464e-02,0.000000000000000000e+00,0.000000000000000000e+00,0.000000000000000000e+00,-1.100000000000000089e+00,2.000000000000000111e-01,-5.000000000000000000e-01,0.000000000000000000e+00,1.100000000000000089e+00,2.000000000000000111e-01,5.000000000000000000e-01,-4.181482270359992981e-02,1.334267407655715942e-01,2.696503400802612305e-01,3.034725487232208252e-01,-2.809679210186004639e-01,-7.189557701349258423e-02,1.793788373470306396e-02,-4.178933426737785339e-02,-1.945460140705108643e-01,1.179978325963020325e-01,-1.541842520236968994e-01,8.253020793199539185e-02
7.908753793941801545e-04,6.938479190934543350e-03,5.427438332012506361e-01,9.994528293609619141e-01,-1.106999162584543228e-02,3.472354728728532791e-03,3.097512945532798767e-02,0.000000000000000000e+00,0.000000000000000000e+00,0.000000000000000000e+00,-1.100000000000000089e+00,2.000000000000000111e-01,-5.000000000000000000e-01,0.000000000000000000e+00,1.100000000000000089e+00,2.000000000000000111e-01,5.000000000000000000e-01,-3.632302209734916687e-02,1.322413235902786255e-01,2.707583606243133545e-01,3.043643832206726074e-01,-2.834193408489227295e-01,-7.128129899501800537e-02,2.333997748792171478e-02,-4.332633689045906067e-02,-1.940619349479675293e-01,1.187738031148910522e-01,-1.559951603412628174e-01,8.408498764038085938e-02
1.231938807480154703e-03,7.660478428782274522e-03,5.426009652861440991e-01,9.994662404060363770e-01,-1.114049647003412247e-02,1.495649921707808971e-03,3.067307919263839722e-02,0.000000000000000000e+00,0.000000000000000000e+00,0.000000000000000000e+00,-1.100000000000000089e+00,2.000000000000000111e-01,-5.000000000000000000e-01,0.000000000000000000e+00,1.100000000000000089e+00,2.000000000000000111e-01,5.000000000000000000e-01,-3.114267811179161072e-02,1.313769668340682983e-01,2.716681361198425293e-01,3.061685562133789062e-01,-2.863614261150360107e-01,-7.064579427242279053e-02,2.841715514659881592e-02,-4.451906681060791016e-02,-1.932693421840667725e-01,1.198593601584434509e-01,-1.576835215091705322e-01,8.555467426776885986e-02
1.658713595149097783e-03,8.387756456522213813e-03,5.424818879305713937e-01,9.994773268699645996e-01,-1.123521942645311356e-02,-3.940889728255569935e-04,3.031018562614917755e-02,0.000000000000000000e+00,0.000000000000000000e+00,0.000000000000000000e+00,-1.100000000000000089e+00,2.000000000000000111e-01,-5.000000000000000000e-01,0.000000000000000000e+00,1.100000000000000089e+00,2.000000000000000111e-01,5.000000000000000000e-01,-2.653396874666213989e-02,1.306160390377044678e-01,2.722904086112976074e-01,3.084816336631774902e-01,-2.894681096076965332e-01,-6.983976811170578003e-02,3.276980668306350708e-02,-4.554922133684158325e-02,-1.921083033084869385e-01,1.211964637041091919e-01,-1.594441086053848267e-01,8.682747185230255127e-02
2.045415283305420003e-03,9.077438757110463038e-03,5.424088969992266751e-01,9.994849562644958496e-01,-1.131754647940397263e-02,-2.103094710037112236e-03,2.995464764535427094e-02,0.000000000000000000e+00,0.000000000000000000e+00,0.000000000000000000e+00,-1.100000000000000089e+00,2.000000000000000111e-01,-5.000000000000000000e-01,0.000000000000000000e+00,1.100000000000000089e+00,2.000000000000000111e-01,5.000000000000000000e-01,-2.230810001492500305e-02,1.298796385526657104e-01,2.728114426136016846e-01,3.106375336647033691e-01,-2.923758029937744141e-01,-6.882337480783462524e-02,3.645617514848709106e-02,-4.647770896553993225e-02,-1.907824575901031494e-01,1.224708780646324158e-01,-1.609686762094497681e-01,8.805876970291137695e-02
2.384445353292370846e-03,9.727365678150414266e-03,5.423550049463907730e-01,9.994886517524719238e-01,-1.138485595583915710e-02,-3.671856597065925598e-03,2.965360879898071289e-02,0.000000000000000000e+00,0.000000000000000000e+00,0.000000000000000000e+00,-1.100000000000000089e+00,2.000000000000000111e-01,-5.000000000000000000e-01,0.000000000000000000e+00,1.100000000000000089e+00,2.000000000000000111e-01,5.000000000000000000e-01,-1.831237226724624634e-02,1.291626691818237305e-01,2.734723687171936035e-01,3.124876916408538818e-01,-2.951272130012512207e-01,-6.794928014278411865e-02,3.990887105464935303e-02,-4.743022844195365906e-02,-1.894865632057189941e-01,1.236218959093093872e-01,-1.624121665954589844e-01,8.910606801509857178e-02
2.648986715584113975e-03,1.035144034686093749e-02,5.423052648236654782e-01,9.994918704032897949e-01,-1.141646876931190491e-02,-5.145661067217588425e-03,2.931020222604274750e-02,0.000000000000000000e+00,0.000000000000000000e+00,0.000000000000000000e+00,-1.100000000000000089e+00,2.000000000000000111e-01,-5.000000000000000000e-01,0.000000000000000000e+00,1.100000000000000089e+00,2.000000000000000111e-01,5.000000000000000000e-01,-1.435261312872171402e-02,1.283463686704635620e-01,2.743641138076782227e-01,3.140624761581420898e-01,-2.979756593704223633e-01,-6.717755645513534546e-02,4.326226934790611267e-02,-4.855877906084060669e-02,-1.884565800428390503e-01,1.247416138648986816e-01,-1.636688560247421265e-01,9.018550813198089600e-02
2.847260678353992231e-03,1.094701655653559404e-02,5.422424876403928451e-01,9.994965195655822754e-01,-1.138800475746393204e-02,-6.392866373062133789e-03,2.891771681606769562e-02,0.000000000000000000e+00,0.000000000000000000e+00,0.000000000000000000e+00,-1.100000000000000089e+00,2.000000000000000111e-01,-5.000000000000000000e-01,0.000000000000000000e+00,1.100000000000000089e+00,2.000000000000000111e-01,5.000000000000000000e-01,-1.082203909754753113e-02,1.273230910301208496e-01,2.755129337310791016e-01,3.149713873863220215e-01,-3.003002703189849854e-01,-6.666770577430725098e-02,4.602086916565895081e-02,-4.985472559928894043e-02,-1.876067817211151123e-01,1.257576793432235718e-01,-1.647427380084991455e-01,9.149040281772613525e-02
3.018845028827211487e-03,1.150851190739283006e-02,5.421756000463107128e-01,9.995018839836120605e-01,-1.133145485073328018e-02,-7.434145547449588776e-03,2.850006893277168274e-02,0.000000000000000000e+00,0.000000000000000000e+00,0.000000000000000000e+00,-1.100000000000000089e+00,2.000000000000000111e-01,-5.000000000000000000e-01,0.000000000000000000e+00,1.100000000000000089e+00,2.000000000000000111e-01,5.000000000000000000e-01,-7.734972517937421799e-03,1.260603070259094238e-01,2.767436206340789795e-01,3.152506649494171143e-01,-3.018805682659149170e-01,-6.616229563951492310e-02,4.821617156267166138e-02,-5.114233121275901794e-02,-1.866788566112518311e-01,1.265823692083358765e-01,-1.654704809188842773e-01,9.289848059415817261e-02
3.153160616644949850e-03,1.201078646261282551e-02,5.421296796992872702e-01,9.995033740997314453e-01,-1.128878816962242126e-02,-8.266910910606384277e-03,2.823322825133800507e-02,0.000000000000000000e+00,0.000000000000000000e+00,0.000000000000000000e+00,-1.100000000000000089e+00,2.000000000000000111e-01,-5.000000000000000000e-01,0.000000000000000000e+00,1.100000000000000089e+00,2.000000000000000111e-01,5.000000000000000000e-01,-5.405007861554622650e-03,1.248637810349464417e-01,2.776688337326049805e-01,3.153613209724426270e-01,-3.026515543460845947e-01,-6.540706008672714233e-02,5.004665255546569824e-02,-5.232269689440727234e-02,-1.859722435474395752e-01,1.272293180227279663e-01,-1.661274582147598267e-01,9.409095346927642822e-02
3.246544660962741649e-03,1.246262674429218786e-02,5.420886586297942733e-01,9.995020031929016113e-01,-1.130619365721940994e-02,-8.949252776801586151e-03,2.806906215846538544e-02,0.000000000000000000e+00,0.000000000000000000e+00,0.000000000000000000e+00,-1.100000000000000089e+00,2.000000000000000111e-01,-5.000000000000000000e-01,0.000000000000000000e+00,1.100000000000000089e+00,2.000000000000000111e-01,5.000000000000000000e-01,-3.932360094040632248e-03,1.239819601178169250e-01,2.783006131649017334e-01,3.158421218395233154e-01,-3.032083511352539062e-01,-6.442564725875854492e-02,5.136449262499809265e-02,-5.321435257792472839e-02,-1.853363960981369019e-01,1.277104616165161133e-01,-1.665899008512496948e-01,9.486629068851470947e-02
3.304621729602322342e-03,1.285808900498192422e-02,5.420486340235278755e-01,9.994988441467285156e-01,-1.136627234518527985e-02,-9.504431858658790588e-03,2.797393687069416046e-02,0.000000000000000000e+00,0.000000000000000000e+00,0.000000000000000000e+00,-1.100000000000000089e+00,2.000000000000000111e-01,-5.000000000000000000e-01,0.000000000000000000e+00,1.100000000000000089e+00,2.000000000000000111e-01,5.000000000000000000e-01,-3.001267323270440102e-03,1.233994886279106140e-01,2.784960269927978516e-01,3.165972232818603516e-01,-3.036984801292419434e-01,-6.342132389545440674e-02,5.233180150389671326e-02,-5.387979745864868164e-02,-1.848992556333541870e-01,1.280475258827209473e-01,-1.669263243675231934e-01,9.544559568166732788e-02
3.330730233868264226e-03,1.318586312756506694e-02,5.420084433400570445e-01,9.994924068450927734e-01,-1.146428659558296204e-02,-1.001359336078166962e-02,2.798743732273578644e-02,0.000000000000000000e+00,0.000000000000000000e+00,0.000000000000000000e+00,-1.100000000000000089e+00,2.000000000000000111e-01,-5.000000000000000000e-01,0.000000000000000000e+00,1.100000000000000089e+00,2.000000000000000111e-01,5.000000000000000000e-01,-2.238092944025993347e-03,1.231436505913734436e-01,2.783849835395812988e-01,3.177560567855834961e-01,-3.045401275157928467e-01,-6.259585916996002197e-02,5.315993726253509521e-02,-5.436882376670837402e-02,-1.848318725824356079e-01,1.285145580768585205e-01,-1.672155261039733887e-01,9.586598724126815796e-02
3.329534607744220713e-03,1.342926354290955096e-02,5.419643913615833641e-01,9.994859695434570312e-01,-1.160322315990924835e-02,-1.054408680647611618e-02,2.796395309269428253e-02,0.000000000000000000e+00,0.000000000000000000e+00,0.000000000000000000e+00,-1.100000000000000089e+00,2.000000000000000111e-01,-5.000000000000000000e-01,0.000000000000000000e+00,1.100000000000000089e+00,2.000000000000000111e-01,5.000000000000000000e-01,-1.460842206142842770e-03,1.233436986804008484e-01,2.784833312034606934e-01,3.191341161727905273e-01,-3.054925203323364258e-01,-6.216752901673316956e-02,5.396727845072746277e-02,-5.455560237169265747e-02,-1.845826059579849243e-01,1.292525976896286011e-01,-1.674477607011795044e-01,9.625952690839767456e-02
3.316223130566114865e-03,1.357393754761421385e-02,5.419143190844492031e-01,9.994791746139526367e-01,-1.173572521656751633e-02,-1.097427215427160263e-02,2.798623405396938324e-02,0.000000000000000000e+00,0.000000000000000000e+00,0.000000000000000000e+00,-1.100000000000000089e+00,2.000000000000000111e-01,-5.000000000000000000e-01,0.000000000000000000e+00,1.100000000000000089e+00,2.000000000000000111e-01,5.000000000000000000e-01,-1.161570660769939423e-03,1.236937493085861206e-01,2.784371972084045410e-01,3.206690847873687744e-01,-3.063464462757110596e-01,-6.199227645993232727e-02,5.464027076959609985e-02,-5.452656000852584839e-02,-1.844060122966766357e-01,1.301449537277221680e-01,-1.678279638290405273e-01,9.650516510009765625e-02
3.275779438854166913e-03,1.362656455924452295e-02,5.418658660600582655e-01,9.994709491729736328e-01,-1.184027083218097687e-02,-1.126025058329105377e-02,2.812060900032520294e-02,0.000000000000000000e+00,0.000000000000000000e+00,0.000000000000000000e+00,-1.100000000000000089e+00,2.000000000000000111e-01,-5.000000000000000000e-01,0.000000000000000000e+00,1.100000000000000089e+00,2.000000000000000111e-01,5.000000000000000000e-01,-1.370482146739959717e-03,1.239777654409408569e-01,2.780083119869232178e-01,3.222540915012359619e-01,-3.070691525936126709e-01,-6.180000677704811096e-02,5.521048605442047119e-02,-5.438417196273803711e-02,-1.843526363372802734e-01,1.308876872062683105e-01,-1.683297008275985718e-01,9.658226370811462402e-02
3.181313946490373773e-03,1.359810826824883918e-02,5.418352248158418982e-01,9.994624257087707520e-01,-1.195554714649915695e-02,-1.132288575172424316e-02,2.834878861904144287e-02,0.000000000000000000e+00,0.000000000000000000e+00,0.000000000000000000e+00,-1.100000000000000089e+00,2.000000000000000111e-01,-5.000000000000000000e-01,0.000000000000000000e+00,1.100000000000000089e+00,2.000000000000000111e-01,5.000000000000000000e-01,-2.188374055549502373e-03,1.242633610963821411e-01,2.771921753883361816e-01,3.238122165203094482e-01,-3.079438805580139160e-01,-6.150656566023826599e-02,5.521163344383239746e-02,-5.407991632819175720e-02,-1.846707910299301147e-01,1.314379274845123291e-01,-1.686553061008453369e-01,9.642319381237030029e-02
3.029333842269173183e-03,1.350107506660725744e-02,5.418164996110429454e-01,9.994546771049499512e-01,-1.204366702586412430e-02,-1.118221133947372437e-02,2.864193357527256012e-02,0.000000000000000000e+00,0.000000000000000000e+00,0.000000000000000000e+00,-1.100000000000000089e+00,2.000000000000000111e-01,-5.000000000000000000e-01,0.000000000000000000e+00,1.100000000000000089e+00,2.000000000000000111e-01,5.000000000000000000e-01,-3.402736736461520195e-03,1.245134398341178894e-01,2.761868238449096680e-01,3.249543607234954834e-01,-3.085994720458984375e-01,-6.125410646200180054e-02,5.461931601166725159e-02,-5.361742153763771057e-02,-1.850530654191970825e-01,1.317522227764129639e-01,-1.685958504676818848e-01,9.617766737937927246e-02
2.839351900232334799e-03,1.333111710500705857e-02,5.418316541559466959e-01,9.994486570358276367e-01,-1.211000513285398483e-02,-1.089715119451284409e-02,2.893119677901268005e-02,0.000000000000000000e+00,0.000000000000000000e+00,0.000000000000000000e+00,-1.100000000000000089e+00,2.000000000000000111e-01,-5.000000000000000000e-01,0.000000000000000000e+00,1.100000000000000089e+00,2.000000000000000111e-01,5.000000000000000000e-01,-4.945822060108184814e-03,1.248507574200630188e-01,2.752051651477813721e-01,3.255714774131774902e-01,-3.085709512233734131e-01,-6.098374724388122559e-02,5.362984538078308105e-02,-5.302252247929573059e-02,-1.855842918157577515e-01,1.317719370126724243e-01,-1.681504696607589722e-01,9.580346196889877319e-02
2.595998194101595876e-03,1.308543961549253100e-02,5.418886186370645008e-01,9.994469285011291504e-01,-1.215248648077249527e-02,-1.037535164505243301e-02,2.916234172880649567e-02,0.000000000000000000e+00,0.000000000000000000e+00,0.000000000000000000e+00,-1.100000000000000089e+00,2.000000000000000111e-01,-5.000000000000000000e-01,0.000000000000000000e+00,1.100000000000000089e+00,2.000000000000000111e-01,5.000000000000000000e-01,-7.074843160808086395e-03,1.253132075071334839e-01,2.742497622966766357e-01,3.255608081817626953e-01,-3.076166510581970215e-01,-6.063067540526390076e-02,5.211021751165390015e-02,-5.231494829058647156e-02,-1.862084269523620605e-01,1.313813477754592896e-01,-1.671779155731201172e-01,9.555254876613616943e-02
2.307681355459587341e-03,1.276816338869846482e-02,5.419756846114842652e-01,9.994476437568664551e-01,-1.216656900942325592e-02,-9.739737026393413544e-03,2.935299091041088104e-02,0.000000000000000000e+00,0.000000000000000000e+00,0.000000000000000000e+00,-1.100000000000000089e+00,2.000000000000000111e-01,-5.000000000000000000e-01,0.000000000000000000e+00,1.100000000000000089e+00,2.000000000000000111e-01,5.000000000000000000e-01,-9.341070428490638733e-03,1.258635818958282471e-01,2.733942866325378418e-01,3.251365721225738525e-01,-3.060960769653320312e-01,-6.036230921745300293e-02,5.032135546207427979e-02,-5.151866003870964050e-02,-1.867823898792266846e-01,1.307524591684341431e-01,-1.659368723630905151e-01,9.536239504814147949e-02
1.977611183088315121e-03,1.236830527200410632e-02,5.420781542466144298e-01,9.994508624076843262e-01,-1.215085573494434357e-02,-8.959087543189525604e-03,2.949620410799980164e-02,0.000000000000000000e+00,0.000000000000000000e+00,0.000000000000000000e+00,-1.100000000000000089e+00,2.000000000000000111e-01,-5.000000000000000000e-01,0.000000000000000000e+00,1.100000000000000089e+00,2.000000000000000111e-01,5.000000000000000000e-01,-1.187257748097181320e-02,1.264996677637100220e-01,2.726921141147613525e-01,3.243150711059570312e-01,-3.043268918991088867e-01,-6.041206791996955872e-02,4.805388301610946655e-02,-5.065115168690681458e-02,-1.871509104967117310e-01,1.299375891685485840e-01,-1.644946038722991943e-01,9.531864523887634277e-02
1.585386454776244484e-03,1.188286549590452691e-02,5.421782988008826409e-01,9.994577765464782715e-01,-1.211555302143096924e-02,-8.146219886839389801e-03,2.951273508369922638e-02,0.000000000000000000e+00,0.000000000000000000e+00,0.000000000000000000e+00,-1.100000000000000089e+00,2.000000000000000111e-01,-5.000000000000000000e-01,0.000000000000000000e+00,1.100000000000000089e+00,2.000000000000000111e-01,5.000000000000000000e-01,-1.449036970734596252e-02,1.272750198841094971e-01,2.721985578536987305e-01,3.235194683074951172e-01,-3.025617897510528564e-01,-6.077089160680770874e-02,4.546240344643592834e-02,-4.974960535764694214e-02,-1.874797791242599487e-01,1.291949450969696045e-01,-1.631035953760147095e-01,9.519463777542114258e-02
1.132479159495407587e-03,1.135731158754553147e-02,5.422397888858210280e-01,9.994645118713378906e-01,-1.209381688386201859e-02,-7.393081206828355789e-03,2.949252910912036896e-02,0.000000000000000000e+00,0.000000000000000000e+00,0.000000000000000000e+00,-1.100000000000000089e+00,2.000000000000000111e-01,-5.000000000000000000e-01,0.000000000000000000e+00,1.100000000000000089e+00,2.000000000000000111e-01,5.000000000000000000e-01,-1.716196350753307343e-02,1.281735897064208984e-01,2.716493606567382812e-01,3.231033980846405029e-01,-3.010322153568267822e-01,-6.132576614618301392e-02,4.278201237320899963e-02,-4.870214685797691345e-02,-1.877591907978057861e-01,1.284054070711135864e-01,-1.618417650461196899e-01,9.461323171854019165e-02
6.105342677296398150e-04,1.078457099347930430e-02,5.422850449240267379e-01,9.994687438011169434e-01,-1.210242509841918945e-02,-6.618131883442401886e-03,2.952957525849342346e-02,0.000000000000000000e+00,0.000000000000000000e+00,0.000000000000000000e+00,-1.100000000000000089e+00,2.000000000000000111e-01,-5.000000000000000000e-01,0.000000000000000000e+00,1.100000000000000089e+00,2.000000000000000111e-01,5.000000000000000000e-01,-2.011374197900295258e-02,1.293125450611114502e-01,2.710686624050140381e-01,3.230667710304260254e-01,-2.995496392250061035e-01,-6.187332049012184143e-02,3.990452364087104797e-02,-4.741258546710014343e-02,-1.879776567220687866e-01,1.275943219661712646e-01,-1.607780456542968750e-01,9.364588558673858643e-02
3.109179350730935045e-05,1.018540466173711856e-02,5.423344944116442745e-01,9.994718432426452637e-01,-1.215655449777841568e-02,-5.829133559018373489e-03,2.956920489668846130e-02,0.000000000000000000e+00,0.000000000000000000e+00,0.000000000000000000e+00,-1.100000000000000089e+00,2.000000000000000111e-01,-5.000000000000000000e-01,0.000000000000000000e+00,1.100000000000000089e+00,2.000000000000000111e-01,5.000000000000000000e-01,-2.331771142780780792e-02,1.307906061410903931e-01,2.706057131290435791e-01,3.233261108398437500e-01,-2.979787886142730713e-01,-6.251791119575500488e-02,3.689527139067649841e-02,-4.580810666084289551e-02,-1.880092918872833252e-01,1.267883032560348511e-01,-1.595682501792907715e-01,9.249659627676010132e-02
-5.580694408692781633e-04,9.540928446445520045e-03,5.423652602137640777e-01,9.994760751724243164e-01,-1.221913658082485199e-02,-4.997632000595331192e-03,2.955170348286628723e-02,0.000000000000000000e+00,0.000000000000000000e+00,0.000000000000000000e+00,-1.100000000000000089e+00,2.000000000000000111e-01,-5.000000000000000000e-01,0.000000000000000000e+00,1.100000000000000089e+00,2.000000000000000111e-01,5.000000000000000000e-01,-2.679983712732791901e-02,1.324483454227447510e-01,2.702640891075134277e-01,3.237878382205963135e-01,-2.962218225002288818e-01,-6.307610869407653809e-02,3.384490683674812317e-02,-4.397948831319808960e-02,-1.874732375144958496e-01,1.260757744312286377e-01,-1.582373976707458496e-01,9.112803637981414795e-02
-1.143631470831219269e-03,8.851043090525300208e-03,5.424006761776076768e-01,9.994846582412719727e-01,-1.225202810019254684e-02,-4.204541910439729691e-03,2.937206812202930450e-02,0.000000000000000000e+00,0.000000000000000000e+00,0.000000000000000000e+00,-1.100000000000000089e+00,2.000000000000000111e-01,-5.000000000000000000e-01,0.000000000000000000e+00,1.100000000000000089e+00,2.000000000000000111e-01,5.000000000000000000e-01,-3.018018230795860291e-02,1.340041011571884155e-01,2.699308097362518311e-01,3.239702880382537842e-01,-2.943689525127410889e-01,-6.347326189279556274e-02,3.084802068769931793e-02,-4.216514155268669128e-02,-1.865730732679367065e-01,1.255497634410858154e-01,-1.565971374511718750e-01,9.007116407155990601e-02
-1.725330827219736249e-03,8.130456806393340438e-03,5.424661105961510188e-01,9.994962215423583984e-01,-1.223080325871706009e-02,-3.346499754115939140e-03,2.909525111317634583e-02,0.000000000000000000e+00,0.000000000000000000e+00,0.000000000000000000e+00,-1.100000000000000089e+00,2.000000000000000111e-01,-5.000000000000000000e-01,0.000000000000000000e+00,1.100000000000000089e+00,2.000000000000000111e-01,5.000000000000000000e-01,-3.369236737489700317e-02,1.353934258222579956e-01,2.695775330066680908e-01,3.237338960170745850e-01,-2.922635674476623535e-01,-6.384704262018203735e-02,2.767694368958473206e-02,-4.052362591028213501e-02,-1.856753826141357422e-01,1.249333918094635010e-01,-1.548148989677429199e-01,8.907077461481094360e-02
-2.272618630044914798e-03,7.435716935939089452e-03,5.425444990366395936e-01,9.995072484016418457e-01,-1.215262711048126221e-02,-2.565307775512337685e-03,2.882555499672889709e-02,0.000000000000000000e+00,0.000000000000000000e+00,0.000000000000000000e+00,-1.100000000000000089e+00,2.000000000000000111e-01,-5.000000000000000000e-01,0.000000000000000000e+00,1.100000000000000089e+00,2.000000000000000111e-01,5.000000000000000000e-01,-3.687520697712898254e-02,1.365606188774108887e-01,2.694506347179412842e-01,3.231297135353088379e-01,-2.901789844036102295e-01,-6.437418609857559204e-02,2.454850077629089355e-02,-3.911824524402618408e-02,-1.847250312566757202e-01,1.243344992399215698e-01,-1.532122194766998291e-01,8.817464113235473633e-02
-2.826408258112467469e-03,6.777948705641778301e-03,5.426125906904538665e-01,9.995141029357910156e-01,-1.205637492239475250e-02,-1.968241762369871140e-03,2.867661602795124054e-02,0.000000000000000000e+00,0.000000000000000000e+00,0.000000000000000000e+00,-1.100000000000000089e+00,2.000000000000000111e-01,-5.000000000000000000e-01,0.000000000000000000e+00,1.100000000000000089e+00,2.000000000000000111e-01,5.000000000000000000e-01,-3.962598368525505066e-02,1.376768797636032104e-01,2.695470750331878662e-01,3.226016163825988770e-01,-2.882288694381713867e-01,-6.511472910642623901e-02,2.171608060598373413e-02,-3.794968873262405396e-02,-1.840192377567291260e-01,1.238307282328605652e-01,-1.520825773477554321e-01,8.706869930028915405e-02
-3.380383425556838291e-03,6.189411963721869366e-03,5.426476329805874910e-01,9.995163679122924805e-01,-1.198170799762010574e-02,-1.646220800466835499e-03,2.864980511367321014e-02,0.000000000000000000e+00,0.000000000000000000e+00,0.000000000000000000e+00,-1.100000000000000089e+00,2.000000000000000111e-01,-5.000000000000000000e-01,0.000000000000000000e+00,1.100000000000000089e+00,2.000000000000000111e-01,5.000000000000000000e-01,-4.165176302194595337e-02,1.387461423873901367e-01,2.697039544582366943e-01,3.223880231380462646e-01,-2.867828607559204102e-01,-6.591391563415527344e-02,1.977007836103439331e-02,-3.698486089706420898e-02,-1.838164478540420532e-01,1.233781129121780396e-01,-1.515533626079559326e-01,8.610826730728149414e-02
-3.853944464736015936e-03,5.659001594611603320e-03,5.426727521577567881e-01,9.995191693305969238e-01,-1.191608421504497528e-02,-1.611301559023559093e-03,2.858022972941398621e-02,0.000000000000000000e+00,0.000000000000000000e+00,0.000000000000000000e+00,-1.100000000000000089e+00,2.000000000000000111e-01,-5.000000000000000000e-01,0.000000000000000000e+00,1.100000000000000089e+00,2.000000000000000111e-01,5.000000000000000000e-01,-4.263357818126678467e-02,1.397895961999893188e-01,2.700531184673309326e-01,3.224394917488098145e-01,-2.857624590396881104e-01,-6.671337038278579712e-02,1.892081461846828461e-02,-3.606699779629707336e-02,-1.837305873632431030e-01,1.229764744639396667e-01,-1.513322889804840088e-01,8.547382056713104248e-02
-4.213507775337238005e-03,5.150276626721306435e-03,5.426970824682050276e-01,9.995225071907043457e-01,-1.185472123324871063e-02,-1.831483095884323120e-03,2.847668528556823730e-02,0.000000000000000000e+00,0.000000000000000000e+00,0.000000000000000000e+00,-1.100000000000000089e+00,2.000000000000000111e-01,-5.000000000000000000e-01,0.000000000000000000e+00,1.100000000000000089e+00,2.000000000000000111e-01,5.000000000000000000e-01,-4.284301772713661194e-02,1.408711373805999756e-01,2.703616917133331299e-01,3.226494491100311279e-01,-2.849289476871490479e-01,-6.763815134763717651e-02,1.903145015239715576e-02,-3.519545495510101318e-02,-1.838109791278839111e-01,1.227143853902816772e-01,-1.512912660837173462e-01,8.518438041210174561e-02
