-2.450433340892571935e-02,1.407431648724307913e-02,5.453084389112814456e-01,9.998329281806945801e-01,-1.157690864056348801e-02,-1.409292779862880707e-02,-1.255814335308969021e-03,0.000000000000000000e+00,0.000000000000000000e+00,0.000000000000000000e+00,-1.100000000000000089e+00,2.000000000000000111e-01,-5.000000000000000000e-01,0.000000000000000000e+00,1.100000000000000089e+00,2.000000000000000111e-01,5.000000000000000000e-01,-9.112737141549587250e-03,7.683317363262176514e-02,1.109195649623870850e-01,1.219056770205497742e-01,-1.856997758150100708e-01,-1.253043860197067261e-01,4.258509352803230286e-02,-6.888724863529205322e-02,-4.513794183731079102e-01,1.115299835801124573e-01,-9.426618367433547974e-02,5.120795965194702148e-02
-2.543655849179497427e-02,1.473700345724331985e-02,5.451221002879166333e-01,9.998002052307128906e-01,-1.222614664584398270e-02,-1.575568690896034241e-02,-1.374043640680611134e-03,0.000000000000000000e+00,0.000000000000000000e+00,0.000000000000000000e+00,-1.100000000000000089e+00,2.000000000000000111e-01,-5.000000000000000000e-01,0.000000000000000000e+00,1.100000000000000089e+00,2.000000000000000111e-01,5.000000000000000000e-01,-6.587628275156021118e-03,7.670476287603378296e-02,1.116472110152244568e-01,1.226297616958618164e-01,-1.892878413200378418e-01,-1.261504441499710083e-01,4.503970593214035034e-02,-6.952949613332748413e-02,-4.504086971282958984e-01,1.125351786613464355e-01,-9.424047917127609253e-02,5.581831559538841248e-02
-2.620816615833477387e-02,1.540773868426736914e-02,5.449186141931950944e-01,9.997552633285522461e-01,-1.273817289620637894e-02,-1.799040287733078003e-02,-1.852845307439565659e-03,0.000000000000000000e+00,0.000000000000000000e+00,0.000000000000000000e+00,-1.100000000000000089e+00,2.000000000000000111e-01,-5.000000000000000000e-01,0.000000000000000000e+00,1.100000000000000089e+00,2.000000000000000111e-01,5.000000000000000000e-01,-2.302477834746241570e-03,7.630649209022521973e-02,1.114337071776390076e-01,1.232344210147857666e-01,-1.923824697732925415e-01,-1.265988945960998535e-01,4.891686141490936279e-02,-7.011965662240982056e-02,-4.485600292682647705e-01,1.143595129251480103e-01,-9.550961107015609741e-02,5.917414650321006775e-02
-2.645916849821617831e-02,1.603786284489688851e-02,5.448412222159330076e-01,9.996957778930664062e-01,-1.312358304858207703e-02,-2.069608867168426514e-02,-2.779369708150625229e-03,0.000000000000000000e+00,0.000000000000000000e+00,0.000000000000000000e+00,-1.100000000000000089e+00,2.000000000000000111e-01,-5.000000000000000000e-01,0.000000000000000000e+00,1.100000000000000089e+00,2.000000000000000111e-01,5.000000000000000000e-01,4.596420098096132278e-03,7.634886354207992554e-02,1.121378168463706970e-01,1.230923980474472046e-01,-1.962113529443740845e-01,-1.279101222753524780e-01,5.437040701508522034e-02,-7.018554210662841797e-02,-4.459892213344573975e-01,1.148307770490646362e-01,-9.579715877771377563e-02,6.262648850679397583e-02
-2.630946806312134054e-02,1.656587936680274653e-02,5.448098336242966910e-01,9.996280074119567871e-01,-1.332264486700296402e-02,-2.349370531737804413e-02,-3.792417934164404869e-03,0.000000000000000000e+00,0.000000000000000000e+00,0.000000000000000000e+00,-1.100000000000000089e+00,2.000000000000000111e-01,-5.000000000000000000e-01,0.000000000000000000e+00,1.100000000000000089e+00,2.000000000000000111e-01,5.000000000000000000e-01,1.238398440182209015e-02,7.648267596960067749e-02,1.139524877071380615e-01,1.225447580218315125e-01,-2.001560032367706299e-01,-1.294383406639099121e-01,6.022325530648231506e-02,-7.038325071334838867e-02,-4.436417818069458008e-01,1.148029863834381104e-01,-9.649789333343505859e-02,6.585070490837097168e-02
-2.588370838992749140e-02,1.699981055744556602e-02,5.447455202268831620e-01,9.995494484901428223e-01,-1.339344587177038193e-02,-2.646017074584960938e-02,-4.626333713531494141e-03,0.000000000000000000e+00,0.000000000000000000e+00,0.000000000000000000e+00,-1.100000000000000089e+00,2.000000000000000111e-01,-5.000000000000000000e-01,0.000000000000000000e+00,1.100000000000000089e+00,2.000000000000000111e-01,5.000000000000000000e-01,2.048199810087680817e-02,7.640571892261505127e-02,1.159175708889961243e-01,1.222138032317161560e-01,-2.033476531505584717e-01,-1.309137940406799316e-01,6.703664362430572510e-02,-7.078803330659866333e-02,-4.420383572578430176e-01,1.149139925837516785e-01,-9.800554811954498291e-02,6.865904480218887329e-02
-2.522145218267623015e-02,1.725176784125241267e-02,5.446578729822478815e-01,9.994590878486633301e-01,-1.323776878416538239e-02,-2.967980690300464630e-02,-5.039166193455457687e-03,0.000000000000000000e+00,0.000000000000000000e+00,0.000000000000000000e+00,-1.100000000000000089e+00,2.000000000000000111e-01,-5.000000000000000000e-01,0.000000000000000000e+00,1.100000000000000089e+00,2.000000000000000111e-01,5.000000000000000000e-01,2.866822294890880585e-02,7.587400823831558228e-02,1.172492727637290955e-01,1.226558014750480652e-01,-2.053735256195068359e-01,-1.308273226022720337e-01,7.506161183118820190e-02,-7.142830640077590942e-02,-4.412850141525268555e-01,1.154069676995277405e-01,-1.005942821502685547e-01,7.076606899499893188e-02
-2.439084818422079456e-02,1.730366956259152267e-02,5.445483035466285315e-01,9.993522763252258301e-01,-1.298551168292760849e-02,-3.321015834808349609e-02,-4.843263421207666397e-03,0.000000000000000000e+00,0.000000000000000000e+00,0.000000000000000000e+00,-1.100000000000000089e+00,2.000000000000000111e-01,-5.000000000000000000e-01,0.000000000000000000e+00,1.100000000000000089e+00,2.000000000000000111e-01,5.000000000000000000e-01,3.724665939807891846e-02,7.529703527688980103e-02,1.173471361398696899e-01,1.237559542059898376e-01,-2.071519196033477783e-01,-1.303685158491134644e-01,8.464161306619644165e-02,-7.190352678298950195e-02,-4.414675235748291016e-01,1.158912256360054016e-01,-1.038102731108665466e-01,7.213485240936279297e-02
-2.356420927902100337e-02,1.727100425244619541e-02,5.444169779972295453e-01,9.992312788963317871e-01,-1.264490745961666107e-02,-3.688817471265792847e-02,-4.027324728667736053e-03,0.000000000000000000e+00,0.000000000000000000e+00,0.000000000000000000e+00,-1.100000000000000089e+00,2.000000000000000111e-01,-5.000000000000000000e-01,0.000000000000000000e+00,1.100000000000000089e+00,2.000000000000000111e-01,5.000000000000000000e-01,4.604344815015792847e-02,7.459651678800582886e-02,1.160188093781471252e-01,1.252065449953079224e-01,-2.087105065584182739e-01,-1.294380873441696167e-01,9.539433568716049194e-02,-7.238413393497467041e-02,-4.426923692226409912e-01,1.162590086460113525e-01,-1.073498353362083435e-01,7.333080470561981201e-02
-2.254416049448679238e-02,1.703880626353143635e-02,5.442695844783024262e-01,9.990982413291931152e-01,-1.228116173297166824e-02,-4.054530337452888489e-02,-2.826695330440998077e-03,0.000000000000000000e+00,0.000000000000000000e+00,0.000000000000000000e+00,-1.100000000000000089e+00,2.000000000000000111e-01,-5.000000000000000000e-01,0.000000000000000000e+00,1.100000000000000089e+00,2.000000000000000111e-01,5.000000000000000000e-01,5.528911948204040527e-02,7.393516600131988525e-02,1.137152984738349915e-01,1.263954639434814453e-01,-2.103557139635086060e-01,-1.287636309862136841e-01,1.066454425454139709e-01,-7.280457019805908203e-02,-4.446094632148742676e-01,1.165405735373497009e-01,-1.109321191906929016e-01,7.456584274768829346e-02
-2.150392554474599496e-02,1.676964831176317242e-02,5.441169180081347756e-01,9.989591836929321289e-01,-1.192982029169797897e-02,-4.399960115551948547e-02,-1.511783339083194733e-03,0.000000000000000000e+00,0.000000000000000000e+00,0.000000000000000000e+00,-1.100000000000000089e+00,2.000000000000000111e-01,-5.000000000000000000e-01,0.000000000000000000e+00,1.100000000000000089e+00,2.000000000000000111e-01,5.000000000000000000e-01,6.450184434652328491e-02,7.344321906566619873e-02,1.112495139241218567e-01,1.273370832204818726e-01,-2.122614681720733643e-01,-1.283408105373382568e-01,1.174969896674156189e-01,-7.315596938133239746e-02,-4.467937946319580078e-01,1.169762983918190002e-01,-1.146062910556793213e-01,7.508213073015213013e-02
-2.042083878382908863e-02,1.649945886485805480e-02,5.439627983624284457e-01,9.988182783126831055e-01,-1.156672742217779160e-02,-4.720295965671539307e-02,-2.755783207248896360e-04,0.000000000000000000e+00,0.000000000000000000e+00,0.000000000000000000e+00,-1.100000000000000089e+00,2.000000000000000111e-01,-5.000000000000000000e-01,0.000000000000000000e+00,1.100000000000000089e+00,2.000000000000000111e-01,5.000000000000000000e-01,7.364764064550399780e-02,7.294480502605438232e-02,1.089032068848609924e-01,1.279225498437881470e-01,-2.146270424127578735e-01,-1.279530227184295654e-01,1.277770400047302246e-01,-7.351198047399520874e-02,-4.490530788898468018e-01,1.175786927342414856e-01,-1.183509007096290588e-01,7.525837421417236328e-02
-1.933441361160760652e-02,1.622287933801705440e-02,5.438225876825927285e-01,9.986808896064758301e-01,-1.117236725986003876e-02,-5.011247470974922180e-02,6.694248877465724945e-04,0.000000000000000000e+00,0.000000000000000000e+00,0.000000000000000000e+00,-1.100000000000000089e+00,2.000000000000000111e-01,-5.000000000000000000e-01,0.000000000000000000e+00,1.100000000000000089e+00,2.000000000000000111e-01,5.000000000000000000e-01,8.230808377265930176e-02,7.243217527866363525e-02,1.071292981505393982e-01,1.284369826316833496e-01,-2.168665975332260132e-01,-1.271742582321166992e-01,1.374217271804809570e-01,-7.378239184617996216e-02,-4.508268237113952637e-01,1.182484999299049377e-01,-1.220135614275932312e-01,7.501408457756042480e-02
-1.829779084106305034e-02,1.594293934274276792e-02,5.437052126183654632e-01,9.985581040382385254e-01,-1.078201550990343094e-02,-5.257841572165489197e-02,9.987745434045791626e-04,0.000000000000000000e+00,0.000000000000000000e+00,0.000000000000000000e+00,-1.100000000000000089e+00,2.000000000000000111e-01,-5.000000000000000000e-01,0.000000000000000000e+00,1.100000000000000089e+00,2.000000000000000111e-01,5.000000000000000000e-01,9.025716781616210938e-02,7.222133874893188477e-02,1.068093851208686829e-01,1.285893619060516357e-01,-2.190088182687759399e-01,-1.261205524206161499e-01,1.456420272588729858e-01,-7.394028455018997192e-02,-4.515084326267242432e-01,1.189434751868247986e-01,-1.251404583454132080e-01,7.485833764076232910e-02
-1.731717112032000322e-02,1.569253124785844819e-02,5.436221324968518731e-01,9.984496831893920898e-01,-1.040900778025388718e-02,-5.467498302459716797e-02,7.158815278671681881e-04,0.000000000000000000e+00,0.000000000000000000e+00,0.000000000000000000e+00,-1.100000000000000089e+00,2.000000000000000111e-01,-5.000000000000000000e-01,0.000000000000000000e+00,1.100000000000000089e+00,2.000000000000000111e-01,5.000000000000000000e-01,9.754381328821182251e-02,7.206750661134719849e-02,1.075537875294685364e-01,1.284922659397125244e-01,-2.209299057722091675e-01,-1.247128546237945557e-01,1.525268405675888062e-01,-7.410550862550735474e-02,-4.508873820304870605e-01,1.196731925010681152e-01,-1.279720067977905273e-01,7.482515275478363037e-02
-1.633279130787052350e-02,1.553374846564662196e-02,5.435586494854603989e-01,9.983485341072082520e-01,-1.004614308476448059e-02,-5.656234547495841980e-02,-9.571643749950453639e-05,0.000000000000000000e+00,0.000000000000000000e+00,0.000000000000000000e+00,-1.100000000000000089e+00,2.000000000000000111e-01,-5.000000000000000000e-01,0.000000000000000000e+00,1.100000000000000089e+00,2.000000000000000111e-01,5.000000000000000000e-01,1.044374778866767883e-01,7.194611430168151855e-02,1.091845929622650146e-01,1.284848600625991821e-01,-2.232435643672943115e-01,-1.233294606208801270e-01,1.585372239351272583e-01,-7.445561885833740234e-02,-4.494390785694122314e-01,1.204527541995048523e-01,-1.305773258209228516e-01,7.481918483972549438e-02
-1.535797909936971115e-02,1.548942790919387996e-02,5.434881912314831753e-01,9.982501864433288574e-01,-9.756157174706459045e-03,-5.830382183194160461e-02,-1.420923159457743168e-03,0.000000000000000000e+00,0.000000000000000000e+00,0.000000000000000000e+00,-1.100000000000000089e+00,2.000000000000000111e-01,-5.000000000000000000e-01,0.000000000000000000e+00,1.100000000000000089e+00,2.000000000000000111e-01,5.000000000000000000e-01,1.110624447464942932e-01,7.204105705022811890e-02,1.117484644055366516e-01,1.286028176546096802e-01,-2.254540324211120605e-01,-1.220860108733177185e-01,1.637640446424484253e-01,-7.465219497680664062e-02,-4.469787180423736572e-01,1.212445795536041260e-01,-1.329815536737442017e-01,7.468348741531372070e-02
-1.440016515223742181e-02,1.548505151536165234e-02,5.434153663773427789e-01,9.981513023376464844e-01,-9.556546807289123535e-03,-5.993457511067390442e-02,-3.223100677132606506e-03,0.000000000000000000e+00,0.000000000000000000e+00,0.000000000000000000e+00,-1.100000000000000089e+00,2.000000000000000111e-01,-5.000000000000000000e-01,0.000000000000000000e+00,1.100000000000000089e+00,2.000000000000000111e-01,5.000000000000000000e-01,1.176702603697776794e-01,7.247278094291687012e-02,1.155112609267234802e-01,1.288922727108001709e-01,-2.278164029121398926e-01,-1.208783835172653198e-01,1.682855337858200073e-01,-7.463707029819488525e-02,-4.436551034450531006e-01,1.221442073583602905e-01,-1.352227330207824707e-01,7.450482249259948730e-02
-1.345264280186683759e-02,1.549369271990438598e-02,5.433457385093877212e-01,9.980558156967163086e-01,-9.421807713806629181e-03,-6.137723103165626526e-02,-5.344782490283250809e-03,0.000000000000000000e+00,0.000000000000000000e+00,0.000000000000000000e+00,-1.100000000000000089e+00,2.000000000000000111e-01,-5.000000000000000000e-01,0.000000000000000000e+00,1.100000000000000089e+00,2.000000000000000111e-01,5.000000000000000000e-01,1.240506842732429504e-01,7.311412692070007324e-02,1.201943829655647278e-01,1.292773336172103882e-01,-2.298596203327178955e-01,-1.193310245871543884e-01,1.721072643995285034e-01,-7.463485002517700195e-02,-4.400764107704162598e-01,1.230042427778244019e-01,-1.371183693408966064e-01,7.436283677816390991e-02
-1.261328082583430647e-02,1.551685789496534337e-02,5.432813005540707563e-01,9.979654550552368164e-01,-9.386941790580749512e-03,-6.259061396121978760e-02,-7.700073998421430588e-03,0.000000000000000000e+00,0.000000000000000000e+00,0.000000000000000000e+00,-1.100000000000000089e+00,2.000000000000000111e-01,-5.000000000000000000e-01,0.000000000000000000e+00,1.100000000000000089e+00,2.000000000000000111e-01,5.000000000000000000e-01,1.298693418502807617e-01,7.395064830780029297e-02,1.249116212129592896e-01,1.295080929994583130e-01,-2.320746481418609619e-01,-1.178764477372169495e-01,1.752894371747970581e-01,-7.443246245384216309e-02,-4.361141622066497803e-01,1.238107606768608093e-01,-1.386573910713195801e-01,7.426175475120544434e-02
-1.184318082891592724e-02,1.556518117154035916e-02,5.432123785142344286e-01,9.978772997856140137e-01,-9.323601610958576202e-03,-6.363710016012191772e-02,-1.021360047161579132e-02,0.000000000000000000e+00,0.000000000000000000e+00,0.000000000000000000e+00,-1.100000000000000089e+00,2.000000000000000111e-01,-5.000000000000000000e-01,0.000000000000000000e+00,1.100000000000000089e+00,2.000000000000000111e-01,5.000000000000000000e-01,1.353091597557067871e-01,7.471669465303421021e-02,1.299302428960800171e-01,1.296029537916183472e-01,-2.340380996465682983e-01,-1.160660460591316223e-01,1.780417561531066895e-01,-7.429203391075134277e-02,-4.315589666366577148e-01,1.246417611837387085e-01,-1.400103271007537842e-01,7.417208701372146606e-02
-1.112427413026153070e-02,1.560111223421332266e-02,5.431674546304374740e-01,9.977877736091613770e-01,-9.291552938520908356e-03,-6.456427276134490967e-02,-1.283327769488096237e-02,0.000000000000000000e+00,0.000000000000000000e+00,0.000000000000000000e+00,-1.100000000000000089e+00,2.000000000000000111e-01,-5.000000000000000000e-01,0.000000000000000000e+00,1.100000000000000089e+00,2.000000000000000111e-01,5.000000000000000000e-01,1.406117081642150879e-01,7.557027041912078857e-02,1.352572441101074219e-01,1.294135451316833496e-01,-2.360194474458694458e-01,-1.147106289863586426e-01,1.803606897592544556e-01,-7.408796250820159912e-02,-4.267258048057556152e-01,1.255994439125061035e-01,-1.413342654705047607e-01,7.386310398578643799e-02
-1.016839407432608075e-02,1.550723060702133629e-02,5.431434149550969925e-01,9.976997971534729004e-01,-9.259422309696674347e-03,-6.535089015960693359e-02,-1.544631086289882660e-02,0.000000000000000000e+00,0.000000000000000000e+00,0.000000000000000000e+00,-1.100000000000000089e+00,2.000000000000000111e-01,-5.000000000000000000e-01,0.000000000000000000e+00,1.100000000000000089e+00,2.000000000000000111e-01,5.000000000000000000e-01,1.456806510686874390e-01,7.638440281152725220e-02,1.408191770315170288e-01,1.289730817079544067e-01,-2.380205541849136353e-01,-1.137786135077476501e-01,1.824030876159667969e-01,-7.390529662370681763e-02,-4.221259355545043945e-01,1.264510303735733032e-01,-1.425493657588958740e-01,7.384689897298812866e-02
-9.448912592846994002e-03,1.561118196220974419e-02,5.431207038973918655e-01,9.976156353950500488e-01,-9.238612838089466095e-03,-6.597329676151275635e-02,-1.803245767951011658e-02,0.000000000000000000e+00,0.000000000000000000e+00,0.000000000000000000e+00,-1.100000000000000089e+00,2.000000000000000111e-01,-5.000000000000000000e-01,0.000000000000000000e+00,1.100000000000000089e+00,2.000000000000000111e-01,5.000000000000000000e-01,1.504558920860290527e-01,7.708209753036499023e-02,1.463817656040191650e-01,1.285793483257293701e-01,-2.396474331617355347e-01,-1.127216741442680359e-01,1.840622425079345703e-01,-7.372782379388809204e-02,-4.174640774726867676e-01,1.272630691528320312e-01,-1.436899602413177490e-01,7.361249625682830811e-02
-8.731302723613087666e-03,1.572830920810858180e-02,5.431039300997450026e-01,9.975365996360778809e-01,-9.219396859407424927e-03,-6.639044731855392456e-02,-2.068772166967391968e-02,0.000000000000000000e+00,0.000000000000000000e+00,0.000000000000000000e+00,-1.100000000000000089e+00,2.000000000000000111e-01,-5.000000000000000000e-01,0.000000000000000000e+00,1.100000000000000089e+00,2.000000000000000111e-01,5.000000000000000000e-01,1.547147631645202637e-01,7.760504633188247681e-02,1.516851782798767090e-01,1.282800734043121338e-01,-2.411457151174545288e-01,-1.114888191223144531e-01,1.850581020116806030e-01,-7.362170517444610596e-02,-4.124884009361267090e-01,1.281428486108779907e-01,-1.445625573396682739e-01,7.338367402553558350e-02
-8.027122402069807386e-03,1.584291934637785393e-02,5.430853294528493747e-01,9.974545240402221680e-01,-9.191748686134815216e-03,-6.674039363861083984e-02,-2.335928566753864288e-02,0.000000000000000000e+00,0.000000000000000000e+00,0.000000000000000000e+00,-1.100000000000000089e+00,2.000000000000000111e-01,-5.000000000000000000e-01,0.000000000000000000e+00,1.100000000000000089e+00,2.000000000000000111e-01,5.000000000000000000e-01,1.586830765008926392e-01,7.807797193527221680e-02,1.569943875074386597e-01,1.281372457742691040e-01,-2.425095885992050171e-01,-1.103907153010368347e-01,1.857099682092666626e-01,-7.363439351320266724e-02,-4.075400829315185547e-01,1.292415857315063477e-01,-1.454178392887115479e-01,7.305626571178436279e-02
-7.291347189862845170e-03,1.596997359767556024e-02,5.430811360034376589e-01,9.973736405372619629e-01,-9.193000383675098419e-03,-6.689281761646270752e-02,-2.620316855609416962e-02,0.000000000000000000e+00,0.000000000000000000e+00,0.000000000000000000e+00,-1.100000000000000089e+00,2.000000000000000111e-01,-5.000000000000000000e-01,0.000000000000000000e+00,1.100000000000000089e+00,2.000000000000000111e-01,5.000000000000000000e-01,1.620975583791732788e-01,7.852960377931594849e-02,1.624349206686019897e-01,1.282306015491485596e-01,-2.436789721250534058e-01,-1.089734509587287903e-01,1.856128275394439697e-01,-7.366057485342025757e-02,-4.022892415523529053e-01,1.305179148912429810e-01,-1.461153030395507812e-01,7.290814816951751709e-02
-6.547487391243603759e-03,1.612242987638132577e-02,5.430542314963208161e-01,9.972939491271972656e-01,-9.211598895490169525e-03,-6.691151857376098633e-02,-2.903151698410511017e-02,0.000000000000000000e+00,0.000000000000000000e+00,0.000000000000000000e+00,-1.100000000000000089e+00,2.000000000000000111e-01,-5.000000000000000000e-01,0.000000000000000000e+00,1.100000000000000089e+00,2.000000000000000111e-01,5.000000000000000000e-01,1.650839596986770630e-01,7.894033193588256836e-02,1.680250614881515503e-01,1.283875107765197754e-01,-2.448818385601043701e-01,-1.078656241297721863e-01,1.852349191904067993e-01,-7.362262904644012451e-02,-3.967185616493225098e-01,1.315536946058273315e-01,-1.467828154563903809e-01,7.307030260562896729e-02
-5.837478797807537159e-03,1.629608305577997726e-02,5.430294444735603854e-01,9.972094893455505371e-01,-9.246007539331912994e-03,-6.687674671411514282e-02,-3.186287730932235718e-02,0.000000000000000000e+00,0.000000000000000000e+00,0.000000000000000000e+00,-1.100000000000000089e+00,2.000000000000000111e-01,-5.000000000000000000e-01,0.000000000000000000e+00,1.100000000000000089e+00,2.000000000000000111e-01,5.000000000000000000e-01,1.680888533592224121e-01,7.930474728345870972e-02,1.739638745784759521e-01,1.284698098897933960e-01,-2.461045831441879272e-01,-1.069252565503120422e-01,1.847465783357620239e-01,-7.350793480873107910e-02,-3.911128342151641846e-01,1.325215101242065430e-01,-1.475009173154830933e-01,7.322797179222106934e-02
-5.165994925885414486e-03,1.644888057124170577e-02,5.430145805637643930e-01,9.971243143081665039e-01,-9.276974014937877655e-03,-6.673981994390487671e-02,-3.468134999275207520e-02,0.000000000000000000e+00,0.000000000000000000e+00,0.000000000000000000e+00,-1.100000000000000089e+00,2.000000000000000111e-01,-5.000000000000000000e-01,0.000000000000000000e+00,1.100000000000000089e+00,2.000000000000000111e-01,5.000000000000000000e-01,1.708932518959045410e-01,7.969108223915100098e-02,1.802421212196350098e-01,1.282720118761062622e-01,-2.472217828035354614e-01,-1.065094992518424988e-01,1.841624230146408081e-01,-7.325478643178939819e-02,-3.855477571487426758e-01,1.333429664373397827e-01,-1.481804102659225464e-01,7.314614206552505493e-02
-4.511283229762509846e-03,1.656915420167750022e-02,5.429988032293440181e-01,9.970368146896362305e-01,-9.327586740255355835e-03,-6.646627932786941528e-02,-3.758684173226356506e-02,0.000000000000000000e+00,0.000000000000000000e+00,0.000000000000000000e+00,-1.100000000000000089e+00,2.000000000000000111e-01,-5.000000000000000000e-01,0.000000000000000000e+00,1.100000000000000089e+00,2.000000000000000111e-01,5.000000000000000000e-01,1.733658462762832642e-01,8.024693280458450317e-02,1.864599436521530151e-01,1.279661357402801514e-01,-2.483118176460266113e-01,-1.062267124652862549e-01,1.833845227956771851e-01,-7.275172322988510132e-02,-3.800425529479980469e-01,1.340439766645431519e-01,-1.489537805318832397e-01,7.266488671302795410e-02
-3.872203874875640960e-03,1.662770939101888487e-02,5.429775038278764621e-01,9.969494938850402832e-01,-9.384845383465290070e-03,-6.608134508132934570e-02,-4.045822471380233765e-02,0.000000000000000000e+00,0.000000000000000000e+00,0.000000000000000000e+00,-1.100000000000000089e+00,2.000000000000000111e-01,-5.000000000000000000e-01,0.000000000000000000e+00,1.100000000000000089e+00,2.000000000000000111e-01,5.000000000000000000e-01,1.756563782691955566e-01,8.095511049032211304e-02,1.925347298383712769e-01,1.276816427707672119e-01,-2.495647966861724854e-01,-1.060368940234184265e-01,1.823569834232330322e-01,-7.215286791324615479e-02,-3.748560845851898193e-01,1.348276585340499878e-01,-1.498992443084716797e-01,7.200165838003158569e-02
-3.201750524981756586e-03,1.662458636108879798e-02,5.429438316746794113e-01,9.968569874763488770e-01,-9.398163296282291412e-03,-6.562114506959915161e-02,-4.337916895747184753e-02,0.000000000000000000e+00,0.000000000000000000e+00,0.000000000000000000e+00,-1.100000000000000089e+00,2.000000000000000111e-01,-5.000000000000000000e-01,0.000000000000000000e+00,1.100000000000000089e+00,2.000000000000000111e-01,5.000000000000000000e-01,1.779342591762542725e-01,8.166123181581497192e-02,1.985118240118026733e-01,1.273971647024154663e-01,-2.508637309074401855e-01,-1.055854409933090210e-01,1.811653673648834229e-01,-7.164029031991958618e-02,-3.696344196796417236e-01,1.357519030570983887e-01,-1.510583013296127319e-01,7.131982594728469849e-02
-2.518716826852683815e-03,1.652473114445015406e-02,5.429043053000262020e-01,9.967591166496276855e-01,-9.392055682837963104e-03,-6.515561044216156006e-02,-4.623687639832496643e-02,0.000000000000000000e+00,0.000000000000000000e+00,0.000000000000000000e+00,-1.100000000000000089e+00,2.000000000000000111e-01,-5.000000000000000000e-01,0.000000000000000000e+00,1.100000000000000089e+00,2.000000000000000111e-01,5.000000000000000000e-01,1.801655590534210205e-01,8.245325088500976562e-02,2.044254988431930542e-01,1.271021515130996704e-01,-2.520146667957305908e-01,-1.052642017602920532e-01,1.799077391624450684e-01,-7.102321833372116089e-02,-3.641567826271057129e-01,1.368232667446136475e-01,-1.524169594049453735e-01,7.078874111175537109e-02
-1.807209321772773733e-03,1.632583033754443289e-02,5.428920571061999212e-01,9.966567754745483398e-01,-9.355305694043636322e-03,-6.472127884626388550e-02,-4.897829145193099976e-02,0.000000000000000000e+00,0.000000000000000000e+00,0.000000000000000000e+00,-1.100000000000000089e+00,2.000000000000000111e-01,-5.000000000000000000e-01,0.000000000000000000e+00,1.100000000000000089e+00,2.000000000000000111e-01,5.000000000000000000e-01,1.824398338794708252e-01,8.320423215627670288e-02,2.100090980529785156e-01,1.268862187862396240e-01,-2.532032132148742676e-01,-1.049051508307456970e-01,1.787566244602203369e-01,-7.036408036947250366e-02,-3.588975667953491211e-01,1.378017812967300415e-01,-1.538306921720504761e-01,7.057184725999832153e-02
-1.092881342451114098e-03,1.606169622121002630e-02,5.429036409912085803e-01,9.965586066246032715e-01,-9.312070906162261963e-03,-6.426712125539779663e-02,-5.151616036891937256e-02,0.000000000000000000e+00,0.000000000000000000e+00,0.000000000000000000e+00,-1.100000000000000089e+00,2.000000000000000111e-01,-5.000000000000000000e-01,0.000000000000000000e+00,1.100000000000000089e+00,2.000000000000000111e-01,5.000000000000000000e-01,1.846093088388442993e-01,8.403113484382629395e-02,2.155128121376037598e-01,1.266513764858245850e-01,-2.541764080524444580e-01,-1.048334091901779175e-01,1.777336597442626953e-01,-6.952145695686340332e-02,-3.536956310272216797e-01,1.385007649660110474e-01,-1.551554203033447266e-01,7.035425305366516113e-02
-3.984271604691236920e-04,1.575613881715319520e-02,5.428981604434625075e-01,9.964733123779296875e-01,-9.257255122065544128e-03,-6.374622881412506104e-02,-5.377447605133056641e-02,0.000000000000000000e+00,0.000000000000000000e+00,0.000000000000000000e+00,-1.100000000000000089e+00,2.000000000000000111e-01,-5.000000000000000000e-01,0.000000000000000000e+00,1.100000000000000089e+00,2.000000000000000111e-01,5.000000000000000000e-01,1.864153444766998291e-01,8.503498882055282593e-02,2.206968665122985840e-01,1.265456676483154297e-01,-2.547911405563354492e-01,-1.046925932168960571e-01,1.770115792751312256e-01,-6.850972026586532593e-02,-3.490135073661804199e-01,1.387949585914611816e-01,-1.564414948225021362e-01,7.004744559526443481e-02
3.330047435986790766e-04,1.544734031265375743e-02,5.428907700078655640e-01,9.964040517807006836e-01,-9.225903078913688660e-03,-6.315267086029052734e-02,-5.572855472564697266e-02,0.000000000000000000e+00,0.000000000000000000e+00,0.000000000000000000e+00,-1.100000000000000089e+00,2.000000000000000111e-01,-5.000000000000000000e-01,0.000000000000000000e+00,1.100000000000000089e+00,2.000000000000000111e-01,5.000000000000000000e-01,1.877302229404449463e-01,8.625742048025131226e-02,2.255339920520782471e-01,1.266299486160278320e-01,-2.556240558624267578e-01,-1.043937951326370239e-01,1.767577826976776123e-01,-6.720568239688873291e-02,-3.449974656105041504e-01,1.384019851684570312e-01,-1.576721370220184326e-01,6.968007981777191162e-02
1.086287963906105557e-03,1.518090187510795323e-02,5.429052187246505845e-01,9.963631629943847656e-01,-9.244479238986968994e-03,-6.253834813833236694e-02,-5.713156983256340027e-02,0.000000000000000000e+00,0.000000000000000000e+00,0.000000000000000000e+00,-1.100000000000000089e+00,2.000000000000000111e-01,-5.000000000000000000e-01,0.000000000000000000e+00,1.100000000000000089e+00,2.000000000000000111e-01,5.000000000000000000e-01,1.885479986667633057e-01,8.749026060104370117e-02,2.291792035102844238e-01,1.269756853580474854e-01,-2.565705180168151855e-01,-1.041527837514877319e-01,1.772897988557815552e-01,-6.572355329990386963e-02,-3.419954180717468262e-01,1.371501088142395020e-01,-1.586146205663681030e-01,6.925905495882034302e-02
1.881559361489677914e-03,1.490430807600719686e-02,5.429297566316043655e-01,9.963579773902893066e-01,-9.263531304895877838e-03,-6.184681132435798645e-02,-5.796496197581291199e-02,0.000000000000000000e+00,0.000000000000000000e+00,0.000000000000000000e+00,-1.100000000000000089e+00,2.000000000000000111e-01,-5.000000000000000000e-01,0.000000000000000000e+00,1.100000000000000089e+00,2.000000000000000111e-01,5.000000000000000000e-01,1.887848973274230957e-01,8.858244866132736206e-02,2.314794808626174927e-01,1.274885535240173340e-01,-2.575362026691436768e-01,-1.039083525538444519e-01,1.781718283891677856e-01,-6.430228799581527710e-02,-3.401676416397094727e-01,1.353201568126678467e-01,-1.590773612260818481e-01,6.881827861070632935e-02
2.654755465666330545e-03,1.461094826412848158e-02,5.429506408400607276e-01,9.963904023170471191e-01,-9.249869734048843384e-03,-6.108932197093963623e-02,-5.821258202195167542e-02,0.000000000000000000e+00,0.000000000000000000e+00,0.000000000000000000e+00,-1.100000000000000089e+00,2.000000000000000111e-01,-5.000000000000000000e-01,0.000000000000000000e+00,1.100000000000000089e+00,2.000000000000000111e-01,5.000000000000000000e-01,1.886174082756042480e-01,8.941657841205596924e-02,2.324433773756027222e-01,1.280183494091033936e-01,-2.579983174800872803e-01,-1.035617291927337646e-01,1.789711266756057739e-01,-6.331907957792282104e-02,-3.399367332458496094e-01,1.335437297821044922e-01,-1.596061438322067261e-01,6.838841736316680908e-02
3.383966735864029837e-03,1.433991805137596089e-02,5.429699057957740882e-01,9.964652657508850098e-01,-9.178503416478633881e-03,-6.027317047119140625e-02,-5.779149010777473450e-02,0.000000000000000000e+00,0.000000000000000000e+00,0.000000000000000000e+00,-1.100000000000000089e+00,2.000000000000000111e-01,-5.000000000000000000e-01,0.000000000000000000e+00,1.100000000000000089e+00,2.000000000000000111e-01,5.000000000000000000e-01,1.880018711090087891e-01,8.993600308895111084e-02,2.321359366178512573e-01,1.284373402595520020e-01,-2.581911981105804443e-01,-1.031772196292877197e-01,1.797972321510314941e-01,-6.295120716094970703e-02,-3.412098884582519531e-01,1.320060938596725464e-01,-1.604428142309188843e-01,6.818074733018875122e-02
4.056858047219745467e-03,1.409239554791852367e-02,5.430027060436479758e-01,9.965776205062866211e-01,-8.986415341496467590e-03,-5.950047075748443604e-02,-5.667411535978317261e-02,0.000000000000000000e+00,0.000000000000000000e+00,0.000000000000000000e+00,-1.100000000000000089e+00,2.000000000000000111e-01,-5.000000000000000000e-01,0.000000000000000000e+00,1.100000000000000089e+00,2.000000000000000111e-01,5.000000000000000000e-01,1.869012564420700073e-01,8.990531414747238159e-02,2.304643243551254272e-01,1.287706494331359863e-01,-2.581301033496856689e-01,-1.024512052536010742e-01,1.808496564626693726e-01,-6.327832490205764771e-02,-3.441639542579650879e-01,1.309445351362228394e-01,-1.617462486028671265e-01,6.860917806625366211e-02
4.710997231104740134e-03,1.389409158096620474e-02,5.430450557307763271e-01,9.967113137245178223e-01,-8.712923154234886169e-03,-5.877104029059410095e-02,-5.510560050606727600e-02,0.000000000000000000e+00,0.000000000000000000e+00,0.000000000000000000e+00,-1.100000000000000089e+00,2.000000000000000111e-01,-5.000000000000000000e-01,0.000000000000000000e+00,1.100000000000000089e+00,2.000000000000000111e-01,5.000000000000000000e-01,1.854157000780105591e-01,8.944443613290786743e-02,2.277796268463134766e-01,1.291055530309677124e-01,-2.576619088649749756e-01,-1.019098386168479919e-01,1.819072514772415161e-01,-6.406105309724807739e-02,-3.481436371803283691e-01,1.304298341274261475e-01,-1.632663458585739136e-01,6.917235255241394043e-02
5.338661048774174557e-03,1.376418287771744541e-02,5.430531104751910032e-01,9.968492984771728516e-01,-8.394132368266582489e-03,-5.811263993382453918e-02,-5.332897603511810303e-02,0.000000000000000000e+00,0.000000000000000000e+00,0.000000000000000000e+00,-1.100000000000000089e+00,2.000000000000000111e-01,-5.000000000000000000e-01,0.000000000000000000e+00,1.100000000000000089e+00,2.000000000000000111e-01,5.000000000000000000e-01,1.839259266853332520e-01,8.861747384071350098e-02,2.245469540357589722e-01,1.294467449188232422e-01,-2.569299638271331787e-01,-1.017299145460128784e-01,1.828179210424423218e-01,-6.515158712863922119e-02,-3.523815572261810303e-01,1.304702609777450562e-01,-1.649629920721054077e-01,6.981508433818817139e-02
5.902312483963076915e-03,1.366738322214458567e-02,5.430390769514170657e-01,9.969826340675354004e-01,-8.075072430074214935e-03,-5.753479525446891785e-02,-5.148063227534294128e-02,0.000000000000000000e+00,0.000000000000000000e+00,0.000000000000000000e+00,-1.100000000000000089e+00,2.000000000000000111e-01,-5.000000000000000000e-01,0.000000000000000000e+00,1.100000000000000089e+00,2.000000000000000111e-01,5.000000000000000000e-01,1.827977448701858521e-01,8.759932965040206909e-02,2.213691025972366333e-01,1.295799463987350464e-01,-2.565356194972991943e-01,-1.020586937665939331e-01,1.837582737207412720e-01,-6.634400784969329834e-02,-3.567014634609222412e-01,1.305827200412750244e-01,-1.665684282779693604e-01,7.027202844619750977e-02
6.451433785612497272e-03,1.363498519250012919e-02,5.430120478863968980e-01,9.971087574958801270e-01,-7.769093383103609085e-03,-5.700606480240821838e-02,-4.963938891887664795e-02,0.000000000000000000e+00,0.000000000000000000e+00,0.000000000000000000e+00,-1.100000000000000089e+00,2.000000000000000111e-01,-5.000000000000000000e-01,0.000000000000000000e+00,1.100000000000000089e+00,2.000000000000000111e-01,5.000000000000000000e-01,1.823021918535232544e-01,8.653614670038223267e-02,2.186356931924819946e-01,1.293736249208450317e-01,-2.563074231147766113e-01,-1.028657332062721252e-01,1.850589215755462646e-01,-6.740960478782653809e-02,-3.607087135314941406e-01,1.303326040506362915e-01,-1.678663343191146851e-01,7.092551141977310181e-02
6.936471343482609152e-03,1.361658305976295308e-02,5.429960214361698734e-01,9.972234964370727539e-01,-7.512129377573728561e-03,-5.654411017894744873e-02,-4.787022620439529419e-02,0.000000000000000000e+00,0.000000000000000000e+00,0.000000000000000000e+00,-1.100000000000000089e+00,2.000000000000000111e-01,-5.000000000000000000e-01,0.000000000000000000e+00,1.100000000000000089e+00,2.000000000000000111e-01,5.000000000000000000e-01,1.821241378784179688e-01,8.558121323585510254e-02,2.162061482667922974e-01,1.290008872747421265e-01,-2.562187016010284424e-01,-1.036660447716712952e-01,1.866502761840820312e-01,-6.806811690330505371e-02,-3.639664351940155029e-01,1.297005116939544678e-01,-1.688987165689468384e-01,7.142405956983566284e-02
7.368061883525565611e-03,1.357946350709582188e-02,5.429904993691228032e-01,9.973328113555908203e-01,-7.292711641639471054e-03,-5.606753006577491760e-02,-4.615748301148414612e-02,0.000000000000000000e+00,0.000000000000000000e+00,0.000000000000000000e+00,-1.100000000000000089e+00,2.000000000000000111e-01,-5.000000000000000000e-01,0.000000000000000000e+00,1.100000000000000089e+00,2.000000000000000111e-01,5.000000000000000000e-01,1.819153279066085815e-01,8.478176593780517578e-02,2.136923223733901978e-01,1.286854147911071777e-01,-2.561878263950347900e-01,-1.040093079209327698e-01,1.880125850439071655e-01,-6.840705126523971558e-02,-3.667342662811279297e-01,1.287876069545745850e-01,-1.696048229932785034e-01,7.162773609161376953e-02
7.795157959223772068e-03,1.355350486155731081e-02,5.429664596937822107e-01,9.974334836006164551e-01,-7.101952563971281052e-03,-5.552251636981964111e-02,-4.464530199766159058e-02,0.000000000000000000e+00,0.000000000000000000e+00,0.000000000000000000e+00,-1.100000000000000089e+00,2.000000000000000111e-01,-5.000000000000000000e-01,0.000000000000000000e+00,1.100000000000000089e+00,2.000000000000000111e-01,5.000000000000000000e-01,1.813296824693679810e-01,8.410124480724334717e-02,2.111421823501586914e-01,1.285263895988464355e-01,-2.561847567558288574e-01,-1.039781421422958374e-01,1.886770427227020264e-01,-6.874534487724304199e-02,-3.691277503967285156e-01,1.280153244733810425e-01,-1.700906008481979370e-01,7.152981311082839966e-02
8.220258513512559984e-03,1.355821340979838918e-02,5.429360675653724932e-01,9.975172281265258789e-01,-6.993124727159738541e-03,-5.498187616467475891e-02,-4.344541952013969421e-02,0.000000000000000000e+00,0.000000000000000000e+00,0.000000000000000000e+00,-1.100000000000000089e+00,2.000000000000000111e-01,-5.000000000000000000e-01,0.000000000000000000e+00,1.100000000000000089e+00,2.000000000000000111e-01,5.000000000000000000e-01,1.806824952363967896e-01,8.365141600370407104e-02,2.089071422815322876e-01,1.285486668348312378e-01,-2.564768493175506592e-01,-1.038890853524208069e-01,1.889161169528961182e-01,-6.898602843284606934e-02,-3.711838126182556152e-01,1.276620477437973022e-01,-1.706281155347824097e-01,7.135301828384399414e-02
8.678023080468517253e-03,1.357464207825486054e-02,5.428868671935616064e-01,9.975700974464416504e-01,-6.978320889174938202e-03,-5.456811934709548950e-02,-4.274927824735641479e-02,0.000000000000000000e+00,0.000000000000000000e+00,0.000000000000000000e+00,-1.100000000000000089e+00,2.000000000000000111e-01,-5.000000000000000000e-01,0.000000000000000000e+00,1.100000000000000089e+00,2.000000000000000111e-01,5.000000000000000000e-01,1.805161684751510620e-01,8.353555947542190552e-02,2.079081982374191284e-01,1.285533457994461060e-01,-2.570414543151855469e-01,-1.041094884276390076e-01,1.892195940017700195e-01,-6.896455585956573486e-02,-3.723898231983184814e-01,1.275697946548461914e-01,-1.713241189718246460e-01,7.121653854846954346e-02
9.155912831157558135e-03,1.357235721921585918e-02,5.428193152906617414e-01,9.976004958152770996e-01,-6.998219061642885208e-03,-5.429169163107872009e-02,-4.238687083125114441e-02,0.000000000000000000e+00,0.000000000000000000e+00,0.000000000000000000e+00,-1.100000000000000089e+00,2.000000000000000111e-01,-5.000000000000000000e-01,0.000000000000000000e+00,1.100000000000000089e+00,2.000000000000000111e-01,5.000000000000000000e-01,1.806465238332748413e-01,8.363654464483261108e-02,2.079733014106750488e-01,1.287069320678710938e-01,-2.576680779457092285e-01,-1.042960658669471741e-01,1.897789090871810913e-01,-6.879150867462158203e-02,-3.727507889270782471e-01,1.274909377098083496e-01,-1.720858812332153320e-01,7.119285315275192261e-02
9.639864399808111689e-03,1.353534016732333388e-02,5.427608976340052571e-01,9.976131916046142578e-01,-7.053472101688385010e-03,-5.407475680112838745e-02,-4.235637933015823364e-02,0.000000000000000000e+00,0.000000000000000000e+00,0.000000000000000000e+00,-1.100000000000000089e+00,2.000000000000000111e-01,-5.000000000000000000e-01,0.000000000000000000e+00,1.100000000000000089e+00,2.000000000000000111e-01,5.000000000000000000e-01,1.809638589620590210e-01,8.388514816761016846e-02,2.087422609329223633e-01,1.290235519409179688e-01,-2.585237324237823486e-01,-1.042399108409881592e-01,1.902303844690322876e-01,-6.852692365646362305e-02,-3.724887967109680176e-01,1.274388730525970459e-01,-1.727927327156066895e-01,7.104516774415969849e-02
1.009833349740471391e-02,1.345126098762689654e-02,5.427280973861313695e-01,9.976153969764709473e-01,-7.107350043952465057e-03,-5.389025434851646423e-02,-4.253046959638595581e-02,0.000000000000000000e+00,0.000000000000000000e+00,0.000000000000000000e+00,-1.100000000000000089e+00,2.000000000000000111e-01,-5.000000000000000000e-01,0.000000000000000000e+00,1.100000000000000089e+00,2.000000000000000111e-01,5.000000000000000000e-01,1.814217567443847656e-01,8.420307189226150513e-02,2.098776251077651978e-01,1.292816847562789917e-01,-2.593852877616882324e-01,-1.039969399571418762e-01,1.904907375574111938e-01,-6.817293167114257812e-02,-3.717045783996582031e-01,1.273437887430191040e-01,-1.733723431825637817e-01,7.070414721965789795e-02
1.050754772910772981e-02,1.335904661986995687e-02,5.426965427172906198e-01,9.976057410240173340e-01,-7.207721937447786331e-03,-5.383846908807754517e-02,-4.280531033873558044e-02,0.000000000000000000e+00,0.000000000000000000e+00,0.000000000000000000e+00,-1.100000000000000089e+00,2.000000000000000111e-01,-5.000000000000000000e-01,0.000000000000000000e+00,1.100000000000000089e+00,2.000000000000000111e-01,5.000000000000000000e-01,1.822047233581542969e-01,8.468610048294067383e-02,2.108809053897857666e-01,1.294776350259780884e-01,-2.602930963039398193e-01,-1.038745418190956116e-01,1.909795403480529785e-01,-6.762422621250152588e-02,-3.707937896251678467e-01,1.271522492170333862e-01,-1.738991439342498779e-01,7.032509148120880127e-02
1.087067813153914930e-02,1.329630836094212142e-02,5.426509545246760435e-01,9.975898861885070801e-01,-7.313295733183622360e-03,-5.386869609355926514e-02,-4.311775043606758118e-02,0.000000000000000000e+00,0.000000000000000000e+00,0.000000000000000000e+00,-1.100000000000000089e+00,2.000000000000000111e-01,-5.000000000000000000e-01,0.000000000000000000e+00,1.100000000000000089e+00,2.000000000000000111e-01,5.000000000000000000e-01,1.833369284868240356e-01,8.521144092082977295e-02,2.118171900510787964e-01,1.295622140169143677e-01,-2.609435021877288818e-01,-1.038378328084945679e-01,1.917665898799896240e-01,-6.705875694751739502e-02,-3.697536885738372803e-01,1.269222348928451538e-01,-1.744700074195861816e-01,7.014568150043487549e-02
1.123960826134384403e-02,1.328522270754675834e-02,5.426166595819622573e-01,9.975735545158386230e-01,-7.397614885121583939e-03,-5.391251295804977417e-02,-4.342485591769218445e-02,0.000000000000000000e+00,0.000000000000000000e+00,0.000000000000000000e+00,-1.100000000000000089e+00,2.000000000000000111e-01,-5.000000000000000000e-01,0.000000000000000000e+00,1.100000000000000089e+00,2.000000000000000111e-01,5.000000000000000000e-01,1.846037358045578003e-01,8.568079024553298950e-02,2.128371447324752808e-01,1.295854300260543823e-01,-2.612203955650329590e-01,-1.038354560732841492e-01,1.926692575216293335e-01,-6.656349450349807739e-02,-3.686307668685913086e-01,1.267993301153182983e-01,-1.749987751245498657e-01,7.019501924514770508e-02
1.155879567346695599e-02,1.328291449390088357e-02,5.426032073284038360e-01,9.975531101226806641e-01,-7.488602772355079651e-03,-5.396472662687301636e-02,-4.381316155195236206e-02,0.000000000000000000e+00,0.000000000000000000e+00,0.000000000000000000e+00,-1.100000000000000089e+00,2.000000000000000111e-01,-5.000000000000000000e-01,0.000000000000000000e+00,1.100000000000000089e+00,2.000000000000000111e-01,5.000000000000000000e-01,1.859580874443054199e-01,8.615454286336898804e-02,2.142580151557922363e-01,1.294795870780944824e-01,-2.615756392478942871e-01,-1.040790304541587830e-01,1.934732645750045776e-01,-6.613675504922866821e-02,-3.674867749214172363e-01,1.269510984420776367e-01,-1.755683124065399170e-01,7.021462172269821167e-02
1.184797760567185727e-02,1.330667131900260466e-02,5.425892153239310067e-01,9.975254535675048828e-01,-7.556955330073833466e-03,-5.405794084072113037e-02,-4.431176930665969849e-02,0.000000000000000000e+00,0.000000000000000000e+00,0.000000000000000000e+00,-1.100000000000000089e+00,2.000000000000000111e-01,-5.000000000000000000e-01,0.000000000000000000e+00,1.100000000000000089e+00,2.000000000000000111e-01,5.000000000000000000e-01,1.872819364070892334e-01,8.662489056587219238e-02,2.160143554210662842e-01,1.293310225009918213e-01,-2.620438933372497559e-01,-1.042839884757995605e-01,1.941556036472320557e-01,-6.587493419647216797e-02,-3.662977814674377441e-01,1.272235810756683350e-01,-1.760828197002410889e-01,7.019704580307006836e-02
1.213058391856405849e-02,1.332369682741248000e-02,5.425699918875188654e-01,9.974920749664306641e-01,-7.612247485667467117e-03,-5.420542508363723755e-02,-4.486992582678794861e-02,0.000000000000000000e+00,0.000000000000000000e+00,0.000000000000000000e+00,-1.100000000000000089e+00,2.000000000000000111e-01,-5.000000000000000000e-01,0.000000000000000000e+00,1.100000000000000089e+00,2.000000000000000111e-01,5.000000000000000000e-01,1.885766834020614624e-01,8.706713467836380005e-02,2.178182005882263184e-01,1.291534155607223511e-01,-2.623023390769958496e-01,-1.043238043785095215e-01,1.947268247604370117e-01,-6.569647789001464844e-02,-3.651555776596069336e-01,1.274945735931396484e-01,-1.764177381992340088e-01,7.018374651670455933e-02
1.235571584142180178e-02,1.333735537999826935e-02,5.425567472304659855e-01,9.974499344825744629e-01,-7.680901326239109039e-03,-5.449559539556503296e-02,-4.543929919600486755e-02,0.000000000000000000e+00,0.000000000000000000e+00,0.000000000000000000e+00,-1.100000000000000089e+00,2.000000000000000111e-01,-5.000000000000000000e-01,0.000000000000000000e+00,1.100000000000000089e+00,2.000000000000000111e-01,5.000000000000000000e-01,1.898952722549438477e-01,8.749293535947799683e-02,2.192414551973342896e-01,1.289513409137725830e-01,-2.625282704830169678e-01,-1.042500883340835571e-01,1.953860968351364136e-01,-6.554178148508071899e-02,-3.641589581966400146e-01,1.276961117982864380e-01,-1.763845980167388916e-01,7.008080184459686279e-02
1.250459497284162926e-02,1.334776245231617843e-02,5.425487755246535260e-01,9.974061846733093262e-01,-7.746064569801092148e-03,-5.481515824794769287e-02,-4.600276052951812744e-02,0.000000000000000000e+00,0.000000000000000000e+00,0.000000000000000000e+00,-1.100000000000000089e+00,2.000000000000000111e-01,-5.000000000000000000e-01,0.000000000000000000e+00,1.100000000000000089e+00,2.000000000000000111e-01,5.000000000000000000e-01,1.908768564462661743e-01,8.774767071008682251e-02,2.200862616300582886e-01,1.288655400276184082e-01,-2.627839446067810059e-01,-1.038462817668914795e-01,1.957798600196838379e-01,-6.539894640445709229e-02,-3.631083071231842041e-01,1.278743445873260498e-01,-1.759863495826721191e-01,6.960851699113845825e-02
1.254493356882265334e-02,1.334349504664935314e-02,5.425375237940537332e-01,9.973712563514709473e-01,-7.811118382960557938e-03,-5.512538924813270569e-02,-4.637535288929939270e-02,0.000000000000000000e+00,0.000000000000000000e+00,0.000000000000000000e+00,-1.100000000000000089e+00,2.000000000000000111e-01,-5.000000000000000000e-01,0.000000000000000000e+00,1.100000000000000089e+00,2.000000000000000111e-01,5.000000000000000000e-01,1.915313452482223511e-01,8.799778670072555542e-02,2.205546647310256958e-01,1.288891583681106567e-01,-2.632582783699035645e-01,-1.035090833902359009e-01,1.959919482469558716e-01,-6.513787806034088135e-02,-3.622096180915832520e-01,1.280351281166076660e-01,-1.754610836505889893e-01,6.889340281486511230e-02
1.247326995763513822e-02,1.331249310350459542e-02,5.425194628980725131e-01,9.973399043083190918e-01,-7.888017222285270691e-03,-5.538735538721084595e-02,-4.672460258007049561e-02,0.000000000000000000e+00,0.000000000000000000e+00,0.000000000000000000e+00,-1.100000000000000089e+00,2.000000000000000111e-01,-5.000000000000000000e-01,0.000000000000000000e+00,1.100000000000000089e+00,2.000000000000000111e-01,5.000000000000000000e-01,1.920912265777587891e-01,8.832281827926635742e-02,2.211583107709884644e-01,1.288910359144210815e-01,-2.636584043502807617e-01,-1.034920066595077515e-01,1.959098428487777710e-01,-6.469381600618362427e-02,-3.609575629234313965e-01,1.282145828008651733e-01,-1.749588698148727417e-01,6.832017004489898682e-02
1.228144040669907136e-02,1.324061021850811252e-02,5.425087093990860199e-01,9.973241686820983887e-01,-7.929439656436443329e-03,-5.542981997132301331e-02,-4.700119793415069580e-02,0.000000000000000000e+00,0.000000000000000000e+00,0.000000000000000000e+00,-1.100000000000000089e+00,2.000000000000000111e-01,-5.000000000000000000e-01,0.000000000000000000e+00,1.100000000000000089e+00,2.000000000000000111e-01,5.000000000000000000e-01,1.920026838779449463e-01,8.881364017724990845e-02,2.219921350479125977e-01,1.288589686155319214e-01,-2.636375427246093750e-01,-1.036434993147850037e-01,1.952956616878509521e-01,-6.417389214038848877e-02,-3.597710132598876953e-01,1.284352540969848633e-01,-1.746140718460083008e-01,6.795281171798706055e-02
1.194307496989936018e-02,1.313445963783923393e-02,5.425169717400062375e-01,9.973194599151611328e-01,-7.946549914777278900e-03,-5.534071102738380432e-02,-4.720316454768180847e-02,0.000000000000000000e+00,0.000000000000000000e+00,0.000000000000000000e+00,-1.100000000000000089e+00,2.000000000000000111e-01,-5.000000000000000000e-01,0.000000000000000000e+00,1.100000000000000089e+00,2.000000000000000111e-01,5.000000000000000000e-01,1.913530826568603516e-01,8.935732394456863403e-02,2.226741760969161987e-01,1.290337592363357544e-01,-2.633518576622009277e-01,-1.037232205271720886e-01,1.945153921842575073e-01,-6.358978897333145142e-02,-3.589508235454559326e-01,1.285413354635238647e-01,-1.743258982896804810e-01,6.762111186981201172e-02
1.147224479787653691e-02,1.303200946488144822e-02,5.425392676047002816e-01,9.973377585411071777e-01,-7.929220795631408691e-03,-5.509747192263603210e-02,-4.710391908884048462e-02,0.000000000000000000e+00,0.000000000000000000e+00,0.000000000000000000e+00,-1.100000000000000089e+00,2.000000000000000111e-01,-5.000000000000000000e-01,0.000000000000000000e+00,1.100000000000000089e+00,2.000000000000000111e-01,5.000000000000000000e-01,1.899342685937881470e-01,8.994406461715698242e-02,2.229989171028137207e-01,1.292935013771057129e-01,-2.625878155231475830e-01,-1.038992106914520264e-01,1.935806274414062500e-01,-6.301534920930862427e-02,-3.587505817413330078e-01,1.282666474580764771e-01,-1.739730685949325562e-01,6.710733473300933838e-02
1.091447450681542509e-02,1.293711580472499748e-02,5.425728151999941185e-01,9.973742365837097168e-01,-7.903770543634891510e-03,-5.470822006464004517e-02,-4.678824916481971741e-02,0.000000000000000000e+00,0.000000000000000000e+00,0.000000000000000000e+00,-1.100000000000000089e+00,2.000000000000000111e-01,-5.000000000000000000e-01,0.000000000000000000e+00,1.100000000000000089e+00,2.000000000000000111e-01,5.000000000000000000e-01,1.877032965421676636e-01,9.042257070541381836e-02,2.226904481649398804e-01,1.295865029096603394e-01,-2.615996897220611572e-01,-1.036863252520561218e-01,1.923140883445739746e-01,-6.244840100407600403e-02,-3.589841723442077637e-01,1.277584135532379150e-01,-1.733073741197586060e-01,6.649804115295410156e-02
1.034453387061754805e-02,1.283197466206426399e-02,5.426228459578270602e-01,9.974263906478881836e-01,-7.856151089072227478e-03,-5.414754152297973633e-02,-4.633422195911407471e-02,0.000000000000000000e+00,0.000000000000000000e+00,0.000000000000000000e+00,-1.100000000000000089e+00,2.000000000000000111e-01,-5.000000000000000000e-01,0.000000000000000000e+00,1.100000000000000089e+00,2.000000000000000111e-01,5.000000000000000000e-01,1.848767846822738647e-01,9.076786041259765625e-02,2.219660878181457520e-01,1.298031806945800781e-01,-2.606466114521026611e-01,-1.035335287451744080e-01,1.905167102813720703e-01,-6.196944788098335266e-02,-3.595331907272338867e-01,1.272273361682891846e-01,-1.724791526794433594e-01,6.584613025188446045e-02
9.764297745223486993e-03,1.271073570787774852e-02,5.426998227420780641e-01,9.974995851516723633e-01,-7.788422983139753342e-03,-5.345023423433303833e-02,-4.557497426867485046e-02,0.000000000000000000e+00,0.000000000000000000e+00,0.000000000000000000e+00,-1.100000000000000089e+00,2.000000000000000111e-01,-5.000000000000000000e-01,0.000000000000000000e+00,1.100000000000000089e+00,2.000000000000000111e-01,5.000000000000000000e-01,1.815605014562606812e-01,9.080617874860763550e-02,2.205352932214736938e-01,1.297818720340728760e-01,-2.596389949321746826e-01,-1.035524308681488037e-01,1.882607489824295044e-01,-6.159820780158042908e-02,-3.606064915657043457e-01,1.266027688980102539e-01,-1.714171171188354492e-01,6.516133248805999756e-02
9.186316636870755711e-03,1.261693322685349637e-02,5.427863074462823123e-01,9.975877404212951660e-01,-7.659969385713338852e-03,-5.261380597949028015e-02,-4.463110119104385376e-02,0.000000000000000000e+00,0.000000000000000000e+00,0.000000000000000000e+00,-1.100000000000000089e+00,2.000000000000000111e-01,-5.000000000000000000e-01,0.000000000000000000e+00,1.100000000000000089e+00,2.000000000000000111e-01,5.000000000000000000e-01,1.777861416339874268e-01,9.050843119621276855e-02,2.185076177120208740e-01,1.295130699872970581e-01,-2.583905160427093506e-01,-1.034477725625038147e-01,1.855820268392562866e-01,-6.155421212315559387e-02,-3.620624244213104248e-01,1.259865462779998779e-01,-1.704164892435073853e-01,6.463760137557983398e-02
8.580182847411682925e-03,1.257714476161213117e-02,5.428734149400031850e-01,9.976815581321716309e-01,-7.481486070901155472e-03,-5.176853388547897339e-02,-4.353733360767364502e-02,0.000000000000000000e+00,0.000000000000000000e+00,0.000000000000000000e+00,-1.100000000000000089e+00,2.000000000000000111e-01,-5.000000000000000000e-01,0.000000000000000000e+00,1.100000000000000089e+00,2.000000000000000111e-01,5.000000000000000000e-01,1.739240884780883789e-01,8.994932472705841064e-02,2.159245908260345459e-01,1.291756778955459595e-01,-2.567793428897857666e-01,-1.031608134508132935e-01,1.830752044916152954e-01,-6.177861243486404419e-02,-3.639703094959259033e-01,1.253940016031265259e-01,-1.694646626710891724e-01,6.426313519477844238e-02
7.978238614929859113e-03,1.256931318344096764e-02,5.429749711505090781e-01,9.977743029594421387e-01,-7.292870897799730301e-03,-5.097009241580963135e-02,-4.236942529678344727e-02,0.000000000000000000e+00,0.000000000000000000e+00,0.000000000000000000e+00,-1.100000000000000089e+00,2.000000000000000111e-01,-5.000000000000000000e-01,0.000000000000000000e+00,1.100000000000000089e+00,2.000000000000000111e-01,5.000000000000000000e-01,1.702778339385986328e-01,8.933115005493164062e-02,2.132984995841979980e-01,1.289054453372955322e-01,-2.552256286144256592e-01,-1.027079299092292786e-01,1.806786358356475830e-01,-6.203741580247879028e-02,-3.659965991973876953e-01,1.249934360384941101e-01,-1.686086803674697876e-01,6.390728056430816650e-02
7.452318817729864167e-03,1.258147185127429617e-02,5.430816757543520668e-01,9.978569746017456055e-01,-7.112067658454179764e-03,-5.029750615358352661e-02,-4.124335944652557373e-02,0.000000000000000000e+00,0.000000000000000000e+00,0.000000000000000000e+00,-1.100000000000000089e+00,2.000000000000000111e-01,-5.000000000000000000e-01,0.000000000000000000e+00,1.100000000000000089e+00,2.000000000000000111e-01,5.000000000000000000e-01,1.672980785369873047e-01,8.877274394035339355e-02,2.112960070371627808e-01,1.288045197725296021e-01,-2.539736926555633545e-01,-1.024264171719551086e-01,1.785238236188888550e-01,-6.240796670317649841e-02,-3.678242862224578857e-01,1.249276399612426758e-01,-1.680185943841934204e-01,6.363655626773834229e-02
7.017680501490078729e-03,1.260177478951524273e-02,5.431627214301114615e-01,9.979279637336730957e-01,-6.963797844946384430e-03,-4.982973262667655945e-02,-4.010214284062385559e-02,0.000000000000000000e+00,0.000000000000000000e+00,0.000000000000000000e+00,-1.100000000000000089e+00,2.000000000000000111e-01,-5.000000000000000000e-01,0.000000000000000000e+00,1.100000000000000089e+00,2.000000000000000111e-01,5.000000000000000000e-01,1.650509536266326904e-01,8.822468668222427368e-02,2.092943042516708374e-01,1.288130432367324829e-01,-2.531248331069946289e-01,-1.020482107996940613e-01,1.768681704998016357e-01,-6.287323683500289917e-02,-3.696810305118560791e-01,1.251961141824722290e-01,-1.677987128496170044e-01,6.331937015056610107e-02
6.681615493467284519e-03,1.266187008543203339e-02,5.432068149278862501e-01,9.979861974716186523e-01,-6.827723234891891479e-03,-4.956188797950744629e-02,-3.899285569787025452e-02,0.000000000000000000e+00,0.000000000000000000e+00,0.000000000000000000e+00,-1.100000000000000089e+00,2.000000000000000111e-01,-5.000000000000000000e-01,0.000000000000000000e+00,1.100000000000000089e+00,2.000000000000000111e-01,5.000000000000000000e-01,1.632849574089050293e-01,8.764132857322692871e-02,2.073014378547668457e-01,1.290093660354614258e-01,-2.526211440563201904e-01,-1.015434190630912781e-01,1.758627295494079590e-01,-6.349905580282211304e-02,-3.718510568141937256e-01,1.256863772869110107e-01,-1.680423319339752197e-01,6.317693740129470825e-02
6.461878484797034007e-03,1.280990845100446127e-02,5.432135410546654608e-01,9.980293512344360352e-01,-6.726619321852922440e-03,-4.948535934090614319e-02,-3.799172118306159973e-02,0.000000000000000000e+00,0.000000000000000000e+00,0.000000000000000000e+00,-1.100000000000000089e+00,2.000000000000000111e-01,-5.000000000000000000e-01,0.000000000000000000e+00,1.100000000000000089e+00,2.000000000000000111e-01,5.000000000000000000e-01,1.620714813470840454e-01,8.700074255466461182e-02,2.053230255842208862e-01,1.293373703956604004e-01,-2.524825632572174072e-01,-1.008447185158729553e-01,1.755024194717407227e-01,-6.413488835096359253e-02,-3.739469945430755615e-01,1.262865960597991943e-01,-1.683667898178100586e-01,6.327949464321136475e-02
6.355809645252208026e-03,1.302629926350118254e-02,5.432127106686432949e-01,9.980607032775878906e-01,-6.677458062767982483e-03,-4.954568296670913696e-02,-3.708668053150177002e-02,0.000000000000000000e+00,0.000000000000000000e+00,0.000000000000000000e+00,-1.100000000000000089e+00,2.000000000000000111e-01,-5.000000000000000000e-01,0.000000000000000000e+00,1.100000000000000089e+00,2.000000000000000111e-01,5.000000000000000000e-01,1.612857431173324585e-01,8.640322834253311157e-02,2.034351825714111328e-01,1.294855773448944092e-01,-2.525938749313354492e-01,-1.003406122326850891e-01,1.755140721797943115e-01,-6.457980722188949585e-02,-3.756573498249053955e-01,1.267162412405014038e-01,-1.685931384563446045e-01,6.351653486490249634e-02
6.299911691181625008e-03,1.324281982381386030e-02,5.432359614772628298e-01,9.980810880661010742e-01,-6.658891215920448303e-03,-4.960883781313896179e-02,-3.645269945263862610e-02,0.000000000000000000e+00,0.000000000000000000e+00,0.000000000000000000e+00,-1.100000000000000089e+00,2.000000000000000111e-01,-5.000000000000000000e-01,0.000000000000000000e+00,1.100000000000000089e+00,2.000000000000000111e-01,5.000000000000000000e-01,1.606450676918029785e-01,8.580364286899566650e-02,2.018919587135314941e-01,1.294975727796554565e-01,-2.527107894420623779e-01,-9.982701390981674194e-02,1.754278242588043213e-01,-6.490202248096466064e-02,-3.765552341938018799e-01,1.270121634006500244e-01,-1.686576306819915771e-01,6.364210695028305054e-02
6.243992977460488709e-03,1.344291820306086314e-02,5.432837917121371429e-01,9.980983734130859375e-01,-6.639058701694011688e-03,-4.960741475224494934e-02,-3.598098084330558777e-02,0.000000000000000000e+00,0.000000000000000000e+00,0.000000000000000000e+00,-1.100000000000000089e+00,2.000000000000000111e-01,-5.000000000000000000e-01,0.000000000000000000e+00,1.100000000000000089e+00,2.000000000000000111e-01,5.000000000000000000e-01,1.598548591136932373e-01,8.513227850198745728e-02,2.006991505622863770e-01,1.294385492801666260e-01,-2.527239620685577393e-01,-9.933285415172576904e-02,1.750176995992660522e-01,-6.535515934228897095e-02,-3.770224452018737793e-01,1.271836757659912109e-01,-1.683230102062225342e-01,6.375267356634140015e-02
6.189404178852911560e-03,1.356620587526133868e-02,5.433313313119038090e-01,9.981095194816589355e-01,-6.635629106312990189e-03,-4.958406835794448853e-02,-3.570352867245674133e-02,0.000000000000000000e+00,0.000000000000000000e+00,0.000000000000000000e+00,-1.100000000000000089e+00,2.000000000000000111e-01,-5.000000000000000000e-01,0.000000000000000000e+00,1.100000000000000089e+00,2.000000000000000111e-01,5.000000000000000000e-01,1.591750383377075195e-01,8.452490717172622681e-02,1.999880671501159668e-01,1.294219344854354858e-01,-2.526050806045532227e-01,-9.891339391469955444e-02,1.744958460330963135e-01,-6.591019034385681152e-02,-3.773715198040008545e-01,1.274220943450927734e-01,-1.679177135229110718e-01,6.381244957447052002e-02
6.131454911812048332e-03,1.365746919152731331e-02,5.433553294679431822e-01,9.981145858764648438e-01,-6.653225980699062347e-03,-4.949377104640007019e-02,-3.568438440561294556e-02,0.000000000000000000e+00,0.000000000000000000e+00,0.000000000000000000e+00,-1.100000000000000089e+00,2.000000000000000111e-01,-5.000000000000000000e-01,0.000000000000000000e+00,1.100000000000000089e+00,2.000000000000000111e-01,5.000000000000000000e-01,1.587093621492385864e-01,8.408586680889129639e-02,1.997297108173370361e-01,1.293025016784667969e-01,-2.524484992027282715e-01,-9.866036474704742432e-02,1.738711446523666382e-01,-6.646753847599029541e-02,-3.775616586208343506e-01,1.277690827846527100e-01,-1.676937043666839600e-01,6.373404711484909058e-02
6.108691954980557601e-03,1.376338882108378917e-02,5.433601872261726307e-01,9.981136918067932129e-01,-6.664419081062078476e-03,-4.935133084654808044e-02,-3.590538725256919861e-02,0.000000000000000000e+00,0.000000000000000000e+00,0.000000000000000000e+00,-1.100000000000000089e+00,2.000000000000000111e-01,-5.000000000000000000e-01,0.000000000000000000e+00,1.100000000000000089e+00,2.000000000000000111e-01,5.000000000000000000e-01,1.585277020931243896e-01,8.373993635177612305e-02,2.000292390584945679e-01,1.290998011827468872e-01,-2.522894144058227539e-01,-9.824873507022857666e-02,1.731365025043487549e-01,-6.697729974985122681e-02,-3.775091171264648438e-01,1.280624419450759888e-01,-1.676810085773468018e-01,6.377848982810974121e-02
6.142803953273805011e-03,1.387314379607995120e-02,5.433512605764347914e-01,9.981028437614440918e-01,-6.705409381538629532e-03,-4.925911501049995422e-02,-3.632308542728424072e-02,0.000000000000000000e+00,0.000000000000000000e+00,0.000000000000000000e+00,-1.100000000000000089e+00,2.000000000000000111e-01,-5.000000000000000000e-01,0.000000000000000000e+00,1.100000000000000089e+00,2.000000000000000111e-01,5.000000000000000000e-01,1.585943251848220825e-01,8.357897400856018066e-02,2.007876932621002197e-01,1.288543641567230225e-01,-2.524156272411346436e-01,-9.779914468526840210e-02,1.726189553737640381e-01,-6.729771941900253296e-02,-3.770932555198669434e-01,1.281645745038986206e-01,-1.678728163242340088e-01,6.374008953571319580e-02
6.242860279027184420e-03,1.399293865707486491e-02,5.433527552712745790e-01,9.980860352516174316e-01,-6.759236101061105728e-03,-4.912196844816207886e-02,-3.695429116487503052e-02,0.000000000000000000e+00,0.000000000000000000e+00,0.000000000000000000e+00,-1.100000000000000089e+00,2.000000000000000111e-01,-5.000000000000000000e-01,0.000000000000000000e+00,1.100000000000000089e+00,2.000000000000000111e-01,5.000000000000000000e-01,1.585876643657684326e-01,8.353715389966964722e-02,2.019751518964767456e-01,1.286527067422866821e-01,-2.525359690189361572e-01,-9.738908708095550537e-02,1.720254421234130859e-01,-6.748021394014358521e-02,-3.761819005012512207e-01,1.283638924360275269e-01,-1.681872755289077759e-01,6.358129531145095825e-02
6.373572121256717432e-03,1.409770482854748319e-02,5.433548727556311020e-01,9.980634450912475586e-01,-6.826620548963546753e-03,-4.895006492733955383e-02,-3.777193650603294373e-02,0.000000000000000000e+00,0.000000000000000000e+00,0.000000000000000000e+00,-1.100000000000000089e+00,2.000000000000000111e-01,-5.000000000000000000e-01,0.000000000000000000e+00,1.100000000000000089e+00,2.000000000000000111e-01,5.000000000000000000e-01,1.586040556430816650e-01,8.357586711645126343e-02,2.034807354211807251e-01,1.285287141799926758e-01,-2.525390982627868652e-01,-9.698744118213653564e-02,1.713360100984573364e-01,-6.750720739364624023e-02,-3.749820888042449951e-01,1.285890489816665649e-01,-1.683782637119293213e-01,6.337629258632659912e-02
6.489060652240019426e-03,1.415181485771417960e-02,5.433481466288518913e-01,9.980356097221374512e-01,-6.908621639013290405e-03,-4.879181459546089172e-02,-3.868592903017997742e-02,0.000000000000000000e+00,0.000000000000000000e+00,0.000000000000000000e+00,-1.100000000000000089e+00,2.000000000000000111e-01,-5.000000000000000000e-01,0.000000000000000000e+00,1.100000000000000089e+00,2.000000000000000111e-01,5.000000000000000000e-01,1.589081585407257080e-01,8.377656340599060059e-02,2.054063081741333008e-01,1.284219920635223389e-01,-2.526969611644744873e-01,-9.679805487394332886e-02,1.707638055086135864e-01,-6.748596578836441040e-02,-3.736270666122436523e-01,1.289708912372589111e-01,-1.684227436780929565e-01,6.304651498794555664e-02
6.571109278616730706e-03,1.417002755864005953e-02,5.433459045865921544e-01,9.980062842369079590e-01,-6.993030663579702377e-03,-4.860882833600044250e-02,-3.964590281248092651e-02,0.000000000000000000e+00,0.000000000000000000e+00,0.000000000000000000e+00,-1.100000000000000089e+00,2.000000000000000111e-01,-5.000000000000000000e-01,0.000000000000000000e+00,1.100000000000000089e+00,2.000000000000000111e-01,5.000000000000000000e-01,1.593308597803115845e-01,8.411142975091934204e-02,2.074598222970962524e-01,1.283727586269378662e-01,-2.528418004512786865e-01,-9.669909626245498657e-02,1.700255125761032104e-01,-6.747984141111373901e-02,-3.724286258220672607e-01,1.294900029897689819e-01,-1.681653261184692383e-01,6.278017908334732056e-02
6.653696358429663296e-03,1.419025264819143324e-02,5.433516342501447660e-01,9.979791641235351562e-01,-7.061096373945474625e-03,-4.836920648813247681e-02,-4.059724882245063782e-02,0.000000000000000000e+00,0.000000000000000000e+00,0.000000000000000000e+00,-1.100000000000000089e+00,2.000000000000000111e-01,-5.000000000000000000e-01,0.000000000000000000e+00,1.100000000000000089e+00,2.000000000000000111e-01,5.000000000000000000e-01,1.596883982419967651e-01,8.446166664361953735e-02,2.094935327768325806e-01,1.283827573060989380e-01,-2.532246410846710205e-01,-9.638565033674240112e-02,1.690166741609573364e-01,-6.741103529930114746e-02,-3.712430596351623535e-01,1.299847513437271118e-01,-1.676718890666961670e-01,6.250394135713577271e-02
6.728172902267124875e-03,1.419196791431838293e-02,5.433765873501096300e-01,9.979583024978637695e-01,-7.112199440598487854e-03,-4.803120344877243042e-02,-4.149332270026206970e-02,0.000000000000000000e+00,0.000000000000000000e+00,0.000000000000000000e+00,-1.100000000000000089e+00,2.000000000000000111e-01,-5.000000000000000000e-01,0.000000000000000000e+00,1.100000000000000089e+00,2.000000000000000111e-01,5.000000000000000000e-01,1.598726958036422729e-01,8.487853407859802246e-02,2.116116881370544434e-01,1.282838135957717896e-01,-2.537999153137207031e-01,-9.597442299127578735e-02,1.675050109624862671e-01,-6.734984368085861206e-02,-3.700988590717315674e-01,1.305859237909317017e-01,-1.673627197742462158e-01,6.215359643101692200e-02
6.807625274846537330e-03,1.418905896828462875e-02,5.434002533517401368e-01,9.979386925697326660e-01,-7.141061592847108841e-03,-4.769136011600494385e-02,-4.234361648559570312e-02,0.000000000000000000e+00,0.000000000000000000e+00,0.000000000000000000e+00,-1.100000000000000089e+00,2.000000000000000111e-01,-5.000000000000000000e-01,0.000000000000000000e+00,1.100000000000000089e+00,2.000000000000000111e-01,5.000000000000000000e-01,1.600133329629898071e-01,8.531697839498519897e-02,2.138411104679107666e-01,1.280308812856674194e-01,-2.540597617626190186e-01,-9.577339887619018555e-02,1.660611182451248169e-01,-6.729072332382202148e-02,-3.688933849334716797e-01,1.310470700263977051e-01,-1.672687828540802002e-01,6.193519756197929382e-02
6.933922447638134375e-03,1.421084232910564508e-02,5.434208469250888518e-01,9.979272484779357910e-01,-7.144626230001449585e-03,-4.733563214540481567e-02,-4.300614073872566223e-02,0.000000000000000000e+00,0.000000000000000000e+00,0.000000000000000000e+00,-1.100000000000000089e+00,2.000000000000000111e-01,-5.000000000000000000e-01,0.000000000000000000e+00,1.100000000000000089e+00,2.000000000000000111e-01,5.000000000000000000e-01,1.599407792091369629e-01,8.572192490100860596e-02,2.156888544559478760e-01,1.276360154151916504e-01,-2.541029453277587891e-01,-9.573155641555786133e-02,1.649077236652374268e-01,-6.728432327508926392e-02,-3.680151700973510742e-01,1.313674598932266235e-01,-1.673176586627960205e-01,6.179652363061904907e-02
7.125768217051194932e-03,1.423980204162724091e-02,5.434396551684900212e-01,9.979306459426879883e-01,-7.101763039827346802e-03,-4.693587124347686768e-02,-4.337005317211151123e-02,0.000000000000000000e+00,0.000000000000000000e+00,0.000000000000000000e+00,-1.100000000000000089e+00,2.000000000000000111e-01,-5.000000000000000000e-01,0.000000000000000000e+00,1.100000000000000089e+00,2.000000000000000111e-01,5.000000000000000000e-01,1.595259010791778564e-01,8.592109382152557373e-02,2.166790664196014404e-01,1.271723210811614990e-01,-2.540114820003509521e-01,-9.610797464847564697e-02,1.642507463693618774e-01,-6.730398535728454590e-02,-3.674613237380981445e-01,1.313813477754592896e-01,-1.674433350563049316e-01,6.173684448003768921e-02
7.367023900997909415e-03,1.422279080547712155e-02,5.434469210461835287e-01,9.979463815689086914e-01,-7.028194144368171692e-03,-4.652226343750953674e-02,-4.346619546413421631e-02,0.000000000000000000e+00,0.000000000000000000e+00,0.000000000000000000e+00,-1.100000000000000089e+00,2.000000000000000111e-01,-5.000000000000000000e-01,0.000000000000000000e+00,1.100000000000000089e+00,2.000000000000000111e-01,5.000000000000000000e-01,1.589838415384292603e-01,8.593994379043579102e-02,2.167268097400665283e-01,1.268652826547622681e-01,-2.537609636783599854e-01,-9.627193957567214966e-02,1.639080047607421875e-01,-6.723842024803161621e-02,-3.671858608722686768e-01,1.314463019371032715e-01,-1.676071584224700928e-01,6.174096837639808655e-02
7.617510493310883542e-03,1.417798369471454101e-02,5.434346728523572478e-01,9.979733824729919434e-01,-6.900231819599866867e-03,-4.609960690140724182e-02,-4.331675544381141663e-02,0.000000000000000000e+00,0.000000000000000000e+00,0.000000000000000000e+00,-1.100000000000000089e+00,2.000000000000000111e-01,-5.000000000000000000e-01,0.000000000000000000e+00,1.100000000000000089e+00,2.000000000000000111e-01,5.000000000000000000e-01,1.583530604839324951e-01,8.573517948389053345e-02,2.161142975091934204e-01,1.268324255943298340e-01,-2.533875703811645508e-01,-9.612310677766799927e-02,1.636862158775329590e-01,-6.724526733160018921e-02,-3.672872185707092285e-01,1.314783990383148193e-01,-1.677688658237457275e-01,6.179649382829666138e-02
7.837113861730698669e-03,1.410968703935111014e-02,5.434110483700277383e-01,9.980099797248840332e-01,-6.765538360923528671e-03,-4.566907137632369995e-02,-4.294942691922187805e-02,0.000000000000000000e+00,0.000000000000000000e+00,0.000000000000000000e+00,-1.100000000000000089e+00,2.000000000000000111e-01,-5.000000000000000000e-01,0.000000000000000000e+00,1.100000000000000089e+00,2.000000000000000111e-01,5.000000000000000000e-01,1.576146632432937622e-01,8.540555089712142944e-02,2.149157524108886719e-01,1.270218193531036377e-01,-2.531034052371978760e-01,-9.582410007715225220e-02,1.634191423654556274e-01,-6.728608161211013794e-02,-3.678894340991973877e-01,1.315277069807052612e-01,-1.678302139043807983e-01,6.177696213126182556e-02
8.015537868322089241e-03,1.398562347521121151e-02,5.434129167385776116e-01,9.980551004409790039e-01,-6.614276673644781113e-03,-4.522632807493209839e-02,-4.238997027277946472e-02,0.000000000000000000e+00,0.000000000000000000e+00,0.000000000000000000e+00,-1.100000000000000089e+00,2.000000000000000111e-01,-5.000000000000000000e-01,0.000000000000000000e+00,1.100000000000000089e+00,2.000000000000000111e-01,5.000000000000000000e-01,1.566704064607620239e-01,8.506455272436141968e-02,2.135778814554214478e-01,1.272605806589126587e-01,-2.526775896549224854e-01,-9.569324553012847900e-02,1.628434658050537109e-01,-6.742969155311584473e-02,-3.686973750591278076e-01,1.315701156854629517e-01,-1.678671687841415405e-01,6.203414499759674072e-02
8.175127033210086505e-03,1.380519226990696569e-02,5.434327214452052690e-01,9.981046915054321289e-01,-6.477476097643375397e-03,-4.483030736446380615e-02,-4.165681451559066772e-02,0.000000000000000000e+00,0.000000000000000000e+00,0.000000000000000000e+00,-1.100000000000000089e+00,2.000000000000000111e-01,-5.000000000000000000e-01,0.000000000000000000e+00,1.100000000000000089e+00,2.000000000000000111e-01,5.000000000000000000e-01,1.557057946920394897e-01,8.483678847551345825e-02,2.121312022209167480e-01,1.275096386671066284e-01,-2.519761919975280762e-01,-9.589357674121856689e-02,1.623555123805999756e-01,-6.758947670459747314e-02,-3.697220981121063232e-01,1.312778890132904053e-01,-1.677652895450592041e-01,6.259423494338989258e-02
8.339505838724135811e-03,1.357847872117270809e-02,5.434399458035976682e-01,9.981527924537658691e-01,-6.381324492394924164e-03,-4.453479871153831482e-02,-4.082858562469482422e-02,0.000000000000000000e+00,0.000000000000000000e+00,0.000000000000000000e+00,-1.100000000000000089e+00,2.000000000000000111e-01,-5.000000000000000000e-01,0.000000000000000000e+00,1.100000000000000089e+00,2.000000000000000111e-01,5.000000000000000000e-01,1.548944711685180664e-01,8.473351597785949707e-02,2.105280309915542603e-01,1.277244240045547485e-01,-2.513844370841979980e-01,-9.632423520088195801e-02,1.624295264482498169e-01,-6.775825470685958862e-02,-3.709056675434112549e-01,1.306456923484802246e-01,-1.676797419786453247e-01,6.319844722747802734e-02
8.521788545362087713e-03,1.336534457885650735e-02,5.434151587808373485e-01,9.981908202171325684e-01,-6.313165649771690369e-03,-4.439565539360046387e-02,-4.005282372236251831e-02,0.000000000000000000e+00,0.000000000000000000e+00,0.000000000000000000e+00,-1.100000000000000089e+00,2.000000000000000111e-01,-5.000000000000000000e-01,0.000000000000000000e+00,1.100000000000000089e+00,2.000000000000000111e-01,5.000000000000000000e-01,1.546434909105300903e-01,8.463902771472930908e-02,2.090129852294921875e-01,1.278655678033828735e-01,-2.511276602745056152e-01,-9.668838232755661011e-02,1.632099449634552002e-01,-6.797999143600463867e-02,-3.724873960018157959e-01,1.299843788146972656e-01,-1.677963435649871826e-01,6.369507312774658203e-02
8.736980488039364223e-03,1.318138942287087195e-02,5.433545406012222356e-01,9.982169270515441895e-01,-6.277135573327541351e-03,-4.436733201146125793e-02,-3.943555802106857300e-02,0.000000000000000000e+00,0.000000000000000000e+00,0.000000000000000000e+00,-1.100000000000000089e+00,2.000000000000000111e-01,-5.000000000000000000e-01,0.000000000000000000e+00,1.100000000000000089e+00,2.000000000000000111e-01,5.000000000000000000e-01,1.550265401601791382e-01,8.447658270597457886e-02,2.077823728322982788e-01,1.277245879173278809e-01,-2.511800527572631836e-01,-9.725067019462585449e-02,1.644439548254013062e-01,-6.814409047365188599e-02,-3.742043972015380859e-01,1.295035928487777710e-01,-1.681851297616958618e-01,6.413891166448593140e-02
8.978567028916769818e-03,1.299595124934884577e-02,5.432838747507393595e-01,9.982267022132873535e-01,-6.299596279859542847e-03,-4.443013668060302734e-02,-3.911234438419342041e-02,0.000000000000000000e+00,0.000000000000000000e+00,0.000000000000000000e+00,-1.100000000000000089e+00,2.000000000000000111e-01,-5.000000000000000000e-01,0.000000000000000000e+00,1.100000000000000089e+00,2.000000000000000111e-01,5.000000000000000000e-01,1.559138298034667969e-01,8.438897132873535156e-02,2.071233987808227539e-01,1.274011135101318359e-01,-2.514831721782684326e-01,-9.784252196550369263e-02,1.657315790653228760e-01,-6.806141138076782227e-02,-3.753296434879302979e-01,1.293679326772689819e-01,-1.687687933444976807e-01,6.427092850208282471e-02
9.190071538664551509e-03,1.282280278895426597e-02,5.432170286759583355e-01,9.982278943061828613e-01,-6.357852835208177567e-03,-4.455486312508583069e-02,-3.892887756228446960e-02,0.000000000000000000e+00,0.000000000000000000e+00,0.000000000000000000e+00,-1.100000000000000089e+00,2.000000000000000111e-01,-5.000000000000000000e-01,0.000000000000000000e+00,1.100000000000000089e+00,2.000000000000000111e-01,5.000000000000000000e-01,1.567980796098709106e-01,8.434671908617019653e-02,2.066031247377395630e-01,1.272341310977935791e-01,-2.519412040710449219e-01,-9.825523942708969116e-02,1.669248789548873901e-01,-6.785600632429122925e-02,-3.759407103061676025e-01,1.294589936733245850e-01,-1.694175750017166138e-01,6.443584710359573364e-02
9.374282297847622708e-03,1.269040682007361101e-02,5.431728106202802220e-01,9.982216954231262207e-01,-6.462308112531900406e-03,-4.471380636096000671e-02,-3.888792544603347778e-02,0.000000000000000000e+00,0.000000000000000000e+00,0.000000000000000000e+00,-1.100000000000000089e+00,2.000000000000000111e-01,-5.000000000000000000e-01,0.000000000000000000e+00,1.100000000000000089e+00,2.000000000000000111e-01,5.000000000000000000e-01,1.575087606906890869e-01,8.448074012994766235e-02,2.062672823667526245e-01,1.273638010025024414e-01,-2.525185644626617432e-01,-9.830257296562194824e-02,1.677558720111846924e-01,-6.754145771265029907e-02,-3.760353922843933105e-01,1.296092867851257324e-01,-1.699505299329757690e-01,6.452484428882598877e-02
9.525509864736273619e-03,1.261083378202535951e-02,5.431677037462441238e-01,9.982100725173950195e-01,-6.595707964152097702e-03,-4.493273422122001648e-02,-3.891246393322944641e-02,0.000000000000000000e+00,0.000000000000000000e+00,0.000000000000000000e+00,-1.100000000000000089e+00,2.000000000000000111e-01,-5.000000000000000000e-01,0.000000000000000000e+00,1.100000000000000089e+00,2.000000000000000111e-01,5.000000000000000000e-01,1.582659184932708740e-01,8.468552678823471069e-02,2.061498612165451050e-01,1.276973783969879150e-01,-2.531535029411315918e-01,-9.778824448585510254e-02,1.684048920869827271e-01,-6.711774319410324097e-02,-3.754548132419586182e-01,1.295072287321090698e-01,-1.702291667461395264e-01,6.447917222976684570e-02
9.638882208841317162e-03,1.256106251982426480e-02,5.431777514171118870e-01,9.981878995895385742e-01,-6.795631255954504013e-03,-4.526861011981964111e-02,-3.905727714300155640e-02,0.000000000000000000e+00,0.000000000000000000e+00,0.000000000000000000e+00,-1.100000000000000089e+00,2.000000000000000111e-01,-5.000000000000000000e-01,0.000000000000000000e+00,1.100000000000000089e+00,2.000000000000000111e-01,5.000000000000000000e-01,1.593804210424423218e-01,8.500532805919647217e-02,2.063108831644058228e-01,1.279972344636917114e-01,-2.541523575782775879e-01,-9.742838889360427856e-02,1.693042516708374023e-01,-6.651651859283447266e-02,-3.745002746582031250e-01,1.291928142309188843e-01,-1.702999323606491089e-01,6.430672854185104370e-02
9.706352370617102668e-03,1.255693524179867307e-02,5.431879236458828641e-01,9.981533288955688477e-01,-7.003318984061479568e-03,-4.570281878113746643e-02,-3.939694538712501526e-02,0.000000000000000000e+00,0.000000000000000000e+00,0.000000000000000000e+00,-1.100000000000000089e+00,2.000000000000000111e-01,-5.000000000000000000e-01,0.000000000000000000e+00,1.100000000000000089e+00,2.000000000000000111e-01,5.000000000000000000e-01,1.607596427202224731e-01,8.529310673475265503e-02,2.070020288228988647e-01,1.283131986856460571e-01,-2.554745972156524658e-01,-9.706132858991622925e-02,1.705294996500015259e-01,-6.606686115264892578e-02,-3.736937046051025391e-01,1.289472728967666626e-01,-1.703654229640960693e-01,6.419886648654937744e-02
9.726895342317569415e-03,1.265214289166973968e-02,5.431857646422253438e-01,9.981071352958679199e-01,-7.219376042485237122e-03,-4.615340754389762878e-02,-3.999945521354675293e-02,0.000000000000000000e+00,0.000000000000000000e+00,0.000000000000000000e+00,-1.100000000000000089e+00,2.000000000000000111e-01,-5.000000000000000000e-01,0.000000000000000000e+00,1.100000000000000089e+00,2.000000000000000111e-01,5.000000000000000000e-01,1.621946543455123901e-01,8.547077327966690063e-02,2.083538621664047241e-01,1.285426169633865356e-01,-2.568979859352111816e-01,-9.704113006591796875e-02,1.715814322233200073e-01,-6.584599614143371582e-02,-3.727925121784210205e-01,1.288901120424270630e-01,-1.702573895454406738e-01,6.434139609336853027e-02
9.714644553534912061e-03,1.285358545829005765e-02,5.431738070835068211e-01,9.980538487434387207e-01,-7.433393504470586777e-03,-4.652341827750205994e-02,-4.085170477628707886e-02,0.000000000000000000e+00,0.000000000000000000e+00,0.000000000000000000e+00,-1.100000000000000089e+00,2.000000000000000111e-01,-5.000000000000000000e-01,0.000000000000000000e+00,1.100000000000000089e+00,2.000000000000000111e-01,5.000000000000000000e-01,1.633644998073577881e-01,8.546589314937591553e-02,2.102167904376983643e-01,1.286946237087249756e-01,-2.579557299613952637e-01,-9.700471907854080200e-02,1.722103208303451538e-01,-6.576530635356903076e-02,-3.713872432708740234e-01,1.288644820451736450e-01,-1.699378341436386108e-01,6.474393606185913086e-02
9.636609027105750777e-03,1.309734268012842373e-02,5.431711498482360012e-01,9.980003833770751953e-01,-7.650695741176605225e-03,-4.678824543952941895e-02,-4.180313274264335632e-02,0.000000000000000000e+00,0.000000000000000000e+00,0.000000000000000000e+00,-1.100000000000000089e+00,2.000000000000000111e-01,-5.000000000000000000e-01,0.000000000000000000e+00,1.100000000000000089e+00,2.000000000000000111e-01,5.000000000000000000e-01,1.641024202108383179e-01,8.535358309745788574e-02,2.123683243989944458e-01,1.288331001996994019e-01,-2.585225701332092285e-01,-9.657669067382812500e-02,1.722040772438049316e-01,-6.581200659275054932e-02,-3.694275319576263428e-01,1.289431303739547729e-01,-1.694463193416595459e-01,6.489300727844238281e-02
9.476379556746005253e-03,1.339434970311368864e-02,5.431845605824933143e-01,9.979528784751892090e-01,-7.858535274863243103e-03,-4.690568521618843079e-02,-4.275642335414886475e-02,0.000000000000000000e+00,0.000000000000000000e+00,0.000000000000000000e+00,-1.100000000000000089e+00,2.000000000000000111e-01,-5.000000000000000000e-01,0.000000000000000000e+00,1.100000000000000089e+00,2.000000000000000111e-01,5.000000000000000000e-01,1.643277108669281006e-01,8.515999466180801392e-02,2.144614160060882568e-01,1.289312839508056641e-01,-2.586628794670104980e-01,-9.586137533187866211e-02,1.715189814567565918e-01,-6.604335457086563110e-02,-3.673768937587738037e-01,1.292106658220291138e-01,-1.689941436052322388e-01,6.498671323060989380e-02
9.241925253311755045e-03,1.374406158641883896e-02,5.432045728856265132e-01,9.979150891304016113e-01,-8.031573146581649780e-03,-4.691266641020774841e-02,-4.359208419919013977e-02,0.000000000000000000e+00,0.000000000000000000e+00,0.000000000000000000e+00,-1.100000000000000089e+00,2.000000000000000111e-01,-5.000000000000000000e-01,0.000000000000000000e+00,1.100000000000000089e+00,2.000000000000000111e-01,5.000000000000000000e-01,1.642033904790878296e-01,8.480794727802276611e-02,2.163374572992324829e-01,1.288261562585830688e-01,-2.586069405078887939e-01,-9.505379199981689453e-02,1.702898889780044556e-01,-6.654653698205947876e-02,-3.655749559402465820e-01,1.295272111892700195e-01,-1.684054881334304810e-01,6.510610133409500122e-02
8.995687253232293248e-03,1.412795034192521233e-02,5.432324323366687358e-01,9.978858232498168945e-01,-8.162747137248516083e-03,-4.689160734415054321e-02,-4.425386711955070496e-02,0.000000000000000000e+00,0.000000000000000000e+00,0.000000000000000000e+00,-1.100000000000000089e+00,2.000000000000000111e-01,-5.000000000000000000e-01,0.000000000000000000e+00,1.100000000000000089e+00,2.000000000000000111e-01,5.000000000000000000e-01,1.641938239336013794e-01,8.431347459554672241e-02,2.179185897111892700e-01,1.284275352954864502e-01,-2.583748102188110352e-01,-9.438379108905792236e-02,1.690833717584609985e-01,-6.726565957069396973e-02,-3.643652200698852539e-01,1.299421191215515137e-01,-1.676929146051406860e-01,6.539403647184371948e-02
8.736692447887941040e-03,1.452127825104245797e-02,5.432684295707278510e-01,9.978675842285156250e-01,-8.264318108558654785e-03,-4.684462398290634155e-02,-4.469440132379531860e-02,0.000000000000000000e+00,0.000000000000000000e+00,0.000000000000000000e+00,-1.100000000000000089e+00,2.000000000000000111e-01,-5.000000000000000000e-01,0.000000000000000000e+00,1.100000000000000089e+00,2.000000000000000111e-01,5.000000000000000000e-01,1.640202552080154419e-01,8.378988504409790039e-02,2.193929553031921387e-01,1.279727220535278320e-01,-2.579145729541778564e-01,-9.398073703050613403e-02,1.679318845272064209e-01,-6.811983883380889893e-02,-3.636650145053863525e-01,1.304889917373657227e-01,-1.668021380901336670e-01,6.590437144041061401e-02
8.497628204552739456e-03,1.493220126148162713e-02,5.432901441652063790e-01,9.978575706481933594e-01,-8.302631787955760956e-03,-4.684729874134063721e-02,-4.490675032138824463e-02,0.000000000000000000e+00,0.000000000000000000e+00,0.000000000000000000e+00,-1.100000000000000089e+00,2.000000000000000111e-01,-5.000000000000000000e-01,0.000000000000000000e+00,1.100000000000000089e+00,2.000000000000000111e-01,5.000000000000000000e-01,1.637845188379287720e-01,8.309552818536758423e-02,2.206390947103500366e-01,1.276412010192871094e-01,-2.572173178195953369e-01,-9.360470622777938843e-02,1.671463102102279663e-01,-6.907687336206436157e-02,-3.631336390972137451e-01,1.310559660196304321e-01,-1.660126447677612305e-01,6.664889305830001831e-02
8.283818076115402260e-03,1.536406686689441303e-02,5.433124400299005341e-01,9.978612661361694336e-01,-8.260776288807392120e-03,-4.686705023050308228e-02,-4.481276124715805054e-02,0.000000000000000000e+00,0.000000000000000000e+00,0.000000000000000000e+00,-1.100000000000000089e+00,2.000000000000000111e-01,-5.000000000000000000e-01,0.000000000000000000e+00,1.100000000000000089e+00,2.000000000000000111e-01,5.000000000000000000e-01,1.634435802698135376e-01,8.206178992986679077e-02,2.213321328163146973e-01,1.274208277463912964e-01,-2.564898133277893066e-01,-9.299839287996292114e-02,1.666851341724395752e-01,-7.027023285627365112e-02,-3.630642294883728027e-01,1.315827667713165283e-01,-1.653343290090560913e-01,6.743924319744110107e-02
8.063720368516791651e-03,1.581701000500940896e-02,5.433322032172270832e-01,9.978788495063781738e-01,-8.173391222953796387e-03,-4.693789035081863403e-02,-4.435998201370239258e-02,0.000000000000000000e+00,0.000000000000000000e+00,0.000000000000000000e+00,-1.100000000000000089e+00,2.000000000000000111e-01,-5.000000000000000000e-01,0.000000000000000000e+00,1.100000000000000089e+00,2.000000000000000111e-01,5.000000000000000000e-01,1.631113737821578979e-01,8.073411136865615845e-02,2.212510257959365845e-01,1.272623986005783081e-01,-2.561514973640441895e-01,-9.247464686632156372e-02,1.664861440658569336e-01,-7.158994674682617188e-02,-3.634939491748809814e-01,1.319428086280822754e-01,-1.645386517047882080e-01,6.826657801866531372e-02
7.838990663888515883e-03,1.628492474360767814e-02,5.433410468283627059e-01,9.979087710380554199e-01,-8.042610250413417816e-03,-4.704922065138816833e-02,-4.358665645122528076e-02,0.000000000000000000e+00,0.000000000000000000e+00,0.000000000000000000e+00,-1.100000000000000089e+00,2.000000000000000111e-01,-5.000000000000000000e-01,0.000000000000000000e+00,1.100000000000000089e+00,2.000000000000000111e-01,5.000000000000000000e-01,1.626736074686050415e-01,7.913669943809509277e-02,2.201516479253768921e-01,1.272034347057342529e-01,-2.563382983207702637e-01,-9.188655018806457520e-02,1.663239747285842896e-01,-7.312220335006713867e-02,-3.644675314426422119e-01,1.322119981050491333e-01,-1.638207733631134033e-01,6.908007711172103882e-02
7.617284083372038647e-03,1.675819157961417477e-02,5.433497243622938955e-01,9.979474544525146484e-01,-7.905703969299793243e-03,-4.722453653812408447e-02,-4.252322763204574585e-02,0.000000000000000000e+00,0.000000000000000000e+00,0.000000000000000000e+00,-1.100000000000000089e+00,2.000000000000000111e-01,-5.000000000000000000e-01,0.000000000000000000e+00,1.100000000000000089e+00,2.000000000000000111e-01,5.000000000000000000e-01,1.621013283729553223e-01,7.741443067789077759e-02,2.180878072977066040e-01,1.272118985652923584e-01,-2.564005851745605469e-01,-9.116084873676300049e-02,1.665564924478530884e-01,-7.489043474197387695e-02,-3.663460314273834229e-01,1.323417425155639648e-01,-1.632770448923110962e-01,7.016082853078842163e-02
7.442836847339728314e-03,1.727480326849741357e-02,5.433615573631092044e-01,9.979926347732543945e-01,-7.784164510667324066e-03,-4.742309451103210449e-02,-4.124511778354644775e-02,0.000000000000000000e+00,0.000000000000000000e+00,0.000000000000000000e+00,-1.100000000000000089e+00,2.000000000000000111e-01,-5.000000000000000000e-01,0.000000000000000000e+00,1.100000000000000089e+00,2.000000000000000111e-01,5.000000000000000000e-01,1.614363342523574829e-01,7.564926892518997192e-02,2.155875414609909058e-01,1.271585524082183838e-01,-2.561488151550292969e-01,-9.038621932268142700e-02,1.672164201736450195e-01,-7.675282657146453857e-02,-3.688444793224334717e-01,1.323582530021667480e-01,-1.628718227148056030e-01,7.150309532880783081e-02
7.350618587148309742e-03,1.782480815277350319e-02,5.433759230412918972e-01,9.980362653732299805e-01,-7.691229227930307388e-03,-4.766797274351119995e-02,-3.990348055958747864e-02,0.000000000000000000e+00,0.000000000000000000e+00,0.000000000000000000e+00,-1.100000000000000089e+00,2.000000000000000111e-01,-5.000000000000000000e-01,0.000000000000000000e+00,1.100000000000000089e+00,2.000000000000000111e-01,5.000000000000000000e-01,1.610262393951416016e-01,7.385630160570144653e-02,2.130175977945327759e-01,1.269538402557373047e-01,-2.556761503219604492e-01,-8.978822082281112671e-02,1.682769805192947388e-01,-7.858027517795562744e-02,-3.713703155517578125e-01,1.323789954185485840e-01,-1.625474989414215088e-01,7.307977229356765747e-02
7.323859397585343392e-03,1.839590224705523608e-02,5.433963090181350708e-01,9.980802536010742188e-01,-7.603756617754697800e-03,-4.784749075770378113e-02,-3.858195245265960693e-02,0.000000000000000000e+00,0.000000000000000000e+00,0.000000000000000000e+00,-1.100000000000000089e+00,2.000000000000000111e-01,-5.000000000000000000e-01,0.000000000000000000e+00,1.100000000000000089e+00,2.000000000000000111e-01,5.000000000000000000e-01,1.607897877693176270e-01,7.203167676925659180e-02,2.107411026954650879e-01,1.266341507434844971e-01,-2.551563680171966553e-01,-8.947429060935974121e-02,1.693899184465408325e-01,-8.034285902976989746e-02,-3.736823797225952148e-01,1.324248313903808594e-01,-1.620744466781616211e-01,7.491298764944076538e-02
7.305489701802155532e-03,1.895498947844831070e-02,5.434133319315885835e-01,9.981213212013244629e-01,-7.513687480241060257e-03,-4.789179563522338867e-02,-3.746623545885086060e-02,0.000000000000000000e+00,0.000000000000000000e+00,0.000000000000000000e+00,-1.100000000000000089e+00,2.000000000000000111e-01,-5.000000000000000000e-01,0.000000000000000000e+00,1.100000000000000089e+00,2.000000000000000111e-01,5.000000000000000000e-01,1.605599671602249146e-01,7.020674645900726318e-02,2.088652253150939941e-01,1.262826472520828247e-01,-2.547780275344848633e-01,-8.921837806701660156e-02,1.700218170881271362e-01,-8.204022794961929321e-02,-3.754946291446685791e-01,1.324601024389266968e-01,-1.615111082792282104e-01,7.672154903411865234e-02
7.264188377026732299e-03,1.952576828553726981e-02,5.434289847081056335e-01,9.981611371040344238e-01,-7.426803000271320343e-03,-4.769679158926010132e-02,-3.666333109140396118e-02,0.000000000000000000e+00,0.000000000000000000e+00,0.000000000000000000e+00,-1.100000000000000089e+00,2.000000000000000111e-01,-5.000000000000000000e-01,0.000000000000000000e+00,1.100000000000000089e+00,2.000000000000000111e-01,5.000000000000000000e-01,1.599757522344589233e-01,6.837099790573120117e-02,2.071959823369979858e-01,1.259464919567108154e-01,-2.546187043190002441e-01,-8.885030448436737061e-02,1.696936041116714478e-01,-8.355917036533355713e-02,-3.766445517539978027e-01,1.324607431888580322e-01,-1.610000282526016235e-01,7.818071544170379639e-02
7.204719763061012867e-03,2.013638226708133749e-02,5.434542699624793638e-01,9.982004761695861816e-01,-7.369069848209619522e-03,-4.721681028604507446e-02,-3.622253984212875366e-02,0.000000000000000000e+00,0.000000000000000000e+00,0.000000000000000000e+00,-1.100000000000000089e+00,2.000000000000000111e-01,-5.000000000000000000e-01,0.000000000000000000e+00,1.100000000000000089e+00,2.000000000000000111e-01,5.000000000000000000e-01,1.588437706232070923e-01,6.671386212110519409e-02,2.062950283288955688e-01,1.255260556936264038e-01,-2.546019256114959717e-01,-8.822505176067352295e-02,1.683100908994674683e-01,-8.483416587114334106e-02,-3.769038021564483643e-01,1.323948204517364502e-01,-1.604708284139633179e-01,7.920641452074050903e-02
7.147696895426082497e-03,2.079087695998205546e-02,5.434957062249833326e-01,9.982348680496215820e-01,-7.356563583016395569e-03,-4.641464352607727051e-02,-3.631507605314254761e-02,0.000000000000000000e+00,0.000000000000000000e+00,0.000000000000000000e+00,-1.100000000000000089e+00,2.000000000000000111e-01,-5.000000000000000000e-01,0.000000000000000000e+00,1.100000000000000089e+00,2.000000000000000111e-01,5.000000000000000000e-01,1.571734249591827393e-01,6.538778543472290039e-02,2.067432701587677002e-01,1.250365823507308960e-01,-2.545645534992218018e-01,-8.749126642942428589e-02,1.657593995332717896e-01,-8.581949770450592041e-02,-3.757662475109100342e-01,1.323605179786682129e-01,-1.598353385925292969e-01,7.990386337041854858e-02
7.140031394459345204e-03,2.138170050715820780e-02,5.435132688893513642e-01,9.982541799545288086e-01,-7.357463706284761429e-03,-4.540295898914337158e-02,-3.705338761210441589e-02,0.000000000000000000e+00,0.000000000000000000e+00,0.000000000000000000e+00,-1.100000000000000089e+00,2.000000000000000111e-01,-5.000000000000000000e-01,0.000000000000000000e+00,1.100000000000000089e+00,2.000000000000000111e-01,5.000000000000000000e-01,1.552241146564483643e-01,6.446140259504318237e-02,2.086771279573440552e-01,1.246113628149032593e-01,-2.544934749603271484e-01,-8.650263398885726929e-02,1.623695492744445801e-01,-8.660549670457839966e-02,-3.732097744941711426e-01,1.327585428953170776e-01,-1.592559367418289185e-01,8.023144304752349854e-02
7.169293419392121051e-03,2.186549118851697018e-02,5.435249358129621289e-01,9.982508420944213867e-01,-7.369955070316791534e-03,-4.427568987011909485e-02,-3.847793117165565491e-02,0.000000000000000000e+00,0.000000000000000000e+00,0.000000000000000000e+00,-1.100000000000000089e+00,2.000000000000000111e-01,-5.000000000000000000e-01,0.000000000000000000e+00,1.100000000000000089e+00,2.000000000000000111e-01,5.000000000000000000e-01,1.533437371253967285e-01,6.387344002723693848e-02,2.119267433881759644e-01,1.241069957613945007e-01,-2.542723715305328369e-01,-8.534914255142211914e-02,1.582587212324142456e-01,-8.738446235656738281e-02,-3.694669008255004883e-01,1.338278651237487793e-01,-1.586591452360153198e-01,8.030646294355392456e-02
7.255413532233561530e-03,2.229630064670786588e-02,5.435496813164214513e-01,9.982252120971679688e-01,-7.381882518529891968e-03,-4.300592467188835144e-02,-4.052652046084403992e-02,0.000000000000000000e+00,0.000000000000000000e+00,0.000000000000000000e+00,-1.100000000000000089e+00,2.000000000000000111e-01,-5.000000000000000000e-01,0.000000000000000000e+00,1.100000000000000089e+00,2.000000000000000111e-01,5.000000000000000000e-01,1.514559090137481689e-01,6.349010020494461060e-02,2.162878662347793579e-01,1.234662607312202454e-01,-2.540136277675628662e-01,-8.392000943422317505e-02,1.532934457063674927e-01,-8.824978023767471313e-02,-3.648576438426971436e-01,1.356398910284042358e-01,-1.580108404159545898e-01,8.034732937812805176e-02
7.409712229925913100e-03,2.267045182862667194e-02,5.435767519007427273e-01,9.981780648231506348e-01,-7.392528001219034195e-03,-4.165583476424217224e-02,-4.301906004548072815e-02,0.000000000000000000e+00,0.000000000000000000e+00,0.000000000000000000e+00,-1.100000000000000089e+00,2.000000000000000111e-01,-5.000000000000000000e-01,0.000000000000000000e+00,1.100000000000000089e+00,2.000000000000000111e-01,5.000000000000000000e-01,1.495933383703231812e-01,6.340269744396209717e-02,2.219123542308807373e-01,1.228947266936302185e-01,-2.539175152778625488e-01,-8.265744894742965698e-02,1.477974504232406616e-01,-8.903350681066513062e-02,-3.595130443572998047e-01,1.379877775907516479e-01,-1.575993299484252930e-01,8.013706654310226440e-02
7.601377001135713359e-03,2.298387065285233469e-02,5.435819833326821504e-01,9.981036782264709473e-01,-7.426025811582803726e-03,-4.038699343800544739e-02,-4.585671052336692810e-02,0.000000000000000000e+00,0.000000000000000000e+00,0.000000000000000000e+00,-1.100000000000000089e+00,2.000000000000000111e-01,-5.000000000000000000e-01,0.000000000000000000e+00,1.100000000000000089e+00,2.000000000000000111e-01,5.000000000000000000e-01,1.482485085725784302e-01,6.364674121141433716e-02,2.284834682941436768e-01,1.224677935242652893e-01,-2.538732290267944336e-01,-8.142343908548355103e-02,1.423782408237457275e-01,-8.965869247913360596e-02,-3.537765741348266602e-01,1.407422721385955811e-01,-1.577028185129165649e-01,7.951833307743072510e-02
7.831848046620085158e-03,2.322981542286773476e-02,5.435762536691294278e-01,9.980056285858154297e-01,-7.526620756834745407e-03,-3.918176516890525818e-02,-4.891810193657875061e-02,0.000000000000000000e+00,0.000000000000000000e+00,0.000000000000000000e+00,-1.100000000000000089e+00,2.000000000000000111e-01,-5.000000000000000000e-01,0.000000000000000000e+00,1.100000000000000089e+00,2.000000000000000111e-01,5.000000000000000000e-01,1.474014818668365479e-01,6.426393240690231323e-02,2.353586107492446899e-01,1.221804618835449219e-01,-2.541210055351257324e-01,-8.048886060714721680e-02,1.374372690916061401e-01,-8.983409404754638672e-02,-3.481574952602386475e-01,1.430962681770324707e-01,-1.579670011997222900e-01,7.872699946165084839e-02
8.111119840642192977e-03,2.337577652590669061e-02,5.435855539925772417e-01,9.978947043418884277e-01,-7.691535633057355881e-03,-3.798639029264450073e-02,-5.199933052062988281e-02,0.000000000000000000e+00,0.000000000000000000e+00,0.000000000000000000e+00,-1.100000000000000089e+00,2.000000000000000111e-01,-5.000000000000000000e-01,0.000000000000000000e+00,1.100000000000000089e+00,2.000000000000000111e-01,5.000000000000000000e-01,1.467987447977066040e-01,6.519424170255661011e-02,2.419955432415008545e-01,1.219350472092628479e-01,-2.546379864215850830e-01,-7.986985146999359131e-02,1.330831646919250488e-01,-8.953850716352462769e-02,-3.430441319942474365e-01,1.448196619749069214e-01,-1.581730097532272339e-01,7.813674956560134888e-02
8.487362557354223569e-03,2.339561237201019314e-02,5.436156139665782039e-01,9.977642893791198730e-01,-7.944391109049320221e-03,-3.678696230053901672e-02,-5.522797629237174988e-02,0.000000000000000000e+00,0.000000000000000000e+00,0.000000000000000000e+00,-1.100000000000000089e+00,2.000000000000000111e-01,-5.000000000000000000e-01,0.000000000000000000e+00,1.100000000000000089e+00,2.000000000000000111e-01,5.000000000000000000e-01,1.465114504098892212e-01,6.654743105173110962e-02,2.485854476690292358e-01,1.216430142521858215e-01,-2.553543746471405029e-01,-7.970365881919860840e-02,1.292716562747955322e-01,-8.856613934040069580e-02,-3.379184305667877197e-01,1.457908153533935547e-01,-1.581140011548995972e-01,7.769296318292617798e-02
8.990350725561983142e-03,2.331813216623332755e-02,5.436489954846676076e-01,9.976071119308471680e-01,-8.301712572574615479e-03,-3.562878072261810303e-02,-5.866549536585807800e-02,0.000000000000000000e+00,0.000000000000000000e+00,0.000000000000000000e+00,-1.100000000000000089e+00,2.000000000000000111e-01,-5.000000000000000000e-01,0.000000000000000000e+00,1.100000000000000089e+00,2.000000000000000111e-01,5.000000000000000000e-01,1.466624736785888672e-01,6.843446195125579834e-02,2.554243803024291992e-01,1.213395968079566956e-01,-2.561497986316680908e-01,-8.009750396013259888e-02,1.259450018405914307e-01,-8.691538125276565552e-02,-3.325534164905548096e-01,1.461636424064636230e-01,-1.578390300273895264e-01,7.732613384723663330e-02
